tree
version=v4
num_class=1
num_tree_per_iteration=1
label_index=0
max_feature_idx=12
objective=binary sigmoid:1
feature_names=roc10 cci20 willr14 obv atr14 macd_hist rsi14 mfi14 pos_in_don20 parkinson20 stochd14 vol_z20 vwap20
feature_infos=[-4.1703283016670438:12.013602568588087] [-9.4003058859497273:8.5985982908952572] [-1.5465124176934388:1.5601657419995683] [-2.0690869769264864:8.1249284322984785] [-0.76677223869155109:9.9563387144862503] [-12.139452246332191:6.0407165437679673] [-1.8530005263083957:2.2297385356895747] [-1.6072137974294172:1.7874029005742209] [-1.1164822786412656:1.9182792128158421] [-0.59957410846879911:7.7662977683948355] [-1.5167407340106447:1.8120475459252792] [-1.9281186045601588:4.4006481610795083] [-0.74862115343445279:5.1618874324933266]
tree_sizes=2438 2543 2452 2861 2322 2750 2952 2742 2638 2534 2645 2656 2530 2318 2657 2447 2232 2438 1910 2000 2133

Tree=0
num_leaves=22
num_cat=0
split_feature=1 5 3 12 5 6 2 5 10 6 4 2 5 12 11 12 2 11 4 11 2
split_gain=32.9806 17.6172 14.4603 9.18958 12.2184 8.7021 10.3511 7.68798 7.88112 7.13792 6.57447 6.32001 4.37323 6.08644 4.27326 3.73237 2.57612 2.33178 2.31625 2.01594 1.26556
threshold=-0.53836130766222212 -0.14611111649795713 -0.21979896931573464 -0.60032081372506096 -1.559439079494519 1.5669525609999495 0.97884027567875054 0.24447578297985709 -1.163440285918157 0.96303968995722677 -0.3568255707914566 0.75082611538577659 -0.37985436755069885 -0.19280846711683416 0.62184885874571949 1.4575070882218382 -0.45139300708024493 -0.040208484712546809 1.2539629853451262 -0.36069945134304399 -1.3394005403768077
decision_type=2 2 2 2 2 2 2 2 2 2 2 2 2 2 2 2 2 2 2 2 2
left_child=1 3 7 -1 15 6 9 8 -2 10 -4 -9 13 -6 19 18 -10 -18 -5 -3 -14
right_child=2 14 5 4 12 -7 -8 11 16 -11 -12 -13 20 -15 -16 -17 17 -19 -20 -21 -22
leaf_value=0.068662355974401679 0.029231288269362842 -0.038962345320273026 -0.0052345772799702595 0.029212333776342546 0.019868643779709177 -0.038374130951293751 0.070979025704145618 -0.0010273139350023969 0.055799226369100917 -0.028953175470400071 0.039607319166845886 0.057758660080988525 -0.020047312865530062 -0.033384549946004059 -0.0077054475530983595 0.0026131641856681452 0.066234936382532528 0.11205811144120639 0.076039737433448773 -0.079972553723450898 -0.057732634113123182
leaf_weight=5.2495196610689154 8.4992223083972949 7.2493366748094568 12.498856335878367 6.2494281679391879 11.748924955725668 5.9994510412216178 9.7491079419851285 8.7491994351148623 5.7494739145040556 7.7492909282445899 22.997895658016208 9.2491536885499936 4.9995425343513489 9.4991308152675646 5.4994967877864829 5.9994510412216178 4.9995425343513515 10.499039322137826 4.9995425343513489 7.9992680549621591 6.7493824213743192
leaf_count=21 34 29 50 25 47 24 39 35 23 31 92 37 20 38 22 24 20 42 20 32 27
internal_value=0.016835 -0.00828562 0.0347403 0.0065726 -9.92097e-05 0.0182589 0.0246722 0.0551686 0.070777 0.0142529 0.0236534 0.0289524 -0.0179305 -0.00383892 -0.0475362 0.0337415 0.0870359 0.0979937 0.0507832 -0.0613072 -0.0425843
internal_weight=182.983 76.243 106.74 55.4949 50.2454 58.9946 52.9952 47.7456 29.7473 43.246 35.4968 17.9984 32.997 21.2481 20.7481 17.2484 21.2481 15.4986 11.249 15.2486 11.7489
internal_count=732 305 427 222 201 236 212 191 119 173 142 72 132 85 83 69 85 62 45 61 47
is_linear=0
shrinkage=1


Tree=1
num_leaves=23
num_cat=0
split_feature=1 5 7 12 5 2 8 2 5 11 2 6 8 7 2 2 12 1 6 1 7 4
split_gain=29.8319 15.9503 10.7825 8.3167 11.0544 5.9972 6.09335 5.0482 4.8706 5.05523 5.06191 4.61908 4.27119 3.9994 3.87035 3.54263 3.38302 3.1428 3.13394 2.92526 2.24035 0.357737
threshold=-0.53836130766222212 -0.14611111649795713 0.99176297466302887 -0.60032081372506096 -1.559439079494519 -0.45139300708024493 -0.26755132044945051 0.97884027567875054 0.25875062435307644 -0.54660902371445663 -0.14638053406569948 -0.12121864049342639 -0.71569649625821696 -1.0818260497399093 0.28094532330318439 -1.4131944095738755 1.4575070882218382 1.1089025945563471 1.1454934289799683 0.63616912867751085 -0.77434708283192943 -0.59593102819221644
decision_type=2 2 2 2 2 2 2 2 2 2 2 2 2 2 2 2 2 2 2 2 2 2
left_child=1 3 5 -1 16 6 11 14 9 -7 -11 -2 21 -6 -4 -15 20 -16 19 -10 -5 -3
right_child=2 12 7 4 13 8 -8 -9 18 10 -12 -13 -14 15 17 -17 -18 -19 -20 -21 -22 -23
leaf_value=0.047154163036547597 -0.0040024886502710889 -0.066712327324494988 -0.00048439563652510458 0.0089462386831621384 -0.004948495331781412 0.086735877630054165 -0.041808908405401413 0.017721906360985386 0.0372910423350497 0.077126435577472507 0.02444858297510645 0.056004599772941005 -0.035916563392992124 -0.01884050659571801 -0.018640739376289947 -0.059777454756365006 -0.015702311154292655 -0.076621722089723496 -0.015004303176733359 -0.0059176615222687329 0.054974930224612001 -0.095313335759141249
leaf_weight=5.2438169270753852 8.246843233704567 5.2454192191362381 7.4977466315031114 6.246512860059739 8.498203903436659 5.7460982352495185 5.9977448284625998 8.741582587361334 13.243067860603338 5.7409882247447994 24.721207171678543 4.9976978600025186 8.9945432096719724 8.7487262189388257 4.9979692995548231 15.743139624595644 5.9999896287918082 4.9985727667808533 6.4964416176080695 5.246459648013114 4.9949333518743524 6.4944271743297595
leaf_count=21 33 21 30 25 34 23 24 35 53 23 99 20 36 35 20 63 24 20 26 21 20 26
internal_value=-0.00218169 -0.0260785 0.0148525 -0.0119343 -0.0182835 0.0239458 -0.000147535 -0.0128221 0.0315913 0.0433621 0.0347599 0.0185159 -0.0634426 -0.035247 -0.0283826 -0.0454938 0.0139024 -0.0485999 0.0142296 0.0247956 0.0301435 -0.083628
internal_weight=182.882 76.2097 106.672 55.4753 50.2315 80.4365 19.2423 26.2359 61.1943 36.2083 30.4622 13.2445 20.7344 32.9901 17.4943 24.4919 17.2414 9.99654 24.986 18.4895 11.2414 11.7398
internal_count=732 305 427 222 201 322 77 105 245 145 122 53 83 132 70 98 69 40 100 74 45 47
is_linear=0
shrinkage=0.05


Tree=2
num_leaves=22
num_cat=0
split_feature=1 5 3 12 6 2 5 10 1 4 2 3 10 1 7 10 5 12 12 2 8
split_gain=26.9939 14.8525 12.6908 8.04987 7.66125 9.09975 6.72634 7.0252 6.46411 7.16631 5.67788 4.92113 4.18223 4.16371 4.09112 2.95745 2.72754 6.82641 2.45076 2.28004 1.40282
threshold=-0.53836130766222212 -0.37985436755069885 -0.21979896931573464 -0.6572916702057352 1.5669525609999495 0.97884027567875054 0.24447578297985709 -1.163440285918157 0.29814978018822341 -0.51523164636770458 0.75082611538577659 -0.083497727442688158 0.17573032447485729 -1.1243418804290954 -0.77958790672044909 -1.1945088423199521 -0.14611111649795713 -0.53881283792783874 -0.61977664369816343 -0.92469438231305345 0.45459388265482059
decision_type=2 2 2 2 2 2 2 2 2 2 2 2 2 2 2 2 2 2 2 2 2
left_child=1 11 6 -3 5 8 7 -2 9 -4 -8 13 -10 14 15 -1 17 -5 -9 -18 -20
right_child=2 3 4 16 -6 -7 10 18 12 -11 -12 -13 -14 -15 -16 -17 19 -19 20 -21 -22
leaf_value=-0.0027291027843008211 0.0086845689173069545 0.01049351206424865 -0.039112697523812336 0.0020915833077443068 -0.054464121652892154 0.04818524082631373 -0.019640035528582241 0.086285306691370661 -0.062711612097898065 0.027798043986221089 0.036098254261453674 -0.041036459708498507 -0.011212641718493583 0.036040520951250175 0.021064668642609079 -0.048255706261598592 -0.084281843721354652 -0.066731025366039004 0.031636870209713938 -0.042096372166729637 0.067286284613650701
leaf_weight=9.244785860180853 8.494728162884714 4.9856669306755057 4.9976341575384131 5.7355687022209159 5.9957554191350928 9.7260744124650937 8.7481383383274096 7.965527847409251 5.4955690950155285 17.979146182537082 9.2368991672992689 6.9911639839410773 14.73431149125099 7.9906925261020652 8.9877922683954257 5.9960639476776114 11.451333716511728 8.9801105260849017 7.2248512804508191 5.7378500998020163 5.975952535867691
leaf_count=37 34 20 20 23 24 39 35 32 22 72 37 28 59 32 36 24 46 36 29 23 24
internal_value=-0.00208175 -0.0248332 0.0141254 -0.0475709 -0.00131436 0.00470305 0.0332888 0.0479197 -0.00505826 0.0129213 0.00875132 -0.00324709 -0.0256882 0.00489959 -0.00527121 -0.0211639 -0.0568051 -0.0397362 0.0633161 -0.0708142 0.0485357
internal_weight=182.676 76.101 106.575 36.8905 58.9285 52.9327 47.6461 29.6611 43.2067 22.9768 17.985 39.2105 20.2299 32.2193 24.2286 15.2408 31.9049 14.7157 21.1663 17.1892 13.2008
internal_count=732 305 427 148 236 212 191 119 173 92 72 157 81 129 97 61 128 59 85 69 53
is_linear=0
shrinkage=0.05


Tree=3
num_leaves=26
num_cat=0
split_feature=1 0 3 5 6 5 10 3 11 1 0 5 7 10 10 11 12 10 1 4 0 12 0 6 12
split_gain=24.4461 26.5984 11.5279 9.07277 6.93583 6.12713 6.41014 4.97648 4.40335 4.40242 8.05696 3.36692 6.81417 6.79212 8.72519 5.87649 4.48388 3.18096 2.79761 4.54377 2.67481 2.24427 2.43661 1.71077 1.37443
threshold=-0.53836130766222212 -2.1656663465931003 -0.21979896931573464 -1.559439079494519 1.5669525609999495 0.24447578297985709 -1.163440285918157 -0.35267023846646034 -0.024904303115032379 -1.32215123216992 -2.7376705466657794 0.10953224641711119 0.88724385315984267 -0.17023889916210441 0.42016492268378386 -0.52233103479286791 -0.20398786859366105 0.48103431363083715 -1.0652069767884995 -0.3062594619755859 0.18442866309666181 -0.61977664369816343 -0.031575819307049453 -0.9428626182184483 1.4575070882218382
decision_type=2 2 2 2 2 2 2 2 2 2 2 2 2 2 2 2 2 2 2 2 2 2 2 2 2
left_child=1 9 5 24 11 6 -2 -5 17 10 -1 13 20 15 -15 -4 -14 -7 23 -20 -13 -8 -23 -9 -3
right_child=2 3 4 7 -6 8 21 18 -10 -11 -12 12 16 14 -16 -17 -18 -19 19 -21 -22 22 -24 -25 -26
leaf_value=0.039406418565964697 0.0082572922044776773 0.018270609712288485 -0.019414199746956795 -0.017289895403102717 -0.051885696605878343 -0.005358859100057913 0.082618390858684346 -0.092167308091563649 -0.030763682190369502 0.050995719625236052 -0.041816442613089283 0.015079855735575524 0.016526928913712782 -0.067336413383063273 0.016296787970008424 0.04992282302811011 -0.036682450123008824 0.044099210814862608 -0.066535345147644115 -0.0094394040193335194 0.064843886364496589 0.022712516948447687 0.067722174448957104 -0.059015229136011219 -0.018017625443966175
leaf_weight=6.9898693114519119 8.4928015768528002 5.2353900223970395 5.4947356730699539 8.9707805365324003 5.9842574000358573 5.2429449558258074 7.908905670046809 7.9563266485929445 4.9925691932439795 8.72992095351219 5.243241414427759 4.9868843257427233 9.723730534315111 7.7418371737003309 4.9893824756145477 6.4868284612894076 6.4881268292665473 7.7345565259456635 8.1817567199468595 6.4747960120439556 6.9752843677997589 6.4633779674768475 6.6927225291728929 13.178955361247064 4.9982912391424179
leaf_count=28 34 21 22 36 24 21 32 32 20 35 21 20 39 31 20 26 26 31 33 26 28 26 27 53 20
internal_value=-0.00198245 -0.0236559 0.0134512 -0.0419355 -0.00126138 0.0317445 0.045746 -0.0516268 0.00831206 0.0240345 0.00413124 0.00445962 0.0163113 -0.00886176 -0.0342992 0.0178136 -0.00455574 0.0238475 -0.0600215 -0.0418859 0.0448094 0.0605136 0.046325 -0.072106 6.01651e-05
internal_weight=182.358 75.9593 106.399 54.9963 58.8711 47.5279 29.5578 44.7626 17.9701 20.963 12.2331 52.8868 28.174 24.7128 12.7312 11.9816 16.2119 12.9775 35.7918 14.6566 11.9622 21.065 13.1561 21.1353 10.2337
internal_count=732 305 427 221 236 191 119 180 72 84 49 212 113 99 51 48 65 52 144 59 48 85 53 85 41
is_linear=0
shrinkage=0.05


Tree=4
num_leaves=21
num_cat=0
split_feature=2 0 3 9 9 5 6 2 9 6 4 2 7 9 5 3 9 10 2 12
split_gain=19.0573 17.74 12.1903 10.4044 8.44883 7.37072 6.43648 7.81467 5.83723 5.68955 9.67853 4.87202 6.27333 5.44249 3.31417 4.46706 7.63733 3.76531 3.00884 2.59944
threshold=-0.328107974645032 -2.6251574878094104 -0.21979896931573464 -0.4645061046737971 0.22716428791189877 -1.0787388353527787 1.5669525609999495 0.97884027567875054 -0.30121513135624439 0.96303968995722677 -0.33670232340554884 -0.97947336671298146 -0.58292109489771893 1.2729369638174528 0.24447578297985709 -0.30256328441458108 -0.45973282619210137 -0.88149190351409212 -1.3931748214917128 -0.045328250121010973
decision_type=2 2 2 2 2 2 2 2 2 2 2 2 2 2 2 2 2 2 2 2
left_child=1 18 14 -3 5 -5 7 9 -7 10 -4 12 -6 -13 17 -16 -17 -2 -1 -19
right_child=2 3 6 4 11 8 -8 -9 -10 -11 -12 13 -14 -15 15 16 -18 19 -20 -21
leaf_value=0.054135466760113528 0.01544253749148756 0.043848282933948296 -0.030156108124174675 -0.0071302909612955094 0 -0.019685543400348858 -0.049493562443104766 0.044734602439919689 -0.072396554607630281 -0.04338835745676789 0.034530380274861716 -0.013325294996462218 -0.048558918743690463 0.04954059614384352 0.055607824357417124 0.043056545991633659 -0.042556533122319398 0.077265359866438219 0.0040402692774033641 0.030400932289398191
leaf_weight=8.4789692610502225 6.2422137707471856 4.9647548943758002 10.234489247202875 9.2218848466873151 12.190421983599661 7.4351611286401775 5.9651155173778525 9.6749275326728803 21.549512982368469 7.7321568578481665 12.960814952850344 9.4558425992727297 14.654754772782324 5.2309540063142768 5.2362356483936301 4.980320841073989 5.2429311424493781 10.530502349138258 4.9814923852682105 4.9459719210863122
leaf_count=34 25 20 41 37 49 30 24 39 87 31 52 38 59 21 21 20 21 43 20 20
internal_value=-0.00188706 -0.0168515 0.0155933 -0.0253628 -0.0297842 -0.0467845 -0.00135821 0.005695 -0.0591612 -0.00646129 0.00576713 -0.0139503 -0.0266297 0.00891094 0.0369067 0.0185161 -0.000352172 0.0496231 0.0361313 0.0629007
internal_weight=181.909 98.1637 83.7457 84.7033 79.7385 38.2066 46.5675 40.6024 28.9847 30.9275 23.1953 41.532 26.8452 14.6868 37.1782 15.4595 10.2233 21.7187 13.4605 15.4765
internal_count=732 395 337 341 321 154 187 163 117 124 93 167 108 59 150 62 41 88 54 63
is_linear=0
shrinkage=0.05


Tree=5
num_leaves=25
num_cat=0
split_feature=1 0 1 5 3 9 7 7 3 7 9 9 9 1 12 5 5 4 1 11 3 7 12 1
split_gain=26.381 29.9974 13.8594 9.70612 11.247 9.17835 7.62592 7.28954 6.86536 6.6389 5.34237 5.15298 5.45896 4.22828 7.35416 3.97263 3.95166 6.24023 3.48427 1.70766 3.37204 2.10903 1.45994 0.609258
threshold=-0.70966172747959388 -2.2305494402462558 1.4653766376639046 0.092399618734264402 -0.10644527995237144 0.71578382420450781 0.36108117102143522 0.44169636373002957 -0.29413557048679528 1.0143419966153946 -0.19480346576695154 0.26286165751684581 -0.27543560057211419 -1.3781150429116675 -0.43029565667955133 0.7119513078186791 0.23382161713385383 -0.19454963994868793 0.85597122655224422 -0.63847831855996817 -0.059412103765236195 -0.22292909973467534 -0.028725163110113316 -1.1518130685319472
decision_type=2 2 2 2 2 2 2 2 2 2 2 2 2 2 2 2 2 2 2 2 2 2 2 2
left_child=1 13 3 4 7 6 -6 10 11 16 -2 12 -3 14 -1 -4 -5 -18 -11 -10 21 -21 -14 -15
right_child=2 8 15 9 5 -7 -8 -9 19 18 -12 -13 22 23 -16 -17 17 -19 -20 20 -22 -23 -24 -25
leaf_value=-0.037496465277045372 0.030446511329392724 0.0047474271890707393 -0.0024887341035489076 0.079539400692144768 -0.092534979389979788 0.017407468257647288 -0.010714149177736046 0.075251776816521912 -0.031920406793642213 -0.016842983777040483 -0.019628187294158675 0.018518139379770603 -0.077729780237062049 0.063063577864116843 0.03915338175062319 -0.055216124387700509 0.004285190767182449 0.056580996933412835 0.037714948293971255 -0.064412456221452558 -0.088349237189705943 -0.020178856932298095 -0.035740066869229314 0.033305721299194575
leaf_weight=5.4800896644592285 16.2726523578167 4.9641544520854959 7.4293563961982709 8.8725808262824994 5.4523067623376864 8.7242243587970716 6.23024582862854 6.169888734817504 5.1890788376331356 6.7199148535728437 7.6883723288774517 5.4822004288434973 5.1673288196325302 4.975388303399086 6.9817630052566546 7.1949299275875092 8.6905484497547132 17.902381792664531 4.9660695046186447 7.6538950800895718 10.558052167296404 4.9322059452533749 4.9779348224401474 4.9736128151416761
leaf_count=22 66 20 30 36 22 35 25 25 21 27 31 22 21 20 28 29 35 72 20 31 43 20 20 20
internal_value=0.00101323 -0.0227178 0.0161372 0.0229634 0.00759198 -0.0208711 -0.049786 0.0270398 -0.0446702 0.039282 0.0141564 -0.0221587 -0.0372711 0.0249699 0.00501847 -0.0289682 0.0500467 0.0397582 0.00604097 -0.0607195 -0.0667963 -0.0477682 -0.0581648 0.0491643
internal_weight=183.649 71.3357 112.313 97.6892 50.5377 20.4068 11.6826 30.1309 48.9249 47.1515 23.961 20.5916 15.1094 22.4109 12.4619 14.6243 35.4655 26.5929 11.686 28.3332 23.1442 12.5861 10.1453 9.949
internal_count=741 288 453 394 204 82 47 122 198 190 97 83 61 90 50 59 143 107 47 115 94 51 41 40
is_linear=0
shrinkage=0.05


Tree=6
num_leaves=27
num_cat=0
split_feature=1 0 1 3 3 9 9 9 9 9 8 11 1 12 6 3 7 9 9 6 1 1 8 11 7 1
split_gain=23.9308 27.2954 12.5673 6.3059 6.01092 15.661 13.6798 6.08454 4.68422 4.99339 4.50029 5.35116 3.84739 6.66401 3.34279 2.95687 2.17305 2.61005 1.98897 1.5814 1.55857 1.48486 0.977769 1.22497 0.908975 0.548885
threshold=-0.70966172747959388 -2.2305494402462558 1.4653766376639046 -0.29413557048679528 -0.11667185701124758 2.0598979602088598 0.06717392933554768 0.61904155749560796 0.26286165751684581 -0.27543560057211419 0.053598250785418106 -0.1345197922099062 -1.3781150429116675 -0.50876535226140429 1.1091726136114277 0.14861299462831565 0.44169636373002957 -0.14962115726388278 3.8654226868701573 -0.37004010919595126 0.63616912867751085 -1.4502574190355186 -0.71569649625821696 -0.2874628842867642 -0.2682140264725516 -1.1518130685319472
decision_type=2 2 2 2 2 2 2 2 2 2 2 2 2 2 2 2 2 2 2 2 2 2 2 2 2 2
left_child=1 12 4 8 10 6 15 -8 9 -3 11 -2 13 -1 -4 -6 17 -12 -7 22 -18 -11 23 -5 -13 -14
right_child=2 3 14 19 5 18 7 -9 -10 21 16 24 25 -15 -16 -17 20 -19 -20 -21 -22 -23 -24 -25 -26 -27
leaf_value=-0.039105556395772706 -0.01064504759217328 0.0045135197433378077 -0.059511118936077773 -0.047581196809716418 0.05605191490833094 0.081071920637544648 -0.067119305093237672 -0.0096023536506681297 0.017605346790566811 -0.034195584530237931 0.055375855338218705 0.026984345977634761 0.060220792265629944 0.034798442299861038 -0.00894783381214183 0.0034734822291794284 0.077857986969201903 0.0029384090627086602 0.03384452646146887 -0.033739968452081034 0.040036361155587986 -0.076362810377983481 -0.043202486583231059 -0.082359354149650482 0.05263964176097663 0.031737056062715034
leaf_weight=4.9841405600309372 9.6899859309196419 4.9654904305934915 5.2051872313022605 5.1205949783325275 5.9501437842845935 5.4469863176345807 8.917583957314493 9.9437144547700864 5.4832692742347708 5.1976462155580521 4.8898014277219772 18.487916275858879 4.9549570679664612 7.4715447872877139 9.4049038141965848 5.2026800066232681 7.8645741492509824 4.9557975828647631 4.9746889770030975 6.3844098895788184 5.9117652028799057 4.887819841504097 5.6504051536321631 10.969257727265358 5.1854516267776551 4.9636627286672574
leaf_count=20 39 20 21 21 24 22 36 40 22 21 20 75 20 30 38 21 32 20 20 26 24 20 23 45 21 20
internal_value=0.000959322 -0.021697 0.0153757 -0.0427236 0.0218912 0.00696419 -0.0112624 -0.0372705 -0.0211242 -0.035587 0.0323649 0.020189 0.0237951 0.00475162 -0.0275842 0.0322178 0.0491935 0.0297791 0.0595395 -0.0581858 0.0623936 -0.0556715 -0.0649484 -0.0719623 0.033012 0.0469246
internal_weight=183.064 71.0332 112.031 48.6589 97.4211 40.4358 30.0141 18.8613 20.5342 15.051 56.9853 33.3634 22.3743 12.4557 14.6101 11.1528 23.6219 9.8456 10.4217 28.1247 13.7763 10.0855 21.7403 16.0899 23.6734 9.91862
internal_count=741 288 453 198 394 163 121 76 83 61 231 135 90 50 59 45 96 40 42 115 56 41 89 66 96 40
is_linear=0
shrinkage=0.05


Tree=7
num_leaves=25
num_cat=0
split_feature=1 0 1 5 3 7 7 3 1 4 7 11 5 5 4 5 7 1 2 1 4 11 7 4
split_gain=21.7444 24.8602 11.41 8.29811 9.40846 6.41574 5.95607 5.80683 5.26627 4.18567 4.0505 3.63805 3.62301 3.61149 5.57919 3.54638 3.5129 3.5063 6.9192 3.08817 2.48408 1.01657 0.55066 0.144738
threshold=-0.70966172747959388 -2.2305494402462558 1.4653766376639046 0.092399618734264402 -0.10644527995237144 0.44169636373002957 1.0143419966153946 -0.20232293854764932 -0.20606938276003067 -0.1705565372962595 -0.81518970500099752 -0.50430623509231742 0.7119513078186791 0.23382161713385383 -0.19454963994868793 -0.22020849398182715 0.50163563111310594 -1.3781150429116675 -1.3978263140864808 0.81917356394944341 0.54278678349905907 0.45015528717336345 -1.0620440155934692 -0.51213576215448797
decision_type=2 2 2 2 2 2 2 2 2 2 2 2 2 2 2 2 2 2 2 2 2 2 2 2
left_child=1 17 3 4 5 9 13 10 -6 -2 20 -9 -4 -5 -15 21 -10 18 -1 -8 -3 -12 -19 -13
right_child=2 7 12 6 8 -7 19 11 16 -11 15 23 -14 14 -16 -17 -18 22 -20 -21 -22 -23 -24 -25
leaf_value=0.037668538891159203 0.028247964875203674 -0.071122450043998128 -0.0010073988227349855 0.074702137535928123 0.01120014442100014 0.070080506877443743 -0.01891863368013523 -0.027145186782748177 -0.072419702712534534 -0.01489544569445695 -0.0065975969595326771 -0.062372397321533435 -0.051375939860039244 0.0028936182550654225 0.052433204019240023 -0.039106696715058918 -0.016590864978492322 0.029762748347240645 -0.036736938632374559 0.032061149772517381 -0.022534941199779963 0.023655340685595605 0.05805729654869049 -0.084783138034855654
leaf_weight=6.9673649221658707 15.2166053801775 6.1157801151275653 7.4322141557931882 8.7441169470548612 8.1269193142652529 6.085145726799964 6.2159659415483457 5.8695402443408993 4.973492816090582 8.6359923630952853 5.6931703090667742 5.6892563700675973 7.1697551161050797 8.6702630668878538 17.788110867142681 6.5375805944204322 7.2180620133876801 4.9447400718927383 5.4747985750436801 5.4470002353191376 5.4657907038927078 4.9662043452262878 4.9334350526332837 8.0162898451089823
leaf_count=28 62 25 30 36 33 25 25 24 20 35 23 24 29 35 72 27 29 20 22 22 22 20 20 33
internal_value=0.000918556 -0.0207411 0.014671 0.020897 0.00663877 0.0245023 0.0360337 -0.0408993 -0.019428 0.0124219 -0.0261599 -0.0620713 -0.0262603 0.0462852 0.0364596 -0.0102881 -0.0401767 0.0226932 0.00449813 0.00453574 -0.0490094 0.0071214 0.0448351 -0.0763617
internal_weight=182.398 70.674 111.724 97.1217 50.2562 29.9377 46.8655 48.3536 20.3185 23.8526 28.7785 19.5751 14.602 35.2025 26.4584 17.197 12.1916 22.3203 12.4422 11.663 11.5816 10.6594 9.87818 13.7055
internal_count=741 288 453 394 204 122 190 198 82 97 117 81 59 143 107 70 49 90 50 47 47 43 40 57
is_linear=0
shrinkage=0.05


Tree=8
num_leaves=24
num_cat=0
split_feature=1 0 1 2 9 9 12 10 3 1 2 10 3 11 9 9 9 12 4 3 1 4 4
split_gain=19.7602 22.7015 10.3571 6.90753 6.51662 9.28859 7.9187 5.53512 4.71011 4.08951 6.89821 3.70009 3.56767 3.24433 3.18339 6.21552 2.88915 2.81926 2.79357 2.50223 2.3543 1.81202 0.104145
threshold=-0.70966172747959388 -2.1177624071158956 1.4653766376639046 0.76236233704481815 -0.22350527438356796 1.8747031887306316 -0.045328250121010973 -0.51570095157214058 -0.20232293854764932 -1.3781150429116675 -1.300190208330738 -0.23069612651152738 0.042651687180592764 -0.5201642288297138 -0.27543560057211419 0.26286165751684581 -0.39662638909741782 -0.12679442072700994 -0.36853833273145931 -0.12128985580022172 -1.6143786017411077 0.38025286230518901 -0.51213576215448797
decision_type=2 2 2 2 2 2 2 2 2 2 2 2 2 2 2 2 2 2 2 2 2 2 2
left_child=1 9 3 4 16 6 -6 -7 14 10 -1 -5 21 -10 -3 20 18 -4 -2 -11 -16 -13 -15
right_child=2 8 17 11 5 7 -8 -9 13 19 -12 12 -14 22 15 -17 -18 -19 -20 -21 -22 -23 -24
leaf_value=0.025706348200671497 0.042380350151726975 0.0013728882763912569 -0.0066101583178404368 0.0072797952678498997 -0.032389444208599474 -0.0031096037787834048 0.018398942291631065 0.063934025646364662 -0.023634386212652927 0.063764104768854357 -0.046796469135632172 0.078930417761874344 0.021172544869908643 -0.060197591665169081 -0.026671634019670782 0.0022426392847944474 0.057951586815035441 -0.052322987645068403 -0.0028397024349487449 0.01456988958352635 -0.073003803497666581 0.040496613411882591 -0.081615269884263056
leaf_weight=9.1854120641946775 6.3187352567911157 6.8931910544633892 8.8844917565584165 7.1864880919456509 20.978271886706349 4.9760458320379257 11.854569569230081 7.3977156579494459 4.869020119309428 5.6708671599626541 4.9730747789144543 8.918355807662012 8.1190469264984113 5.6057924330234536 4.890667304396632 6.4444478452205649 7.8022886812686911 5.6896441876888266 6.867504447698594 5.4048982113599759 8.4553748220205289 6.3654537498950949 7.8875913172960255
leaf_count=37 26 28 36 29 85 20 48 30 20 23 20 37 33 24 20 26 32 23 28 22 35 26 33
internal_value=0.000867399 -0.0198459 0.0139908 0.0199384 0.0107249 0 -0.0138999 0.0367631 -0.0411161 0.017939 0 0.0396135 0.0492566 -0.0608168 -0.0271959 -0.0373549 0.0336767 -0.0250318 0.0186089 0.0405502 -0.0567218 0.0636157 -0.0735935
internal_weight=181.639 70.2803 111.359 96.7845 66.1951 45.2066 32.8328 12.3738 45.0461 25.2343 14.1585 30.5893 23.4029 18.3624 26.6837 19.7905 20.9885 14.5741 13.1862 11.0758 13.346 15.2838 13.4934
internal_count=741 288 453 394 269 183 133 50 186 102 57 125 96 77 109 81 86 59 54 45 55 63 57
is_linear=0
shrinkage=0.05


Tree=9
num_leaves=23
num_cat=0
split_feature=1 0 1 5 3 7 7 3 1 7 4 5 4 10 8 5 7 0 1 0 8 7
split_gain=17.9683 20.9087 9.40742 6.9776 8.04073 5.97075 5.51676 5.299 4.82303 3.97126 3.70315 3.37687 5.06677 3.31584 8.8271 3.27933 3.19681 2.96938 2.74232 1.45532 2.03558 1.329
threshold=-0.70966172747959388 -2.2305494402462558 1.4653766376639046 0.092399618734264402 -0.10644527995237144 0.44169636373002957 1.0143419966153946 -0.29413557048679528 -0.20606938276003067 -0.77958790672044909 -0.1705565372962595 0.23382161713385383 -0.19454963994868793 -1.2342417851135772 -0.99183520988489537 0.52431421034756498 0.50163563111310594 -1.0511479071686398 0.85597122655224422 -0.52527957058009478 -0.71569649625821696 -0.07059345662122514
decision_type=2 2 2 2 2 2 2 2 2 2 2 2 2 2 2 2 2 2 2 2 2 2
left_child=1 13 3 4 5 10 11 9 -6 -3 -2 -5 -13 14 -1 -4 -10 -11 -8 20 21 -9
right_child=2 7 15 6 8 -7 18 19 16 17 -12 12 -14 -15 -16 -17 -18 -19 -20 -21 -22 -23
leaf_value=0.038221074140368211 0.02588231951644307 -0.041796957823441422 0.0082895358525007269 0.070706659660041679 0.01113817743161011 0.066846395557602398 -0.017553807394739638 -0.076771452858667932 -0.068984056621692852 0.030777013663262073 -0.014762545636325159 0.0014475402712937394 0.048772423154339273 0.051140969298858058 -0.037633437727009764 -0.040830113621921196 -0.015565296431192624 -0.020801080360990185 0.031051567595377319 -0.025985771668562935 -0.029257926563163311 -0.040955328943295947
leaf_weight=9.6072522699832916 15.096329197287561 9.2680079489946383 4.9511598795652381 8.5674856305122358 8.1112553179264086 5.9967308640480033 6.707873731851576 11.774378836154943 4.9396942704915983 4.9704432189464569 8.6305363327264804 8.6426039487123472 17.61690250039101 6.3866736441850653 6.2044789195060739 9.6081729233264905 7.2082187384366989 6.0646867752075178 4.9221108853816986 5.2683674395084372 5.5209067910909644 4.7762185633182552
leaf_count=39 62 38 20 36 33 25 27 50 20 20 35 35 72 26 25 39 29 25 20 22 23 20
internal_value=0.00082919 -0.0189947 0.0133534 0.0190394 0.0059306 0.0225317 0.0329927 -0.0376811 -0.0181714 -0.0178273 0.0108882 0.0429353 0.033451 0.0208758 0.00809229 -0.0238424 -0.038081 0.00204946 0.00268034 -0.0521241 -0.0579923 -0.0670439
internal_weight=180.84 69.8414 110.999 96.4397 49.9828 29.7236 46.457 47.643 20.2592 20.3031 23.7269 34.827 26.2595 22.1984 15.8117 14.5593 12.1479 11.0351 11.63 27.3399 22.0715 16.5506
internal_count=741 288 453 394 204 122 190 198 82 83 97 143 107 90 64 59 49 45 47 115 93 70
is_linear=0
shrinkage=0.05


Tree=10
num_leaves=24
num_cat=0
split_feature=2 0 7 0 9 2 10 7 9 7 9 9 0 9 10 8 5 0 10 2 8 10 11
split_gain=18.3566 13.2256 7.18167 6.44218 6.26661 6.16427 5.76053 5.33785 8.19766 9.26556 7.84559 7.09851 4.76165 5.71283 7.6429 5.53651 3.29956 2.85818 2.6312 1.95513 1.92709 1.46916 0.277892
threshold=-0.30753013579704308 -2.3309171476375368 0.78153841059073936 0.59595707649649599 1.8747031887306316 -1.3480006048572111 1.254437906555008 0.36108117102143522 0.72730495796291394 -0.65981793474789618 -0.30121513135624439 0.39006628971491214 0.18442866309666181 -0.27543560057211419 -0.13948197717612429 0.15188994688091118 -1.1676635005404117 1.1773979947599107 0.86625804114169358 0.76236233704481815 -0.9429256573978807 0.71846260934979622 0.33140265623427795
decision_type=2 2 2 2 2 2 2 2 2 2 2 2 2 2 2 2 2 2 2 2 2 2 2
left_child=1 5 12 -4 6 22 18 8 10 -10 20 -9 13 14 -2 -15 -12 19 -5 -14 -3 -16 -1
right_child=2 7 3 4 -6 -7 -8 11 9 -11 16 -13 17 15 21 -17 -18 -19 -20 -21 -22 -23 -24
leaf_value=0.035476147601147888 -0.0080391031610334961 0.016340180814837641 0.037420989692142158 -0.026180108981189811 0.018877120906041621 -0.0098795418405044303 0.0060641521810586843 0.031747069436749348 0.038758142892077935 -0.036385986158906904 -0.028200446458058116 -0.03169737133858453 0.042047037770697217 0.023294324010187207 0.073900060090724598 -0.049321040827768961 -0.065136132485785467 0.017140201353178286 -0.079202115796259825 0.08324944971399878 -0.024419309121288344 0.03346330418961057 0.058914612897645761
leaf_weight=4.8769456595182437 7.1264975517988249 4.881033256649971 7.9305997788906089 4.9545926153659874 9.0871068686246854 7.9032747000455847 5.9194810986518851 8.6013260781765002 7.5780714601278332 8.6985553205013257 9.1342783421277947 8.8344431519508344 8.2426416873931903 4.8587053269147855 6.3879007399082184 5.371528223156929 23.946666240692142 6.1032983362674704 5.4185997992753983 5.7451054751873007 6.6235625296831113 4.8043724149465561 5.162244975566864
leaf_count=20 29 20 33 20 37 32 24 35 31 36 37 36 34 20 27 22 101 25 22 24 27 20 21
internal_value=-0.00106928 -0.0158968 0.016281 -0.00146578 -0.0139124 0.0225866 -0.0325091 -0.0247969 -0.0317749 -0.00107204 -0.0428441 -0.000111587 0.0285153 0.0150486 0.031787 -0.0144577 -0.0552039 0.0472344 -0.0548462 0.0597956 -0.0067037 0.0574351 0.0484838
internal_weight=178.191 96.2404 81.9504 33.3104 25.3798 17.9425 16.2927 78.2979 60.8622 16.2766 44.5855 17.4358 48.64 28.549 18.3188 10.2302 33.0809 20.091 10.3732 13.9877 11.5046 11.1923 10.0392
internal_count=733 396 337 136 103 73 66 323 252 67 185 71 201 118 76 42 138 83 42 58 47 47 41
is_linear=0
shrinkage=0.05


Tree=11
num_leaves=24
num_cat=0
split_feature=2 5 7 6 1 7 7 1 7 3 7 6 2 8 10 4 2 5 2 1 10 3 5
split_gain=16.677 7.89283 6.55853 6.54556 12.2514 6.72717 8.69462 6.47831 5.00772 4.42269 4.22012 4.06194 6.61268 7.19103 3.89952 3.96595 5.53656 7.80889 3.28599 3.04389 2.29586 1.78658 1.68265
threshold=-0.30753013579704308 -2.1833870433639491 0.87594596197400354 -0.93743358870658133 -0.89704483410916058 0.36108117102143522 0.69034239841778777 -1.9076190774245767 -0.4976017126922313 -0.26202616174421967 0.93051469095805928 1.5336162722460271 1.0456631353844361 0.43936864645591994 -0.88149190351409212 2.0711216234236409 0.68641250958687616 0.37201027362050582 -1.135694707972253 1.0259333122336951 -1.2021909058087026 -0.25932552446097384 0.0056160972517849744
decision_type=2 2 2 2 2 2 2 2 2 2 2 2 2 2 2 2 2 2 2 2 2 2 2
left_child=1 20 14 4 7 8 -7 -3 18 -9 -8 12 13 -4 -2 16 17 -16 -5 -15 -1 -18 -10
right_child=2 3 11 5 -6 6 10 9 22 -11 -12 -13 -14 19 15 -17 21 -19 -20 -21 -22 -23 -24
leaf_value=0.038924055622913574 -0.0095706901593352895 0.031140321604908525 0.037212510754920228 -0.043291235467645003 0.050114004428207286 0.044693170729063446 -0.066008619179031808 -0.011368928883845266 -0.051684874545403083 -0.056592060561520219 -0.0019692352433198514 -0.043129534205742115 0.045786003176023785 -0.0036271333365350774 0.035928139773187269 -0.0082693953906194974 0.079015173791956647 -0.032576489014466518 0.010101961237669037 -0.055181639393729276 -0.0025039387524365148 0.04243316564616452 -0.088757342873378484
leaf_weight=7.3755253702402115 6.4277819544076911 4.8496529906988171 5.1536888927221396 6.0895591080188751 7.8495535105466834 5.3859818130731574 4.9272620975971204 12.608863711357118 15.512000963091856 9.9400566816329938 5.6250964999198914 5.1582633554935446 7.0581602156162253 5.403044179081915 19.174089431762699 5.3453715592622748 7.2221645116806057 5.1471644639968863 5.1076260507106763 6.6119383126497269 5.6441041976213437 8.9184995889663679 4.8771700561046591
leaf_count=30 26 20 21 26 32 22 20 52 65 42 23 21 29 22 80 22 31 21 21 27 23 37 20
internal_value=-0.00100889 -0.0151785 0.0155581 -0.0209007 -0.00438937 -0.0330069 -0.00610604 -0.0203116 -0.046361 -0.0316869 -0.0326798 -0.00318385 0.005258 -0.0112825 0.026183 0.0313189 0.0366796 0.0211516 -0.0186194 -0.032632 0.0207014 0.0594954 -0.0611867
internal_weight=177.413 95.7925 81.6202 82.7728 35.2481 47.5247 15.9383 27.3986 31.5864 22.5489 10.5524 29.3851 24.2268 17.1687 52.2351 45.8073 40.4619 24.3213 11.1972 12.015 13.0196 16.1407 20.3892
internal_count=733 396 337 343 146 197 65 114 132 94 43 120 99 70 217 191 169 101 47 49 53 68 85
is_linear=0
shrinkage=0.05


Tree=12
num_leaves=23
num_cat=0
split_feature=0 0 3 8 0 9 3 6 11 9 5 5 8 10 9 6 10 6 0 4 6 4
split_gain=14.0792 11.9238 6.64649 5.77589 17.0398 5.63699 5.53725 6.14586 5.52108 5.52376 5.10852 4.96963 5.49756 3.57502 5.53427 3.53904 3.20344 2.76129 2.58873 1.93534 1.92975 1.05378
threshold=-0.112029523815836 -2.3309171476375368 -0.26317424214568691 -0.71569649625821696 -1.1174789367882043 -0.30121513135624439 -0.28501737154982221 1.5875000913698067 2.1900563610929127 2.0598979602088598 0.35690000355847007 -0.14305357895300069 -0.17090482554421282 -1.1945088423199521 0.22716428791189877 -0.1034992452027826 -0.8977966014529396 -0.8879584193330321 -0.77296194355917702 1.2539629853451262 0.81610598393330169 -1.0000000180025095e-35
decision_type=2 2 2 2 2 2 2 2 2 2 2 2 2 2 2 2 2 2 2 2 2 2
left_child=1 2 -1 5 17 -3 16 8 9 10 -8 15 -13 14 -7 -6 -2 -5 -15 21 -11 -18
right_child=6 3 -4 4 11 13 7 -9 -10 20 -12 12 -14 18 -16 -17 19 -19 -20 -21 -22 -23
leaf_value=0.050886853442939133 0 0.0054500858826355214 -0.009503093082436638 0.073282026622048677 -0.080136939322782097 -0.057586360802651809 0.020805762469131541 -0.042218704314659995 -0.035611820890070416 0.071724991774417976 -0.015580097094778617 -0.035841113645083626 0.029343580584601237 -0.073287259474703187 0.0021176494446278928 -0.022198879807550389 0.040046150772781341 0.018135935548216457 -0.026705838823916739 0.01595611913132992 0.024878973537141032 0.073208091763337993
leaf_weight=9.2731066942214984 4.932322874665263 6.3121556490659705 8.5907716304063779 4.9063954651355743 6.2916055917739868 7.3650486469268781 27.244694173336029 5.8884136080741873 5.590729057788848 5.0149303972721082 14.672183156013487 7.8874984681606275 5.2792007625103032 12.548812225461004 7.7496710270643234 5.1621816754341108 7.2424666881561315 4.8648505359888059 4.6152848601341274 4.842819169163703 4.9114058613777161 5.4661757797002775
leaf_count=38 20 26 35 20 26 31 113 24 23 21 60 33 22 54 32 21 31 20 20 20 20 23
internal_value=-0.000968303 -0.0147052 0.0216756 -0.023696 -0.00856823 -0.0369915 0.0135176 0.00583141 0.0109095 0.0160814 0.00794384 -0.030843 -0.00930419 -0.0454366 -0.0268334 -0.0548754 0.0348214 0.0467946 -0.0612788 0.0447779 0.0495243 0.0551601
internal_weight=176.653 90.8466 17.8639 72.9827 34.3917 38.591 85.8061 63.3224 57.4339 51.8432 41.9169 24.6205 13.1667 32.2788 15.1147 11.4538 22.4838 9.77125 17.1641 17.5515 9.92634 12.7086
internal_count=733 378 73 305 142 163 355 261 237 214 173 102 55 137 63 47 94 40 74 74 41 54
is_linear=0
shrinkage=0.05


Tree=13
num_leaves=21
num_cat=0
split_feature=2 0 1 0 2 5 6 2 11 1 9 9 11 2 8 6 1 0 1 12
split_gain=14.0537 10.6696 6.05742 10.2792 6.50882 5.54024 5.36083 5.27837 4.10822 3.58434 3.5471 5.11587 5.01057 4.34816 3.18771 2.89538 2.82687 1.45966 1.2802 1.23569
threshold=-0.30753013579704308 -2.3309171476375368 -1.0652069767884995 -1.1174789367882043 -1.0693693532417732 -2.2385437979653875 1.6843215736769079 -1.3480006048572111 2.1900563610929127 -0.52762134898789548 2.0598979602088598 -0.27543560057211419 -0.6014610505882888 1.5288850121629769 -0.55222530102219791 0.68202156039939721 -1.9076190774245767 -0.52527957058009478 -1.4996985490918231 -0.28514486975600134
decision_type=2 2 2 2 2 2 2 2 2 2 2 2 2 2 2 2 2 2 2 2
left_child=1 7 5 4 -4 -3 8 18 10 17 11 13 -13 -2 -11 -12 -7 -5 -1 -18
right_child=6 2 3 9 -6 16 -8 -9 -10 14 15 12 -14 -15 -16 -17 19 -19 -20 -21
leaf_value=0.06378019298482708 0.044042107969942297 0.003850798456540132 -0.0050268016544827918 -0.061983340306311197 0.075219969941458936 -0.010028653345654122 -0.03215846761407911 -0.0092822452730092642 -0.020130859076179515 0.018031986965164629 0.077842279741317535 0.036161524483168221 -0.0096750773201890895 0 -0.023775291775874376 0.022596215189365866 -0.040642102770023621 -0.025558563301500321 0.024791050956338209 -0.066174394269620546
leaf_weight=4.8622627705335626 20.315425843000412 6.3843615353107444 4.8276754915714264 5.9939524680376053 4.9389725774526578 4.7337342202663448 5.5983145833015433 7.8944599628448477 6.2909889519214621 6.8232764452695838 4.6792906820774061 7.9647231400012961 22.614840373396881 7.8378506749868384 12.855631053447725 5.6288836747407913 11.821381673216822 6.708019018173216 5.0493877828121194 12.002260163426397
leaf_count=20 87 26 20 26 20 20 23 32 26 28 20 33 93 32 52 23 52 28 21 51
internal_value=-0.000921929 -0.0139962 -0.0220824 -0.00912833 0.0353981 -0.0374946 0.0143451 0.0206603 0.0179054 -0.0227799 0.0214676 0.0165352 0.00217946 0.0318882 -0.00900876 0.0486619 -0.0468935 -0.0434876 0.044863 -0.053937
internal_weight=175.826 94.8954 77.0893 42.1475 9.76665 34.9417 80.9303 17.8061 75.332 32.3809 69.041 58.7328 30.5796 28.1533 19.6789 10.3082 28.5574 12.702 9.91165 23.8236
internal_count=733 396 323 174 40 149 337 73 314 134 288 245 126 119 80 43 123 54 41 103
is_linear=0
shrinkage=0.05


Tree=14
num_leaves=24
num_cat=0
split_feature=2 0 3 1 0 2 7 0 5 10 6 7 7 10 0 1 10 10 7 4 1 3 0
split_gain=12.7741 9.71382 5.86736 5.55477 9.32272 5.92383 5.51538 5.32669 5.1115 5.00017 4.83219 4.43277 6.00916 5.12479 4.07102 3.10419 4.22278 3.44394 2.95245 2.71886 2.62088 2.14084 1.05302
threshold=-0.30753013579704308 -2.3309171476375368 -0.26317424214568691 -1.0652069767884995 -1.1174789367882043 -1.0693693532417732 0.78153841059073936 0.59595707649649599 -2.2385437979653875 1.254437906555008 0.93138348104961921 0.36108117102143522 0.70355286646004433 -0.45166761873897332 0.18442866309666181 0.29814978018822341 -0.50655265996809595 0.44875615557828269 1.2158609639074962 -0.065296474046896077 -1.9076190774245767 -0.18344391136241198 -1.2570174462220536
decision_type=2 2 2 2 2 2 2 2 2 2 2 2 2 2 2 2 2 2 2 2 2 2 2
left_child=1 2 -1 8 5 -5 14 -8 -3 10 -9 13 -13 -6 15 16 -2 -18 -12 -16 -10 -21 -22
right_child=6 3 -4 4 11 -7 7 9 20 -11 18 12 -14 -15 19 -17 17 -19 -20 21 22 -23 -24
leaf_value=0.047439155630937715 -0.011245631918210083 0.0036605958112646154 -0.0094796779081354806 -0.0047814602374216869 -0.020707863596887841 0.071808349465906238 0.033791691338102815 0.00857643428447394 -0.0095558795612748059 0.015518938665359498 -0.076850057140668712 0.043929211604547658 -0.025575412937053666 -0.079873478892361197 0.015499847509831946 -0.022551069866657166 0.058502333805075392 0.010887504108986182 -0.022328718715146821 0.036825193256054989 -0.063535031046619159 0.081475183953316349 -0.039525578217386365
leaf_weight=9.1577963382005709 7.1652273535728517 6.38545137643814 8.5754277557134611 4.8267736732959747 14.155929312109945 4.9201284199953061 7.7903155833482733 5.1554656475782421 4.7247207313776043 9.2519702762365323 5.1333418339490873 4.9110567867755881 8.0870922952890378 5.0872914195060757 6.8888215869665173 5.0839547812938681 7.6346589028835288 8.1826383024454099 5.5980736017227173 7.5098227560520181 11.756948098540308 5.1817981600761387 11.758678942918776
leaf_count=38 29 26 35 20 60 20 33 21 20 38 21 20 33 21 29 21 33 35 23 32 51 22 52
internal_value=-0.000879637 -0.0133867 0.0197352 -0.0211341 -0.00871652 0.0337091 0.0137015 -0.0018947 -0.0359795 -0.0132418 -0.0302961 -0.0217614 0.000438498 -0.0369399 0.0245662 0.012038 0.0199706 0.0344074 -0.0493392 0.0421177 -0.0451003 0.0559404 -0.0519594
internal_weight=174.923 94.3473 17.7332 76.6141 41.9883 9.7469 80.5761 32.9292 34.6258 25.1389 15.8869 32.2414 12.9981 19.2432 47.6469 28.0665 22.9825 15.8173 10.7314 19.5804 28.2403 12.6916 23.5156
internal_count=733 396 73 323 174 40 337 136 149 103 65 134 53 81 201 118 97 68 44 83 123 54 103
is_linear=0
shrinkage=0.05


Tree=15
num_leaves=22
num_cat=0
split_feature=1 0 1 2 10 2 11 5 1 7 1 1 2 11 11 5 6 10 1 0 6
split_gain=11.39 14.399 8.60937 5.54019 5.52003 5.15698 4.37269 4.09132 4.12629 5.79117 5.46879 3.51353 3.13281 3.09025 4.46163 2.80605 2.67974 3.81965 2.66526 1.13693 1.11365
threshold=-0.70966172747959388 -2.2305494402462558 1.4653766376639046 -0.41184865139520027 -0.79333981847885304 -1.0338564731656272 -0.41316339895944748 -0.15590633813186514 -1.3445217074199725 -0.77958790672044909 -1.7713289565211283 0.47707429329695455 -1.0796755652018495 0.050605855678684288 0.6345863086772735 0.94220722977058358 1.4346308882124947 1.2322401290828873 -0.33118189277280347 0.15652178490771104 -0.81604653120215853
decision_type=2 2 2 2 2 2 2 2 2 2 2 2 2 2 2 2 2 2 2 2 2
left_child=1 13 3 4 5 -2 11 8 9 -3 -11 19 -10 -1 -15 -4 17 -8 -6 -5 -9
right_child=2 7 15 6 18 -7 16 20 12 10 -12 -13 -14 14 -16 -17 -18 -19 -20 -21 -22
leaf_value=0.044108341624330749 -0.0041397309057264386 -0.071975185402400596 -0.0075679940146275021 0.0039188359557146071 0.00065443310574026978 0.059774777132367854 0.013793022181369725 -0.036260763888202645 -0.02052673942482577 0.021777431800002994 -0.050005481908707475 0.06885924796748813 0.026199913709117936 -0.025451528422950016 0.034711964200896166 -0.054164795336365194 -0.017733249097719794 0.060549907700929564 -0.042032633078008433 0.039534619086876173 -0.067900705977877937
leaf_weight=7.5509455651044872 8.2390442341566068 7.2029621303081504 8.3016585409641248 4.757928207516672 5.7941785603761664 4.878445133566859 41.817785859107971 6.5755953937768936 8.8315161466598493 5.2925875782966587 5.0385941714048395 7.9754470139741889 5.8741976469755199 6.3134766668081266 5.8000172227621078 5.572251394391059 5.3598735332489005 4.9040508270263663 8.8500175774097425 4.8658121824264526 7.7409737259149534
leaf_count=31 34 31 34 20 24 20 176 30 38 22 22 34 25 26 24 23 22 21 36 21 35
internal_value=-3.77873e-05 -0.0164714 0.00969949 0.0149832 -0.00374247 0.0195244 0.0225101 -0.0316448 -0.0213967 -0.0377196 -0.0128961 0.0441505 -0.00147318 0.0191778 0.0029941 -0.0268944 0.0150311 0.0189264 -0.0249139 0.0226619 -0.0540676
internal_weight=177.537 66.2209 111.316 97.4426 27.7617 13.1175 69.6809 46.5564 32.2399 17.5341 10.3312 17.5992 14.7057 19.6644 12.1135 13.8739 52.0817 46.7218 14.6442 9.62374 14.3166
internal_count=749 284 465 408 114 54 294 203 138 75 44 75 63 81 50 57 219 197 60 41 65
is_linear=0
shrinkage=0.05


Tree=16
num_leaves=20
num_cat=0
split_feature=2 0 6 0 10 11 0 2 8 4 11 8 11 6 6 5 12 12 3
split_gain=10.1125 9.94384 8.14341 6.6715 5.2263 4.94275 3.45977 8.13858 3.63802 3.35774 6.7845 4.56369 2.8148 4.22652 2.67378 2.26828 1.5737 1.25457 0.808656
threshold=-0.30753013579704308 -2.2305494402462558 1.6843215736769079 -0.23100033243143048 -0.79333981847885304 2.1184517910924496 -1.0350283800376896 -1.0796755652018495 -0.86234822354298313 1.2129425195200065 -0.41066769890909727 1.4316757174447594 -0.095354685167489822 -1.1993271684679974 -0.45550236449063702 -0.2466368581026003 -0.2115230252008769 -0.33777520989439169 -0.20484423105079472
decision_type=2 2 2 2 2 2 2 2 2 2 2 2 2 2 2 2 2 2 2
left_child=1 12 5 6 -5 9 7 8 -3 10 16 -12 -1 -14 17 -16 -2 -8 -6
right_child=2 3 -4 4 18 -7 14 -9 -10 -11 11 -13 13 -15 15 -17 -18 -19 -20
leaf_value=0.044444582084579479 0.03021494586000649 -0.013243143478507892 -0.042310817621260238 0.05178884646535175 -0.025242364608565788 -0.022440878910642365 -0.037897586071128864 0.026681099388251278 -0.05749812910800204 -0.0075295026032369738 0.010567157991229884 0.05979761601970314 0.039563817611869452 -0.015787679827734918 0.0037879072505281443 -0.040347327750860223 0.069634980131378588 -0.066786201278423246 0.0019697005507785248
leaf_weight=7.0111125707626369 4.6450105756521216 11.50330986082554 6.0785917192697516 4.827020436525344 4.8583288937807074 6.942506715655326 10.341516494750978 8.1607857793569512 8.2609061449766177 8.5647212862968427 42.116734132170677 5.2969934195280066 5.5075304955244073 8.7441353499889338 5.2367139756679535 5.9277294427156502 8.831386521458624 8.3945998996496183 5.3672787696123114
leaf_count=29 20 50 25 20 20 29 46 34 36 36 178 22 23 36 22 26 38 37 22
internal_value=-3.68836e-05 -0.011258 0.0127088 -0.0200641 0.00929038 0.0172014 -0.0277945 -0.0147723 -0.0321886 0.0212624 0.0253999 0.0162866 0.0186435 0.00538104 -0.0396999 -0.0193518 0.0567387 -0.0513922 -0.0105942
internal_weight=176.617 94.141 82.4759 72.8782 15.0526 76.3974 57.8256 27.925 19.7642 69.4548 60.8901 47.4137 21.2628 14.2517 29.9006 11.1644 13.4764 18.7361 10.2256
internal_count=749 401 348 313 62 323 251 120 86 294 258 200 88 59 131 48 58 83 42
is_linear=0
shrinkage=0.05


Tree=17
num_leaves=22
num_cat=0
split_feature=2 0 6 9 9 3 5 2 5 2 9 3 6 12 3 8 10 2 5 8 3
split_gain=9.18537 9.05078 7.39535 6.57835 5.65756 4.59459 9.72241 5.1053 7.96085 4.45431 4.22665 3.06931 2.86713 3.22476 2.77828 2.84442 2.19475 2.15082 1.98437 2.29236 0.721961
threshold=-0.30753013579704308 -2.2305494402462558 1.6843215736769079 -0.45973282619210137 0.22716428791189877 -0.21979896931573464 0.011941115256487264 1.116354576329623 0.25875062435307644 1.2653091165914874 0.48360685048152596 -0.20645705629718375 -0.59529175182527461 -0.4044866599539067 -0.26202616174421967 -1.0109787835487734 -1.2785812083476988 -1.3480006048572111 0.37201027362050582 0.35798021707567823 -0.29396812117896282
decision_type=2 2 2 2 2 2 2 2 2 2 2 2 2 2 2 2 2 2 2 2 2
left_child=1 14 5 -3 12 9 -7 8 -8 18 -6 -12 16 -14 15 -1 -5 -16 19 -2 -11
right_child=2 3 -4 4 10 6 7 -9 -10 20 11 -13 13 -15 17 -17 -18 -19 -20 -21 -22
leaf_value=0.0079178742588311164 0.069818048224908044 0.03120621832979702 -0.040404764570976262 -0.02371922829256223 0.024627129289537558 -0.051126701241863338 0.032967653820309244 0.049155607946117563 -0.020976641982683366 -0.0060318013117615227 0.0075784362188361949 -0.030496286351855258 -0.056199495131649152 -0.0059203909548261368 0.026060931350147195 0.063232763459859093 -0.061873640643328801 -0.017429102261529533 0.017310050571844929 0.029001295699451216 0.017580370073389421
leaf_weight=4.738401785492897 9.0869351178407687 5.780416563153266 6.0524557828903189 6.1665776222944251 7.3854665905237225 6.356450453400611 12.965217366814615 8.482081785798071 14.184424728155134 6.1153532713651657 7.5006756335496965 16.260756894946095 4.5124915838241568 11.341366037726401 4.8236477673053741 5.0243743807077426 13.452261984348299 6.6045656353235227 5.9331666529178611 6.7467788308858863 6.2481605857610685
leaf_count=20 41 24 25 27 32 26 54 36 59 25 31 70 20 48 20 21 61 27 25 30 27
internal_value=-3.42627e-05 -0.0107675 0.0121281 -0.0192085 -0.023698 0.0164183 0.00517606 0.015475 0.00462723 0.0300472 -0.00790464 -0.0182865 -0.0373636 -0.0208073 0.0177915 0.0372449 -0.0503156 0.000560389 0.0436465 0.0530309 0.00554524
internal_weight=175.762 93.591 82.171 72.4 66.6196 76.1186 41.9882 35.6317 27.1496 34.1304 31.1469 23.7614 35.4727 15.8539 21.191 9.76278 19.6188 11.4282 21.7669 15.8337 12.3635
internal_count=749 401 348 313 289 323 175 149 113 148 133 101 156 68 88 41 88 47 96 71 52
is_linear=0
shrinkage=0.05


Tree=18
num_leaves=17
num_cat=0
split_feature=1 3 1 9 3 1 9 3 10 7 7 6 12 3 6 10
split_gain=9.4641 6.34651 6.1452 6.85929 13.1799 6.10331 11.694 6.01741 4.77905 4.68565 2.9795 3.20776 2.62984 2.47995 2.97186 1.91854
threshold=-1.3781150429116675 -0.33985196961331882 1.4653766376639046 1.8747031887306316 1.0000000180025095e-35 -0.092122277365828578 0.23595655527672996 0.079906663470704284 -1.163440285918157 -0.22292909973467534 -1.0969295524582556 -0.57698701408582032 -0.12679442072700994 -0.22315750835804263 -1.05926510300665 -0.51570095157214058
decision_type=2 2 2 2 2 2 2 2 2 2 2 2 2 2 2 2
left_child=1 -1 3 4 5 6 -2 -5 -7 13 -6 -12 -4 14 -3 -9
right_child=2 9 12 7 10 8 -8 15 -10 -11 11 -13 -14 -15 -16 -17
leaf_value=0.021497672827976582 -0.025680281265126156 -0.0053579081405165426 -0.0080051618096146204 0 0.013250043528584414 -0.0075689649049499172 0.038143171888486503 0.030060561195691456 0.034068342756286167 -0.001392860428876264 -0.062252411877193006 -0.019711914924284549 -0.053688193797922501 -0.072531029843183922 -0.058830158648711411 0.073549481359736255
leaf_weight=5.7842468023300198 19.336378380656246 5.4006301313638749 8.4569445550441724 7.5324924141168621 4.7405358701944342 8.1382288932800275 11.26627731323242 4.8906728774309167 38.16330349445343 7.3643681257963136 5.7261555045843151 22.551294669508934 5.2896977365016928 7.2776768654584911 5.3945031613111487 7.4560295343399021
leaf_count=25 85 23 35 32 20 33 47 20 167 32 26 94 22 33 23 32
internal_value=-2.64358e-05 -0.0249581 0.00537495 0.00877561 0.00382261 0.0152021 -0.00197331 0.0357568 0.0266416 -0.0357605 -0.022497 -0.0286915 -0.0262058 -0.0494048 -0.0328325 0.0571046
internal_weight=174.769 31.2214 143.548 129.801 109.922 76.9042 30.6027 19.8792 46.3015 25.4372 33.018 28.2775 13.7466 18.0728 10.7951 12.3467
internal_count=749 136 613 556 472 332 132 84 200 111 140 120 57 79 46 52
is_linear=0
shrinkage=0.05


Tree=19
num_leaves=18
num_cat=0
split_feature=1 0 1 9 2 0 1 7 5 5 9 5 12 7 2 2 6
split_gain=8.62077 9.03425 5.58417 6.26829 5.85993 4.55452 8.11379 3.82995 4.00114 3.81008 3.48665 2.69992 2.39775 2.38533 3.72129 1.86375 1.53536
threshold=-1.3781150429116675 -2.7527370902386838 1.4653766376639046 1.8747031887306316 0.75082611538577659 -1.3743921883634573 -0.52762134898789548 -0.77958790672044909 -1.6003667944707216 -0.52850929380433775 0.68511961088599216 0.24447578297985709 -0.12679442072700994 0.88724385315984267 1.5048100346063891 -1.3071826820881229 -1.2230670492632039
decision_type=2 2 2 2 2 2 2 2 2 2 2 2 2 2 2 2 2
left_child=1 -1 3 4 5 10 -7 16 -9 -5 -2 -11 -4 14 -6 -10 -3
right_child=2 7 12 9 13 6 -8 8 15 11 -12 -13 -14 -15 -16 -17 -18
leaf_value=0.035061216360229956 -0.002072094650249203 -0.036410891654321258 -0.0076132078869553732 0.0010911035934808384 0.04892491602666308 -0.032840289391462656 0.003651643756186838 0.017160024873863557 -0.011206111333859526 0.068174974965334312 0.052825834645215224 0.020781758133262249 -0.051350930285505351 0 0.0053561200661858994 -0.056384112779998545 -0.077914810694566419
leaf_weight=5.2285689711570766 5.3648661524057371 5.2514655441045761 8.4529716670513135 6.2390087544918087 12.535702079534534 22.398398980498314 46.528655409812927 4.891021370887759 4.460155591368677 7.8846797198057157 5.7611740231513977 5.6070922613143921 5.2592559307813636 8.2748189717531186 8.504843145608902 5.5751474052667529 5.6190649271011388
leaf_count=22 23 23 35 26 57 102 196 20 20 34 24 24 22 35 35 26 25
internal_value=-3.2e-05 -0.0239055 0.00513257 0.00838876 0.00364439 -0.00330973 -0.00816466 -0.0361393 -0.0189962 0.0342838 0.0261265 0.0491443 -0.0250009 0.0227511 0.031659 -0.0371069 -0.058835
internal_weight=173.837 31.0254 142.811 129.099 109.368 80.0531 68.9271 25.7969 14.9263 19.7308 11.126 13.4918 13.7122 29.3154 21.0405 10.0353 10.8705
internal_count=749 136 613 556 472 345 298 114 66 84 47 58 57 127 92 46 48
is_linear=0
shrinkage=0.05


Tree=20
num_leaves=19
num_cat=0
split_feature=2 9 3 11 9 9 6 3 2 5 6 9 5 12 6 5 5 6
split_gain=10.149 6.70397 13.0485 6.63646 7.92395 4.87787 4.47586 4.6157 3.94157 3.25602 2.42095 2.51625 5.16818 2.39252 1.57297 2.31122 1.51308 2.8838
threshold=0.80448727072806858 1.8747031887306316 0.10357436361223778 -0.96431375005597764 -0.30121513135624439 0.1448423079165635 -0.010137339809125786 -0.034941535303626363 -1.3931748214917128 0.23382161713385383 1.6843215736769079 -0.085372454586141414 0.86427586892974995 -0.15567159975729911 0.7197289064239929 0.03641792158946492 -0.13106213339192091 0.59747739571259617
decision_type=2 2 2 2 2 2 2 2 2 2 2 2 2 2 2 2 2 2
left_child=1 2 3 -1 9 -6 7 -3 -4 -5 11 12 14 -13 15 -2 -10 -18
right_child=10 6 8 4 5 -7 -8 -9 16 -11 -12 13 -14 -15 -16 -17 17 -19
leaf_value=0.053691074994106726 0.043426711391536615 0.0071619329259006749 -6.9358011677770901e-05 0.030831646922870371 -0.031267900793260327 -0.0022616996356609109 -0.011118262792761664 0.060377863914327715 -0.031752873295955282 -0.015277532649343395 -0.0094189077561940091 0.026439282192246574 -0.026689544802200312 0.07294901456369067 0.051827368337031499 -0.0023419768904237677 -0.077743898163159977 -0.028138498617401964
leaf_weight=4.9278659820556632 4.755055978894239 9.236631318926813 4.9915436059236553 16.742923170328144 25.740100011229515 33.977756634354591 9.260470122098921 7.6028676182031658 8.652519449591642 4.7274898141622534 4.9541757702827445 7.9711036533117294 5.1420078724622718 4.8334556818008405 5.6002949029207221 5.9223826825618744 9.1187474280595726 5.0940729826688758
leaf_count=21 20 39 22 73 114 144 39 32 38 20 21 34 22 21 25 26 40 21
internal_value=-8.28104e-05 -0.00640488 -0.0116651 -0.00196651 -0.00546815 -0.0148792 0.0163313 0.0316982 -0.0413539 0.0204235 0.0223517 0.0271104 0.0161368 0.0448124 0.0300509 0.0177904 -0.0501091 -0.0606348
internal_weight=179.251 140.073 113.973 86.1161 81.1883 59.7179 26.1 16.8395 27.8569 21.4704 39.1785 34.2243 21.4197 12.8046 16.2777 10.6774 22.8653 14.2128
internal_count=772 603 493 372 351 258 110 71 121 93 169 148 93 55 71 46 99 61
is_linear=0
shrinkage=0.05


end of trees

feature_importances:
cci20=56
willr14=46
macd_hist=46
parkinson20=42
mfi14=39
obv=37
roc10=36
rsi14=34
stochd14=30
vwap20=24
vol_z20=23
atr14=21
pos_in_don20=17

parameters:
[boosting: gbdt]
[objective: binary]
[metric: binary_logloss]
[tree_learner: serial]
[device_type: cpu]
[data_sample_strategy: bagging]
[data: ]
[valid: ]
[num_iterations: 100]
[learning_rate: 0.05]
[num_leaves: 31]
[num_threads: 0]
[seed: 42]
[deterministic: 0]
[force_col_wise: 0]
[force_row_wise: 0]
[histogram_pool_size: -1]
[max_depth: 6]
[min_data_in_leaf: 20]
[min_sum_hessian_in_leaf: 0.001]
[bagging_fraction: 0.8]
[pos_bagging_fraction: 1]
[neg_bagging_fraction: 1]
[bagging_freq: 5]
[bagging_seed: 400]
[bagging_by_query: 0]
[feature_fraction: 0.8]
[feature_fraction_bynode: 1]
[feature_fraction_seed: 30056]
[extra_trees: 0]
[extra_seed: 12879]
[early_stopping_round: 0]
[early_stopping_min_delta: 0]
[first_metric_only: 0]
[max_delta_step: 0]
[lambda_l1: 0.1]
[lambda_l2: 0.1]
[linear_lambda: 0]
[min_gain_to_split: 0]
[drop_rate: 0.1]
[max_drop: 50]
[skip_drop: 0.5]
[xgboost_dart_mode: 0]
[uniform_drop: 0]
[drop_seed: 17869]
[top_rate: 0.2]
[other_rate: 0.1]
[min_data_per_group: 100]
[max_cat_threshold: 32]
[cat_l2: 10]
[cat_smooth: 10]
[max_cat_to_onehot: 4]
[top_k: 20]
[monotone_constraints: ]
[monotone_constraints_method: basic]
[monotone_penalty: 0]
[feature_contri: ]
[forcedsplits_filename: ]
[refit_decay_rate: 0.9]
[cegb_tradeoff: 1]
[cegb_penalty_split: 0]
[cegb_penalty_feature_lazy: ]
[cegb_penalty_feature_coupled: ]
[path_smooth: 0]
[interaction_constraints: ]
[verbosity: -1]
[saved_feature_importance_type: 0]
[use_quantized_grad: 0]
[num_grad_quant_bins: 4]
[quant_train_renew_leaf: 0]
[stochastic_rounding: 1]
[linear_tree: 0]
[max_bin: 255]
[max_bin_by_feature: ]
[min_data_in_bin: 3]
[bin_construct_sample_cnt: 200000]
[data_random_seed: 175]
[is_enable_sparse: 1]
[enable_bundle: 1]
[use_missing: 1]
[zero_as_missing: 0]
[feature_pre_filter: 1]
[pre_partition: 0]
[two_round: 0]
[header: 0]
[label_column: ]
[weight_column: ]
[group_column: ]
[ignore_column: ]
[categorical_feature: ]
[forcedbins_filename: ]
[precise_float_parser: 0]
[parser_config_file: ]
[objective_seed: 16083]
[num_class: 1]
[is_unbalance: 0]
[scale_pos_weight: 1]
[sigmoid: 1]
[boost_from_average: 1]
[reg_sqrt: 0]
[alpha: 0.9]
[fair_c: 1]
[poisson_max_delta_step: 0.7]
[tweedie_variance_power: 1.5]
[lambdarank_truncation_level: 30]
[lambdarank_norm: 1]
[label_gain: ]
[lambdarank_position_bias_regularization: 0]
[eval_at: ]
[multi_error_top_k: 1]
[auc_mu_weights: ]
[num_machines: 1]
[local_listen_port: 12400]
[time_out: 120]
[machine_list_filename: ]
[machines: ]
[gpu_platform_id: -1]
[gpu_device_id: -1]
[gpu_use_dp: 0]
[num_gpu: 1]

end of parameters

pandas_categorical:[]
