tree
version=v4
num_class=1
num_tree_per_iteration=1
label_index=0
max_feature_idx=14
objective=binary sigmoid:1
feature_names=roc10 cci20 willr14 obv atr14 macd_hist rsi14 mfi14 pos_in_don20 parkinson20 stochd14 vol_z20 turnover_ratio_1d is_top100_prev1 is_top300_prev1
feature_infos=[-1.6332919490292936:197.90458427456849] [-14.434866259294804:14.567027863172987] [-1.5422243955301707:1.5244634060366853] [-9.8030377189942683:46.197007887553283] [-0.40003665790095216:26.09967496751187] [-47.805217919269687:23.900049556947987] [-1.7610386007838972:2.2842573844671183] [-19.470133660954552:2.6399389525995782] [-1.0810235544036473:1.9488280017923381] [-0.59126169104880122:13.723319007171719] [-1.470544922492562:1.8249074574795283] [-2.4139532302836364:4.3897110768859529] [0:inf] [0:1] [0:1]
tree_sizes=3450 3458 3474 3461 3463 3441 3471 3465 3459 3456 3455 3459 3462 3460 3463 3467 3469 3454 3476 3473 3477 3481 3468 3491 3477 3473 3487 3470 3495 3465 3466 3458 3477 3481 3468 3456 3464 3445 3472 3475 3465 3459 3451 3478

Tree=0
num_leaves=31
num_cat=0
split_feature=1 0 12 3 1 1 0 2 2 2 11 13 0 1 2 5 14 6 13 12 11 2 6 2 1 0 12 4 6 0
split_gain=899.695 855.802 169.101 153.625 146.262 138.605 113.549 111.926 90.128 63.9078 54.7212 46.379 40.9832 48.0956 37.9307 34.6764 31.2024 30.5549 29.8472 35.1547 28.5607 23.9243 23.3937 22.614 22.5429 22.2272 22.0892 20.1238 18.3462 21.2232
threshold=-0.48887489914777443 -0.52506381229051668 1.3115974453049788 -0.022104613694741808 -1.1236140806652792 -0.92811818935794343 -0.30679515658874551 -1.2560002007117164 -0.97509719934059447 -1.5303399128429425 3.3905456430381506 1.0000000180025095e-35 -0.70649223253913906 -1.0066992144930456 -0.37199180836286644 -0.048060005804169935 1.0000000180025095e-35 -0.34617174832484432 1.0000000180025095e-35 4.1466110616244238 4.1399532537611243 -0.94877265651684473 -0.28068671340630863 -1.5186015469478962 -0.847281303685815 -0.066141742437771503 0.20912507997525917 0.70630229909805364 -0.39534627849211607 -0.43494131681144171
decision_type=2 2 2 2 2 2 2 2 2 2 2 2 2 2 2 2 2 2 2 2 2 2 2 2 2 2 2 2 2 2
left_child=1 2 4 8 7 16 21 9 -2 -1 12 20 -4 -14 17 -8 28 -5 19 22 26 -7 -16 -6 -23 -17 -10 -9 29 -3
right_child=3 5 10 14 23 6 15 27 11 -11 -12 -13 13 -15 18 25 -18 -19 -20 -21 -22 24 -24 -25 -26 -27 -28 -29 -30 -31
leaf_value=-0.15671728665924331 -0.11152326815271903 -0.1503028882258251 -0.027153085770407204 -0.091320529735779643 -0.15290615016931725 -0.10721961201485523 -0.12597486148110623 -0.15507166750317938 -0.093778936263874665 -0.08758187940221332 -0.1225412866062076 -0.098498986608883593 -0.09478259089048896 -0.018663227464244855 -0.043545785856476664 -0.16314605918830391 -0.14198789079229759 -0.13029625168914666 -0.1100635432720254 -0.11897021532515265 -0.11906749191928064 -0.14413876561949621 -0.087266799737432024 -0.058529495173637862 -0.05022866925898211 -0.12382269879653998 -0.070673237814498552 -0.10069935200517949 -0.14810448502739981 -0.17216375028171488
leaf_weight=38.891263067722321 199.69167767465115 140.10826823115349 128.14172574877739 68.059710368514061 6.4818771779537192 65.317377716302872 187.47583222389221 152.57341665029526 112.18633577227592 233.34757840633392 25.678205743432045 206.4228578209877 65.566680684685707 30.414962142705917 33.655900731682777 178.75022833049297 184.98280254006386 190.46746784448624 302.40450064837933 84.513706281781197 33.157294794917107 7.2297860831022254 343.78879339993 158.55668789148331 48.11547289788723 45.622443214058876 1460.9153947234154 18.94702559709549 141.85338900983334 585.86197569966316
leaf_count=156 801 562 514 273 26 262 752 612 450 936 103 828 263 122 135 717 742 764 1213 339 133 29 1379 636 193 183 5860 76 569 2350
internal_value=-0.105865 -0.128445 -0.0882459 -0.0876859 -0.102471 -0.15022 -0.129409 -0.117409 -0.0796662 -0.0974918 -0.0536127 -0.0761538 -0.0456892 -0.0705441 -0.103469 -0.141908 -0.160738 -0.120015 -0.0978655 -0.0898704 -0.0732859 -0.0867917 -0.0833396 -0.0622927 -0.0626336 -0.155184 -0.072317 -0.149037 -0.164724 -0.167958
internal_weight=5479.18 2443.92 858.599 3035.26 608.798 1585.32 532.511 443.759 2012.37 272.239 249.802 1812.68 224.123 95.9816 1022.89 411.849 1052.81 258.527 764.363 461.958 1606.26 120.663 377.445 165.039 55.3453 224.373 1573.1 171.52 867.824 725.97
internal_count=21978 9803 3444 12175 2442 6359 2136 1780 8072 1092 1002 7271 899 385 4103 1652 4223 1037 3066 1853 6443 484 1514 662 222 900 6310 688 3481 2912
is_linear=0
shrinkage=1


Tree=1
num_leaves=31
num_cat=0
split_feature=1 0 12 3 1 0 1 2 2 1 0 0 13 7 8 2 7 6 11 8 7 7 12 12 1 10 8 6 4 4
split_gain=812.693 775.025 154.467 138.345 126.129 102.748 89.1335 81.1602 78.9762 60.5189 86.6747 43.7414 41.722 40.4774 37.2282 34.2429 48.2285 27.6218 26.69 23.958 22.7931 22.3078 21.3294 21.2666 19.8967 18.5444 18.2583 16.3664 16.1041 15.5895
threshold=-0.48887489914777443 -0.52506381229051668 1.0656749981567504 -0.022104613694741808 -0.92811818935794343 -0.30679515658874551 -1.1236140806652792 -0.97509719934059447 -1.2560002007117164 -0.96605581760590342 -0.74984621890442804 -0.7610991497748899 1.0000000180025095e-35 -0.30405144041458754 -0.60213961961857609 -0.37199180836286644 0.9280546957304715 -0.34617174832484432 3.0974859599560411 -0.76209181164640827 -0.78817243240716073 -0.020668456529084851 0.89708776276019231 0.20912507997525917 -0.86270402161339155 -0.96997240795964679 -0.77155724754876354 -0.96962423739650816 0.70630229909805364 -0.28357234557622107
decision_type=2 2 2 2 2 2 2 2 2 2 2 2 2 2 2 2 2 2 2 2 2 2 2 2 2 2 2 2 2 2
left_child=1 2 6 7 13 14 8 -2 11 10 19 -1 18 -3 -6 17 29 26 23 -4 -8 27 -16 -9 -22 -23 -5 -7 -10 -17
right_child=3 4 9 15 5 21 20 12 28 -11 -12 -13 -14 -15 22 16 -18 -19 -20 -21 24 25 -24 -25 -26 -27 -28 -29 -30 -31
leaf_value=0.028221389547264275 -0.0055301490396658564 -0.06002170611842933 0.066319754428588368 -0.0199541187463597 -0.011169489584420574 -0.0051141433369946534 0.056661928111065143 0.011322527418973813 -0.047408051823035861 0.083725890594334496 0.0038632794528795284 -0.015867324202740542 0.0068424482158292183 -0.039594403685943906 0.010059146194114642 0.0064199977964368195 -0.003072942203674974 -0.023397921877277968 0.0046178493756127694 0.0014703773054088891 -0.0044192800219076791 0.0081118975218764777 0.069046565393555526 0.034020456989418857 0.053125248010664941 -0.030036030950382084 0.033508180842520822 -0.048565878513915792 0.0047110561103719016 0.030178676981812636
leaf_weight=107.48903799057007 199.62864455580711 661.31030231714249 127.12612248957157 25.197429746389389 57.33839912712574 24.380411416292191 61.434944659471512 112.25301548838615 133.4461427628994 69.465246319770813 141.88321468234062 117.7015578597784 206.49872517585754 387.60812412202358 26.703728064894676 103.27551032602787 449.06649826467037 190.19163310527802 92.558195605874062 16.220886319875717 45.449881032109261 42.286310911178589 36.702038750052452 1403.7464357614517 22.22971411049366 126.35574647784233 42.910474419593811 217.87121990323067 16.458241581916809 212.27075831592083
leaf_count=431 801 2663 509 101 230 98 246 450 537 278 569 472 828 1560 107 414 1801 764 371 65 182 170 147 5622 89 508 172 876 66 851
internal_value=-0.000155418 -0.0216479 0.0165775 0.0171034 -0.0424232 -0.0225608 -0.00119842 0.0247067 -0.0135424 0.0418538 0.0316129 0.0051583 0.0280351 -0.0524824 0.0179497 0.00212262 0.00744394 -0.0136069 0.030752 0.0590225 0.0346065 -0.0344788 0.0443373 0.0323439 0.0144582 -0.0204418 0.0136555 -0.0442174 -0.0416532 0.022423
internal_weight=5477.06 2439.46 858.905 3037.6 1580.56 531.638 504.21 2014.69 375.095 354.695 285.23 225.191 1815.06 1048.92 120.744 1022.91 764.613 258.3 1608.56 143.347 129.115 410.894 63.4058 1516 67.6796 168.642 68.1079 242.252 149.904 315.546
internal_count=21978 9803 3444 12175 6359 2136 2023 8072 1506 1421 1143 903 7271 4223 484 4103 3066 1037 6443 574 517 1652 254 6072 271 678 273 974 603 1265
is_linear=0
shrinkage=0.05


Tree=2
num_leaves=31
num_cat=0
split_feature=1 0 1 0 3 1 0 2 2 10 12 13 10 4 8 5 2 8 11 1 8 11 12 6 0 4 6 12 0 12
split_gain=734.571 702.654 140.168 167.433 124.693 115.112 93.0448 89.3488 73.1488 66.9054 47.4645 37.5873 35.0931 33.7634 33.5827 32.5346 30.9228 29.1862 29.0805 26.7167 25.4832 24.1745 23.8551 23.6572 25.7728 22.41 20.1406 19.211 16.4785 15.7387
threshold=-0.48887489914777443 -0.52506381229051668 -1.0177391949045431 -0.77389952835893372 -0.022104613694741808 -0.92811818935794343 -0.30679515658874551 -1.3377785420897557 -0.97509719934059447 -1.2717170658340187 1.6493599302576338 1.0000000180025095e-35 -1.3685338995484784 -0.15109779081113658 -0.60213961961857609 -0.0027133036032212887 -0.37199180836286644 -0.86111497371209833 3.7724979218507722 1.4898710948903415 0.015795971175543905 4.1399532537611243 0.54545539942988619 -0.39534627849211607 -0.43494131681144171 -0.099394549107206118 -0.32386501494228531 0.89708776276019231 -0.74984621890442804 0.93020556368242058
decision_type=2 2 2 2 2 2 2 2 2 2 2 2 2 2 2 2 2 2 2 2 2 2 2 2 2 2 2 2 2 2
left_child=1 2 3 7 8 23 14 12 -2 -9 13 21 -1 -5 -7 22 20 28 -12 -18 -6 26 -8 24 25 -3 -10 -16 -4 -19
right_child=4 5 17 10 16 6 15 9 11 -11 18 -13 -14 -15 27 -17 19 29 -20 -21 -22 -23 -24 -25 -26 -27 -28 -29 -30 -31
leaf_value=0.0090938401769012217 -0.0052554790157361237 -0.055377254586098629 0.055951689587721301 -0.039060943392793257 -0.0037750657415041404 -0.010618732350386205 0.012351304563440288 -0.066142481177593276 0.039942479238999774 0.02523901407305347 0.038744946270943555 0.0064983207748664923 0.06537740835704689 -0.0077776520872327466 0.0095546540856693025 -0.053115136313853534 0.012271333548688645 0.045529449406961076 -0.058834664584328289 -0.0097110235166208043 -0.039966052372637395 -0.012933735467378161 -0.02909616955177112 -0.034177599292106314 -0.058038843263215657 -0.018686146605632042 0.026813231922007099 0.065530283965823416 -0.0044967064337907876 0.084644743309496048
leaf_weight=33.963801056146622 199.56563530862331 79.417248576879501 20.740759044885635 151.68477086722851 192.88271616399288 57.302832737565041 40.473296612501144 29.86606065928936 391.52668540179729 60.257637649774551 55.658955067396164 206.56585711240768 156.12912560999393 201.08328510820866 26.713050603866577 133.75882843136787 584.09304465353489 40.739011943340302 8.719943240284918 180.7271353751421 65.129849463701248 33.141354739665985 235.50131157040596 192.50931999087334 683.00541204214096 88.828883230686188 1185.2455490380526 36.741793408989906 24.229864478111267 75.45412565767765
leaf_count=136 801 321 83 610 775 230 163 120 1567 242 223 828 625 808 107 540 2341 163 35 725 262 133 949 777 2766 359 4743 147 97 302
internal_value=-0.000149332 -0.0206252 0.0157567 0.00603305 0.0162412 -0.0404692 -0.0214817 0.0359235 0.0234553 -0.00502819 -0.0140376 0.0266124 0.0553576 -0.0212504 0.0170523 -0.0328521 0.00201607 0.0577706 0.0253798 0.00706977 -0.012942 0.0291895 -0.0229973 -0.0501118 -0.053705 -0.0360578 0.0300788 0.0420966 0.0233339 0.0710243
internal_weight=5471.66 2432.78 858.527 697.364 3038.88 1574.25 530.491 280.217 2016.05 90.1237 417.147 1816.48 190.093 352.768 120.758 409.733 1022.83 161.164 64.3789 764.82 258.013 1609.91 275.975 1043.76 851.252 168.246 1576.77 63.4548 44.9706 116.193
internal_count=21978 9803 3444 2799 12175 6359 2136 1123 8072 362 1676 7271 761 1418 484 1652 4103 645 258 3066 1037 6443 1112 4223 3446 680 6310 254 180 465
is_linear=0
shrinkage=0.05


Tree=3
num_leaves=31
num_cat=0
split_feature=0 9 13 0 7 7 12 12 3 11 9 11 9 7 3 8 0 8 11 11 12 14 7 12 10 7 3 8 5 12
split_gain=586.685 624.314 107.779 105.041 77.3744 75.5417 65.5802 57.5624 54.3959 52.8947 50.5834 50.5422 42.1822 53.4579 44.8693 30.4719 23.3832 22.6801 22.4495 24.7288 21.7673 21.6782 20.9005 20.6041 20.2438 18.2435 16.9582 15.8173 15.1969 14.4271
threshold=-0.02462604792008536 1.3776465845670927 1.0000000180025095e-35 -0.6619996538408196 0.14815423686089554 0.056612415978024591 1.3115974453049788 0.92351500225099981 -0.15661094331792202 0.50977941167521978 0.72596323312268696 3.1863664551612825 1.3776465845670927 0.95116840272875935 -0.11284609437584985 -0.42208447756446293 -0.67490649727497354 -0.91027539555631465 3.3905456430381506 -0.40494619600034226 0.94080368675911885 1.0000000180025095e-35 -1.2703677899445167 4.1466110616244238 1.0559685688107969 1.3195383433307415 0.20388022480712678 -0.67704334691089085 0.59317048866849531 0.37441677141700586
decision_type=2 2 2 2 2 2 2 2 2 2 2 2 2 2 2 2 2 2 2 2 2 2 2 2 2 2 2 2 2 2
left_child=1 3 11 6 8 7 22 9 10 15 -5 12 14 23 20 -3 -7 -11 19 -9 -2 -10 -1 -14 -15 29 -6 -18 -16 -4
right_child=2 5 25 4 26 16 -8 18 21 17 -12 -13 13 24 28 -17 27 -19 -20 -21 -22 -23 -24 -25 -26 -27 -28 -29 -30 -31
leaf_value=0.038926696753918952 0.02102258353934125 0.018695446572814019 -0.016111200156725465 -0.033358997314824022 -0.0091797372335546586 0.034048832676440773 0.049425999236676552 0.021031934768257529 -0.052426995531924529 0.030179609438505447 0.00039144011244214149 -0.0056465911052788129 0.063403959494428175 9.6203350125823679e-05 0.006696465441876776 0.067834984628439426 -0.02414347638802216 -0.051099777317120169 -0.011682221467252916 0.06083568323638703 0.036004405246871422 -0.030150329585463511 -0.020373472777947169 -0.019195002618585526 0.038142343821661012 -0.017726672033931429 -0.030497934881780642 0.00454311736746792 0.047645703941616359 0.0085113971849607849
leaf_weight=16.941377833485603 488.56973554193974 164.47181369364262 73.309232398867607 804.95998747646809 397.77522084116936 46.134645506739616 62.883034318685532 48.278719782829285 507.78670777380466 11.232901394367216 128.43317459523678 132.16799189150333 180.40561535954475 70.352773860096931 401.11064884066582 39.159826055169106 72.482105523347855 34.722625181078911 13.692382514476774 216.32612687349319 487.54732523858547 141.33096535503864 114.0304164737463 7.7412032634019843 69.929425597190857 131.83730711042881 122.3674201220274 141.56379057466984 23.978961944580078 311.99377802014351
leaf_count=68 1955 661 294 3261 1602 185 252 194 2060 45 518 530 722 282 1607 157 292 140 55 868 1951 571 458 31 280 529 494 569 96 1251
internal_value=-0.000144178 -0.0145339 0.0185115 -0.0277118 -0.030959 0.0238602 0.0074818 0.034727 -0.0364599 0.0172517 -0.0287101 0.0241203 0.026398 0.0425446 0.0226071 0.0281985 0.00178825 -0.0311017 0.0503698 0.0536028 0.0285137 -0.0475898 -0.0126409 0.0599705 0.0191111 -0.00167266 -0.0142095 -0.00515438 0.0090288 0.00381067
internal_weight=5463.52 3084.57 2378.94 2296.51 2102.65 788.065 193.855 527.884 1582.51 249.587 933.393 1861.8 1729.64 328.429 1401.21 203.632 260.181 45.9555 278.297 264.605 976.117 649.118 130.972 188.147 140.282 517.14 520.143 214.046 425.09 385.303
internal_count=21978 12450 9528 9284 8506 3166 778 2120 6410 1003 3779 7454 6924 1315 5609 818 1046 185 1117 1062 3906 2631 526 753 562 2074 2096 861 1703 1545
is_linear=0
shrinkage=0.05


Tree=4
num_leaves=31
num_cat=0
split_feature=1 0 2 3 12 0 1 4 0 0 0 1 7 1 11 2 10 7 7 14 6 3 8 0 1 0 10 10 6 2
split_gain=620.267 585.549 127.51 112.38 94.3495 92.1876 59.4946 43.7145 43.2823 43.1567 38.83 52.1481 38.4955 37.1755 36.4161 50.3014 30.4578 30.415 28.4691 27.7861 27.5839 27.4136 23.5042 21.6235 24.5651 20.639 20.5658 20.4743 19.9648 18.2656
threshold=-0.80696773476101735 -0.65181441554123787 -1.0084683248021185 -0.075481753465395776 0.97618602800148147 -0.44990949526122448 -1.1023720317796999 -0.1566185640664309 -0.37610944390564421 -0.53279661419908064 -0.35147322663848962 -0.46933298342186131 0.01257241875353211 -0.40286086911480185 -0.05031041545139732 -1.3492679563102494 -0.68898616105710386 0.62552541721686017 -0.9906171724538958 1.0000000180025095e-35 0.12518561945634496 -0.18174473938321548 -1.0800068256935142 -0.83751916742931365 -1.1981706129720389 -0.012713939402290384 -0.54720521336078187 -1.0910654672441171 -0.99317345450751227 -1.5245996074568107
decision_type=2 2 2 2 2 2 2 2 2 2 2 2 2 2 2 2 2 2 2 2 2 2 2 2 2 2 2 2 2 2
left_child=1 4 9 10 14 6 7 -3 20 -2 -4 26 -7 16 18 22 -10 -15 -1 -13 -5 -9 -16 -6 27 28 -12 -25 -11 -30
right_child=2 5 3 8 23 12 -8 21 13 25 11 19 -14 17 15 -17 -18 -19 -20 -21 -22 -23 -24 24 -26 -27 -28 -29 29 -31
leaf_value=0.050954052884345749 0.030184546983956326 -0.052106209932476791 0.062387184027258416 0.07818768141304247 0.062058339772760124 -0.052590002017470105 0.015901405926149904 0.00024605723339762565 0.015102082492193761 0.013578252775056416 0.013784846411117666 0.029098073291518079 -0.029562949933407204 0.017833424692895113 -0.04960460312894556 -0.047256562976946886 -0.046090812390000978 -0.00030893400868567096 0.0043977290067910109 0.014440703466267205 -0.033002253482730615 -0.03665714244690095 0.033293055770493178 0.0020341604697489981 0.061075567424070748 0.0070856771288525027 -0.028706114095817015 0.058099743114095985 0.021792470975421877 -0.028733685799533188
leaf_weight=47.856182351708412 55.322430670261383 129.30435532331467 64.276674121618271 30.113518670201302 110.04024434089661 777.207668364048 92.714488908648491 121.38201850652695 29.218602567911148 35.738538533449173 51.176442638039589 1183.0989900678396 238.92127861082554 337.61310906708241 10.436933770775793 65.626736864447594 65.700410723686218 729.52906545996666 105.10660018026829 447.59286214411259 6.7110552489757529 85.542256891727448 44.676888257265091 65.291610956192017 47.076453611254692 75.011623680591583 63.698987707495689 21.688928678631783 18.839463517069817 299.21493852138519
leaf_count=192 222 525 258 121 442 3182 373 490 118 144 207 4734 971 1353 42 265 266 2926 422 1792 27 346 179 262 189 301 258 87 76 1208
internal_value=-0.00013806 -0.0226277 0.0124992 0.016332 0.0229845 -0.0389754 -0.0195118 -0.0292936 0.00445351 -0.0113086 0.0241972 0.0227845 -0.047184 0.00275534 0.002806 -0.0176922 -0.0272053 0.00542723 0.0190199 0.0250791 0.0577541 -0.0149959 0.0174427 0.0455795 0.0319795 -0.0166793 -0.00973759 0.0161224 -0.0217327 -0.0257192
internal_weight=5455.73 1962.87 3492.86 3008.73 517.801 1445.07 428.943 336.229 1198.89 484.127 1809.84 1745.57 1016.13 1162.06 273.703 120.741 94.919 1067.14 152.963 1630.69 36.8246 206.924 55.1138 244.097 134.057 428.805 114.875 86.9805 353.793 318.054
internal_count=21978 7967 14011 12060 2080 5887 1734 1361 4811 1951 7249 6991 4153 4663 1100 486 384 4279 614 6526 148 836 221 980 538 1729 465 349 1428 1284
is_linear=0
shrinkage=0.05


Tree=5
num_leaves=31
num_cat=0
split_feature=1 0 12 13 9 1 0 2 12 9 7 7 1 0 1 1 1 2 9 10 2 8 7 2 10 2 8 2 9 9
split_gain=554.081 588.911 152.942 91.0964 81.9718 78.7383 107.088 53.8768 64.7619 47.5061 57.612 42.6176 36.9153 63.1322 30.1562 29.1985 28.8011 54.7353 28.7486 26.8107 26.1952 26.0994 25.6097 23.2284 22.9368 25.3607 21.6479 21.5198 20.8235 20.5826
threshold=-0.48887489914777443 -0.54057993589889974 1.0932873846813991 1.0000000180025095e-35 1.4041629761787491 -0.95244191618573371 -0.28146604518900303 -0.37199180836286644 5.2860460060114791 1.4041629761787491 1.048248196555621 -0.48689119445354051 -1.067032191066317 -0.67490649727497354 0.078880410995371145 -1.2199260665399538 -1.0177391949045431 -1.3434575935751836 -0.10568493237454644 -0.42573844544504175 -1.3377785420897557 -0.6297032867732727 -0.30405144041458754 -1.3256492903325274 -0.99569739369341204 -1.1041261381602923 -0.040432721506145963 -1.1787651005288329 -0.096441598103342643 0.77632739720096089
decision_type=2 2 2 2 2 2 2 2 2 2 2 2 2 2 2 2 2 2 2 2 2 2 2 2 2 2 2 2 2 2
left_child=1 2 4 7 15 22 21 11 9 14 -11 27 13 20 -9 23 17 -6 -10 26 -4 -7 -3 -1 25 -8 -13 -2 -15 -26
right_child=3 5 12 -5 16 6 24 8 18 10 -12 19 -14 28 -16 -17 -18 -19 -20 -21 -22 -23 -24 -25 29 -27 -28 -29 -30 -31
leaf_value=-0.017290127911382788 0 -0.050066455229036369 0.062739639605395109 -0.002773495266361903 0.039938533204159202 -0.005838357208450589 -0.02612879242096516 0.0030756525659446313 0.020017458114805892 0.058162105250525398 0.011851202873439947 0.015184498517425111 0.072505481109397404 0.087006640850257624 0.024902715175566331 0.0063192057489442587 0.051788714469858471 -0.010656239138324863 -0.021485565083340985 -0.016805623831905602 0.016989897602584677 0.035564878767727619 -0.033578901416794427 -0.055421063600000188 -0.045905971385503452 0.0342308165895015 -0.020858242133748969 0.039958914711588599 -0.011282749357545202 -0.0076350514864669712
leaf_weight=90.160232290625572 48.074029818177223 640.18536593019962 122.06113456189632 624.69376447796822 89.574339240789413 74.464352458715439 85.494736552238464 184.14846338331699 66.918587580323219 213.77759838104248 98.415563702583313 210.68327166140079 81.445435136556625 5.7237528264522544 1149.8131439238787 60.245995461940765 50.077265113592148 132.04241178929806 110.23427478969097 184.59280045330524 42.62761977314949 77.340505227446556 378.32515372335911 72.56659822165966 265.41043516993523 21.691716358065605 51.733642503619194 111.32449619472027 71.347092226147652 40.911274403333664
leaf_count=363 193 2643 492 2506 359 301 348 737 268 856 394 846 329 23 4602 242 201 533 442 741 171 311 1549 295 1083 88 208 446 287 166
internal_value=0.000118982 -0.0178485 0.0166005 0.0142487 -0.000868279 -0.0356408 -0.0206545 0.0186272 0.0229217 0.0260134 0.0435876 0.00570456 0.0433441 0.0334734 0.0218938 -0.0233401 0.0175572 0.00977969 -0.00577735 -0.00220169 0.0509457 0.0152321 -0.043951 -0.0343486 -0.0338416 -0.0138465 0.00805464 0.0278953 -0.0038151 -0.0408151
internal_weight=5456.11 2401.7 817.872 3054.41 494.667 1583.82 565.313 2429.72 1823.31 1646.15 312.193 606.408 323.205 241.76 1333.96 222.973 271.694 221.617 177.153 447.01 164.689 151.805 1018.51 162.727 413.508 107.186 262.417 159.399 77.0708 306.322
internal_count=22023 9784 3295 12239 1993 6489 2297 9733 7299 6589 1250 2434 1302 973 5339 900 1093 892 710 1795 663 612 4192 658 1685 436 1054 639 310 1249
is_linear=0
shrinkage=0.05


Tree=6
num_leaves=31
num_cat=0
split_feature=1 0 12 3 1 1 0 2 2 8 1 0 14 12 12 8 12 10 6 2 11 11 5 6 10 10 6 8 2 1
split_gain=501.715 536.041 136.308 95.0102 68.8801 68.2237 88.9859 60.3672 41.5194 41.1315 38.5044 58.7421 28.4393 24.5672 26.6396 22.7333 21.3174 20.9816 23.2386 22.9228 20.6673 20.1769 20.0987 18.9957 18.4879 17.8662 24.7415 27.8564 25.1806 21.6539
threshold=-0.48887489914777443 -0.53279661419908064 1.0932873846813991 -0.068822043328482171 -1.1023720317796999 -0.95244191618573371 -0.28146604518900303 -1.2165040478679499 -1.0679943231213331 -1.0714201973011865 -0.96605581760590342 -0.67490649727497354 1.0000000180025095e-35 5.2860460060114791 0.28972725987583775 -0.6297032867732727 23.900867410161094 -0.99569739369341204 -0.087123020703759976 -1.1041261381602923 3.3905456430381506 -1.1505441377716135 -0.36833333673948593 -0.71338609750622839 -1.1915469576101916 1.2719335831326646 -0.1726125571359374 -0.73259062544136666 0.034929330991834658 1.1920700544621476
decision_type=2 2 2 2 2 2 2 2 2 2 2 2 2 2 2 2 2 2 2 2 2 2 2 2 2 2 2 2 2 2
left_child=1 2 4 8 7 16 15 9 -2 -1 11 20 13 14 -10 -7 22 19 -19 -8 -4 -14 -3 -6 -9 26 27 -5 -28 -30
right_child=3 5 10 25 23 6 17 24 12 -11 -12 -13 21 -15 -16 -17 -18 18 -20 -21 -22 -23 -24 -25 -26 -27 28 -29 29 -31
leaf_value=-0.050162627940021458 -0.0040868690310166917 -0.030591913078831214 0.053866944034236142 -0.0091947264893183188 0.042263046945437012 -0.0069659280065804052 -0.024912792783299439 -0.07173960440543535 0.0064860519003163229 0.0096741536719586844 0.074918061783149956 -0.00099597315878493923 0.065666984954084823 0.0034461936351162974 0.031424575860640597 0.03236350960304929 0.04853994777891657 -0.047982681283936623 -0.017590463020949024 0.032407374453760733 -0.006791493314662389 0.010221873896888641 -0.047041057270647307 -0.011482058700900398 -0.02801876897111058 0.017036408438799666 -0.014900957580029154 0.030424415679280972 0.010562656249312246 -0.011860209265340262
leaf_weight=32.626120626926422 156.78210647404194 252.20200662314892 160.41701652109623 69.573706910014153 94.889143407344818 71.935986876487732 85.196937307715416 33.36705669760704 120.1926005333662 234.0614358484745 64.468182936310768 90.204813659191132 16.973189145326614 104.59932167828083 1026.9976933896542 74.587972462177277 6.2918080836534491 214.40989837050438 90.067873239517212 21.770119175314903 15.207124307751654 452.94114811718464 737.04169617593288 19.669874355196953 90.935408115386963 176.63949839770794 321.30033528804779 121.40002895891666 325.08337689936161 160.73169901967049
leaf_count=132 630 1043 649 279 381 291 348 136 481 942 263 363 68 419 4114 300 26 881 368 88 61 1814 3062 79 371 708 1292 487 1302 645
internal_value=0.000111883 -0.0170475 0.0152337 0.013542 -0.00107861 -0.0344192 -0.0204002 -0.0110791 0.0205171 0.00231902 0.0402091 0.0317478 0.0227606 0.0267014 0.0288169 0.013029 -0.0422685 -0.0323175 -0.0390175 -0.0131808 0.0485853 0.0122487 -0.042856 0.0329894 -0.0398434 0.00238339 -0.000206307 0.0159673 -0.00404089 0.00313286
internal_weight=5442.57 2389.35 835.846 3053.21 505.549 1553.5 557.969 390.99 1878.49 266.688 330.297 265.829 1721.7 1251.79 1147.19 146.524 995.536 411.445 304.478 106.967 175.624 469.914 989.244 114.559 124.302 1174.73 998.089 190.974 807.115 485.815
internal_count=22023 9784 3377 12239 2041 6407 2276 1581 7526 1074 1336 1073 6896 5014 4595 591 4131 1685 1249 436 710 1882 4105 460 507 4713 4005 766 3239 1947
is_linear=0
shrinkage=0.05


Tree=7
num_leaves=31
num_cat=0
split_feature=1 0 12 3 9 1 0 9 3 9 6 11 10 8 1 12 0 9 1 14 8 11 1 12 8 6 0 5 1 11
split_gain=454.476 487.387 123.835 85.8567 75.5491 62.7701 80.8386 39.609 35.7786 28.9057 81.1456 28.6734 27.5293 25.5681 24.8825 24.3315 24.0601 21.6243 21.1054 20.8639 20.5398 20.2618 19.7738 19.4075 18.6613 23.7019 18.6413 18.6371 17.6651 17.5378
threshold=-0.48887489914777443 -0.53279661419908064 1.0932873846813991 -0.068822043328482171 1.4041629761787491 -0.95244191618573371 -0.28146604518900303 1.4041629761787491 -0.12028044286561222 1.9530868831045873 -0.10182426814918698 0.53206041399272841 0.78113205723695966 -0.91461347862833731 1.391847380547987 0.67803333936412058 -0.70649223253913906 0.2360378975028162 -1.3560783157514074 1.0000000180025095e-35 -0.6297032867732727 -0.71033200877284131 -1.2956732994097369 23.900867410161094 -1.0800068256935142 -0.33516782747024687 0.0087705868822805459 -0.36833333673948593 -1.250625871025312 -0.15273939007500531
decision_type=2 2 2 2 2 2 2 2 2 2 2 2 2 2 2 2 2 2 2 2 2 2 2 2 2 2 2 2 2 2
left_child=1 2 4 12 8 23 20 16 22 26 -11 18 15 -13 17 -2 -4 29 -6 -8 -7 -12 -1 27 -17 -26 -5 28 -3 -14
right_child=3 5 7 9 11 6 19 -9 -10 10 21 13 14 -15 -16 24 -18 -19 -20 -21 -22 -23 -24 -25 25 -27 -28 -29 -30 -31
leaf_value=-0.021097739627439153 0.0045130569656514239 -0.037899285250220238 0.043291957801250794 -0.013150154313154618 0.0052842588978233478 -0.0066228483619046701 -0.037159810108770383 0.054225812146353629 -0.049264976585833918 0.06709073417945273 0.031451873377221322 0.038785373747637318 0.0085626740716416485 -0.035533499645000653 0.0098497305738980447 0.030562744332060895 0.0024249536967887002 0.049450976243090576 0.037457138509934131 -0.010487579909237254 0.030772866106135666 -0.0026644792153957758 0.016630426304038059 0.04577798307661448 0.034886662348592688 0.009663213610676305 0.0026484305855675625 -0.045126953711171314 -0.0087983131013056742 0.033539283707401758
leaf_weight=98.505578517913818 376.53356294333935 175.85812465846539 61.308029681444168 288.14303857088089 83.373926788568497 71.885811328887939 312.5590146034956 179.55455957353115 79.365024462342262 60.058203965425491 52.804754063487053 15.93666750192642 98.818692624568939 41.184620916843414 147.73795612156391 273.96129590272903 87.807622402906418 146.52146653831005 132.84341311454773 96.650589808821678 74.52782341837883 244.35799293220043 53.391533136367798 6.3425060063600531 116.59639050066471 467.76713046431541 529.07754603028297 730.07164306938648 74.917182773351669 249.20067451894283
leaf_count=400 1509 732 249 1158 336 291 1289 733 323 241 212 64 396 168 592 1099 354 588 535 396 300 981 215 26 468 1875 2121 3062 311 999
internal_value=0.00010486 -0.0162903 0.0145178 0.0128726 -0.00102998 -0.0329328 -0.019467 0.0383963 -0.0220676 0.00226446 0.0141292 0.0167525 0.0195064 -0.0146798 0.0279121 0.0151285 0.0192784 0.0332948 0.0250825 -0.0308765 0.0123863 0.0033896 -0.00780125 -0.040504 0.0197785 0.0147096 -0.00291679 -0.0410717 -0.0292325 0.0264661
internal_weight=5427.66 2376.08 833.271 3051.58 504.601 1542.81 555.623 328.67 231.262 1174.44 357.221 273.339 1877.14 57.1213 642.279 1234.86 149.116 494.541 216.217 409.21 146.414 297.163 151.897 987.189 858.325 584.364 817.221 980.847 250.775 348.019
internal_count=22023 9784 3377 12239 2041 6407 2276 1336 938 4713 1434 1103 7526 232 2575 4951 603 1983 871 1685 591 1193 615 4131 3442 2343 3279 4105 1043 1395
is_linear=0
shrinkage=0.05


Tree=8
num_leaves=31
num_cat=0
split_feature=1 0 12 3 9 1 0 2 1 0 3 9 1 2 14 9 9 1 11 2 2 1 14 2 11 12 11 1 10 8
split_gain=411.744 443.483 114.902 77.5831 66.3059 63.9309 68.5678 37.5624 31.8763 52.1407 31.1175 26.1048 41.7115 33.3603 25.5363 28.1711 33.087 26.1961 25.2018 25.0872 24.0409 43.164 24.0393 21.56 20.1005 18.935 18.7629 18.6379 17.5409 17.9996
threshold=-0.48887489914777443 -0.54057993589889974 1.0932873846813991 -0.068822043328482171 1.4041629761787491 -0.80696773476101735 -0.27175020034404629 -1.0679943231213331 -1.0786031894030399 -0.79965620946095861 -0.12028044286561222 1.9530868831045873 0.064733592843212256 -0.72700162962535986 1.0000000180025095e-35 1.5371160364808876 -0.59125997786882867 1.1450742951768016 0.53206041399272841 -1.3718528509981693 0.65686435871056947 1.0679060347855318 1.0000000180025095e-35 0.034929330991834658 -0.63716064223996538 23.900867410161094 -0.37324657459444377 -1.3560783157514074 -0.99569739369341204 -0.78666007007200289
decision_type=2 2 2 2 2 2 2 2 2 2 2 2 2 2 2 2 2 2 2 2 2 2 2 2 2 2 2 2 2 2
left_child=1 2 4 7 10 22 24 -2 9 -4 -1 23 13 -13 15 16 -9 -17 27 -20 -14 -22 25 -5 -7 -3 -16 -6 29 -8
right_child=3 5 8 11 18 6 28 14 -10 -11 -12 12 20 -15 26 17 -18 -19 19 -21 21 -23 -24 -25 -26 -27 -28 -29 -30 -31
leaf_value=-0.0073052410808955347 -0.0048434122487596917 -0.040988619164053115 0.054494766160593081 -0.012776542321395823 0.0049240404065564979 -0.012213646713955811 -0.024116343709065582 0.033328718474722567 0.064757243914039975 0.0072890573678467026 -0.046714736522301681 0.0072034017440413284 -0.011731419180201326 0.067389019347277784 0.027642266916650005 0.053019338315238231 0.015244772980045449 -0.013270054560387115 0.040753735484482773 -0.03424371796911839 0.046728112393045702 -0.011012851967446592 -0.02147413179388993 0.0038151970294095436 0.036876201510461538 0.041531957282116061 0.0048005517048304745 0.035308886100914316 -0.032972649588363399 0.028149741352019437
leaf_weight=144.31696261465549 156.9072593152523 954.0171283185482 106.04056605696678 324.6164848357439 82.408850282430649 29.489875450730324 42.807852178812027 394.43499431014061 81.679163455963135 131.0319589227438 76.971633210778236 40.269326001405716 133.2522232234478 54.382459968328476 121.49632079899311 127.05997501313686 710.95801264047623 16.70983861386776 15.157172843813894 41.035533010959625 66.119809702038765 63.037731349468231 205.53827235102654 492.43777094781399 69.705630511045456 6.8666661232709876 348.22646400332451 131.98612122237682 216.79825372993946 26.599880948662758
leaf_count=585 630 4021 436 1306 332 119 176 1584 338 528 315 162 535 219 487 512 2851 67 61 168 265 253 857 1973 282 28 1395 532 898 108
internal_value=9.88963e-05 -0.0155692 0.0143989 0.0122371 -0.000746251 -0.0312268 -0.0135463 0.0185464 0.0377785 0.0284389 -0.0210507 0.00215231 0.0134306 0.0418706 0.0206846 0.0244249 0.0217046 0.0452761 0.015842 -0.013889 0.00314118 0.0185212 -0.0370627 -0.00277136 0.0222343 -0.0403894 0.010724 0.0236607 -0.0259684 -0.00400223
internal_weight=5412.36 2362.45 810.628 3049.91 491.876 1551.82 385.401 1875.79 318.752 237.073 221.289 1174.12 357.062 94.6518 1718.89 1249.16 1105.39 143.77 270.588 56.1927 262.41 129.158 1166.42 817.054 99.1955 960.884 469.723 214.395 286.206 69.4077
internal_count=22023 9784 3295 12239 1993 6489 1583 7526 1302 964 900 4713 1434 381 6896 5014 4435 579 1093 229 1053 518 4906 3279 401 4049 1882 864 1182 284
is_linear=0
shrinkage=0.05


Tree=9
num_leaves=31
num_cat=0
split_feature=1 0 12 3 9 1 0 1 0 2 3 7 1 2 9 7 11 12 9 1 8 2 2 10 2 9 2 8 2 1
split_gain=373.127 404.661 101.52 70.1422 64.0445 54.5391 66.5629 34.0391 50.3845 33.9676 28.7483 25.2357 24.2732 42.6554 23.5921 68.5982 21.3013 25.2273 21.3753 20.991 19.9212 19.4744 18.8658 18.1049 20.1782 18.9027 16.8023 16.6081 16.5151 21.2206
threshold=-0.48887489914777443 -0.52506381229051668 1.0932873846813991 -0.068822043328482171 1.4041629761787491 -0.95244191618573371 -0.28146604518900303 -0.96605581760590342 -0.73855147422781975 -1.0679943231213331 -0.12028044286561222 -0.30405144041458754 -1.0066992144930456 -1.3434575935751836 1.9530868831045873 0.6392111335743168 3.0974859599560411 0.57489492878051973 0.055786322434498839 -1.1344909747416498 -0.85659010579681982 0.034929330991834658 -1.3377785420897557 -0.99569739369341204 -1.0759443789136234 0.77632739720096089 -1.5186015469478962 -1.0232570280051487 1.0885377125080657 1.6919663226347594
decision_type=2 2 2 2 2 2 2 2 2 2 2 2 2 2 2 2 2 2 2 2 2 2 2 2 2 2 2 2 2 2
left_child=1 2 4 9 10 11 -7 8 22 26 19 -3 13 -6 21 -16 17 -11 -18 -1 -14 -5 -4 24 -8 -25 -2 -19 29 -17
right_child=3 5 7 14 12 6 23 -9 -10 16 -12 -13 20 -15 15 28 18 27 -20 -21 -22 -23 -24 25 -26 -27 -28 -29 -30 -31
leaf_value=-0.016992107659485906 0.041444594561245926 -0.044068610770061252 0.057514979281524152 -0.01214810825960537 0.034800478558930079 0.011442073794052279 -0.020005034332536586 0.06712933147354451 0.0034869968601208955 0.010069056787260533 -0.044349395878541691 -0.027231650443075163 -0.0032041452005397118 -0.0095222564801745752 0.047531288176059366 -0.0017888115954441182 0.021843663193695215 0.033730537498650508 -0.025958992671263822 0.027789040545547192 0.066538838849132961 0.0036241274023161695 0.015191635620630648 -0.039503878893795766 0.039123835852688138 -0.0025504050679650684 -0.01042992564074819 0.020840483430956791 0.022164387162756715 -0.051600853293897658
leaf_weight=125.69397941231728 17.455922320485115 592.58869455754757 105.96786415576935 324.35080920159817 90.50132018327713 142.79750598967075 88.827393338084221 63.854571849107742 126.79097710549831 398.89335840940475 80.788171321153641 360.97957715392113 14.113486930727957 135.0745395720005 101.46216674149036 172.04582649469376 43.958355337381363 354.08156229555607 49.67319618165493 32.886152043938637 35.8696578592062 492.48386150598526 35.608397588133812 258.45776161551476 17.08504430949688 40.307638064026833 139.40779455006123 870.1865831464529 58.804474830627441 24.35868838429451
leaf_count=512 70 2542 440 1306 364 578 367 269 511 1600 333 1522 57 548 409 691 176 1425 199 132 146 1973 145 1083 69 166 560 3496 236 98
internal_value=9.35223e-05 -0.0148837 0.0127402 0.011637 -0.00115441 -0.0304771 -0.0178764 0.034285 0.0264294 0.0176407 -0.0200786 -0.0377036 0.0152676 0.00824547 0.00204639 0.0127755 0.0196761 0.0210141 -0.00346379 -0.00766228 0.046779 -0.00263335 0.0469236 -0.0282346 -0.0103917 -0.0345376 -0.00460271 0.0245751 -0.00103578 -0.00801521
internal_weight=5395.36 2348.19 847.149 3047.16 514.927 1501.04 547.475 332.222 268.367 1873.66 239.368 953.568 275.559 225.576 1173.51 356.671 1716.79 1623.16 93.6316 158.58 49.9831 816.835 141.576 404.678 105.912 298.765 156.864 1224.27 255.209 196.405
internal_count=22023 9784 3457 12239 2092 6327 2263 1365 1096 7526 977 4064 1115 912 4713 1434 6896 6521 375 644 203 3279 585 1685 436 1249 630 4921 1025 789
is_linear=0
shrinkage=0.05


Tree=10
num_leaves=31
num_cat=0
split_feature=1 9 13 12 10 2 12 9 3 1 7 8 4 12 9 12 7 11 7 2 10 1 7 9 8 12 2 1 7 11
split_gain=364.728 407.7 69.7523 52.8174 49.6304 48.695 53.5736 35.4182 43.2922 37.7575 35.0322 33.9792 32.3018 33.1207 31.3363 26.2413 19.4511 18.7879 18.7407 18.4598 62.6185 24.1604 18.1316 17.4861 16.1291 15.4981 17.2467 14.9679 14.7052 12.6782
threshold=-0.41945045424251753 1.4041629761787491 1.0000000180025095e-35 0.92351500225099981 -1.2939741195222199 -0.38794226762916301 6.8816180113349938 1.688242166972407 -0.10285254795124335 0.68183020857498067 -0.55135917975560467 -0.040432721506145963 0.20535213458504134 2.066224073687335 0.68031596360654101 0.58004576659038909 1.4211761342642841 3.7724979218507722 -1.4189886471759869 -1.3434575935751836 -1.2636234368067496 -1.1023720317796999 0.09517889065011699 2.2483194491552125 -0.75248543385248967 1.763202737800462 -1.5422243955282287 -1.5334855308271405 -1.3199983984962083 -0.50459794794008483
decision_type=2 2 2 2 2 2 2 2 2 2 2 2 2 2 2 2 2 2 2 2 2 2 2 2 2 2 2 2 2 2
left_child=1 4 5 19 25 11 7 8 -7 -9 17 -2 13 18 22 -4 -17 -5 -6 -3 -21 -22 -14 29 -8 26 -1 -16 -28 -12
right_child=2 3 15 10 12 6 24 9 -10 -11 23 -13 14 -15 27 16 -18 -19 -20 20 21 -23 -24 -25 -26 -27 28 -29 -30 -31
leaf_value=-0.052406451129500292 0.010079804138786912 0.023743830097292321 -0.016935054262337636 0.054041699753027916 0.040173913568856072 0.024620894625938403 0.026271052140226903 0.050738121460277945 0.0054293622812703161 0.01187841079962206 -0.044764480634753689 -0.01873845262889498 -0.030417199772289079 -0.011055665117851422 -0.019471087317052622 0.0094945278822980445 -0.019892603599481591 -0.039547412184719709 -0.035882660971153869 -0.070436104289163484 -0.0095999934926351144 0.02808701767075409 0.011328605405835357 0.032928282625612204 -0.017830686718771607 0.024874063579699866 0.052138532062929149 0.023570391445315562 -0.0080211492432783089 0.0094842492609972448
leaf_weight=20.39604739844799 382.81834363937378 96.91830387711525 218.20911152660847 162.16367761790752 8.0171734243631345 983.69664531946182 25.088701978325844 194.05068242549896 420.14799626171589 92.853240191936493 13.365595877170561 139.41647274792194 190.38665390014648 160.69869622588158 29.420273810625076 336.62733314931393 67.441769540309906 5.4152801334857932 1142.191398948431 29.144656226038933 86.921016022562981 82.856741145253181 29.88087286055088 83.168014153838158 115.61648134887218 40.929444745182991 10.924842298030851 63.38804005086422 127.6782066822052 53.588349893689156
leaf_count=85 1540 392 876 676 34 3959 101 786 1683 373 55 562 801 681 122 1350 271 22 4836 119 356 337 124 343 464 171 45 260 531 221
internal_value=0.000171758 -0.0141675 0.011918 0.0210831 -0.0260286 0.0158542 0.0196948 0.0221626 0.0188815 0.0381876 0.0352396 0.00237476 -0.0289227 -0.0323721 -0.0144576 -0.00296217 0.00457354 0.0509658 -0.0353447 0.00585696 -0.00284025 0.0087687 -0.0247288 0.0176292 -0.00991846 -0.00249297 -0.00958041 0.00986614 -0.00320908 -0.00132113
internal_weight=5413.42 2437.45 2975.97 613.542 1823.91 2353.69 1831.45 1690.75 1403.84 286.904 317.701 522.235 1623.98 1310.91 313.076 622.278 404.069 167.579 1150.21 295.841 198.922 169.778 220.268 150.122 140.705 199.929 158.999 92.8083 138.603 66.9539
internal_count=22176 10211 11965 2521 7690 9468 7366 6801 5642 1159 1317 2102 6858 5551 1307 2497 1621 698 4870 1204 812 693 925 619 565 832 661 382 576 276
is_linear=0
shrinkage=0.05


Tree=11
num_leaves=31
num_cat=0
split_feature=1 0 2 3 0 1 2 1 0 10 2 7 10 10 7 0 0 0 1 6 4 7 10 4 8 8 4 1 3 7
split_gain=334.292 356.274 64.1314 67.02 61.006 49.6283 39.8268 77.8771 47.35 40.1432 32.9367 32.5797 30.5663 26.5182 26.2501 32.7289 40.9641 24.4367 25.5288 33.7124 28.3641 23.1631 22.9177 22.7667 22.4101 18.5826 17.9369 17.869 17.7956 14.9843
threshold=-0.75272801485111873 -0.65181441554123787 -1.0084683248021185 -0.092849092359720539 -0.44990949526122448 -1.1023720317796999 -1.3377785420897557 -1.2617453887668406 -0.7610991497748899 -1.279862251005571 -1.2560002007117164 -0.30405144041458754 -1.3685338995484784 -1.0234177169254488 0.95116840272875935 0.088248820837067476 -0.27175020034404629 -0.30098227010420237 -0.13741730748918315 -0.33516782747024687 1.5275773292280352 0.50193964800867341 -1.2717170658340187 0.56002581119473327 -1.0714201973011865 -0.6993099725218116 -0.20164887114004906 -0.50417272005469893 1.6065317216564132 -1.3199983984962083
decision_type=2 2 2 2 2 2 2 2 2 2 2 2 2 2 2 2 2 2 2 2 2 2 2 2 2 2 2 2 2 2
left_child=1 6 13 17 5 10 8 22 12 -9 26 29 -1 -2 15 16 -5 -4 19 -19 -20 -17 -8 -12 -14 -7 -3 -15 -16 -6
right_child=2 4 3 14 11 25 7 9 -10 -11 23 -13 24 27 28 21 -18 18 20 -21 -22 -23 -24 -25 -26 -27 -28 -29 -30 -31
leaf_value=0.0050259615717537899 0.0045893965056575036 -0.03250230556796746 0.048754671889498113 0.046598065068199461 -0.0060925600055753886 -0.0043237306209100695 -0.064286317049012928 -0.052238538493994027 0.00039196163813859462 0.043080681875678185 -0.046242777142529744 -0.024862711031716209 0.010411477175851204 -0.041190677109309397 0.00042224994673572083 0.044275778614427136 -0.0030726342196945545 0.025147170358798113 0.021911846505113849 -0.011380614785955669 -0.010288891769011198 0.012272743095891655 -0.012551341384381519 0.0070018601402568603 0.061650910422841668 0.038033151069331014 0.0043119347327965829 -0.010713012340584069 -0.020559784009941753 -0.044672496787083564
leaf_weight=40.004264205694199 215.52376249432564 46.665771916508675 65.25002433359623 46.311634540557861 26.665206477046013 50.651789635419846 28.628331691026688 12.257230013608931 86.991493597626686 101.85353811085224 138.40135137736797 424.77568328380585 25.47910138964653 68.527928590774536 458.62778916954994 95.579318329691887 392.08476306498051 105.14564608037472 1312.3111906200647 157.73803725838661 71.873898163437843 139.97783291339874 85.765872716903687 23.265864104032516 141.03079801797867 52.437197372317314 112.49740953743458 163.49672412872314 129.3562023639679 578.14261703193188
leaf_count=164 874 196 268 191 115 206 118 50 353 420 583 1805 106 287 1842 385 1588 431 5290 640 289 562 351 96 584 216 463 660 520 2523
internal_value=0.000162774 -0.0162127 0.0096185 0.0122744 -0.0289385 -0.0129519 0.0192105 0.00353069 0.0313954 0.0327614 -0.0226546 -0.035514 0.0444245 -0.00801938 0.00352618 0.0102634 0.00217254 0.0187181 0.0175223 0.00321441 0.0202356 0.0252927 -0.0255871 -0.0385497 0.0538513 0.017189 -0.00646403 -0.0197499 -0.004188 -0.0429811
internal_weight=5397.32 1975.51 3421.8 2974.26 1453.5 423.919 522.011 228.505 293.506 114.111 320.83 1029.58 206.514 447.548 1261.94 673.954 438.396 1712.32 1647.07 262.884 1384.19 235.557 114.394 161.667 166.51 103.089 159.163 232.025 587.984 604.808
internal_count=22176 8349 13827 12006 6203 1760 2146 939 1207 470 1338 4443 854 1821 5088 2726 1779 6918 6650 1071 5579 947 469 679 690 422 659 947 2362 2638
is_linear=0
shrinkage=0.05


Tree=12
num_leaves=31
num_cat=0
split_feature=1 0 2 3 0 1 0 2 10 1 5 7 0 1 10 5 10 11 10 6 8 2 7 10 2 8 1 1 8 2
split_gain=303.32 324.29 57.9638 61.2725 56.226 45.4177 36.3805 39.1672 58.3905 38.1644 32.891 30.5296 30.254 32.0681 37.7355 28.6894 26.4855 25.9191 22.5807 21.2407 37.9389 28.3791 28.073 19.0721 18.4506 16.9209 16.7357 16.4373 15.0447 14.9789
threshold=-0.75272801485111873 -0.65181441554123787 -1.0084683248021185 0.049864819908504589 -0.44990949526122448 -1.0177391949045431 -0.77389952835893372 -1.3377785420897557 -1.2717170658340187 -1.2088227254449126 -0.34917524602467093 1.0000000180025095e-35 -0.30098227010420237 -0.36793996918490535 -0.55896602614659419 0.017123419725485551 -1.3685338995484784 3.6482339889880175 -1.0718939671614558 -0.35724681174088874 -0.66495713481710184 0.052453261285912135 1.4026275316067325 -1.0671521471538552 -1.210690579133489 -1.0714201973011865 -0.22923260378865026 -1.1023720317796999 -0.6993099725218116 -1.2505952938226337
decision_type=2 2 2 2 2 2 2 2 2 2 2 2 2 2 2 2 2 2 2 2 2 2 2 2 2 2 2 2 2 2
left_child=1 6 15 12 5 10 7 16 -9 18 24 -6 -4 14 -14 23 -1 -15 29 20 -5 -21 -23 -2 -3 -18 -17 -10 -7 -8
right_child=2 4 3 19 11 28 9 8 27 -11 -12 -13 13 17 -16 26 25 -19 -20 21 -22 22 -24 -25 -26 -27 -28 -29 -30 -31
leaf_value=0.0058205085113363477 0.011172918583818039 0.0088187680071318397 0.047479575767497145 -0.021187961379080616 -0.039178692143833696 -0.0024524092160575772 -0.010859676317691684 -0.051914804108769891 0.013535086439483488 0.030471049424022102 -0.035550339643356688 -0.019322624133549206 0.023245529661012201 0.018188877768718217 -0.026113750137099125 -0.051366579647618371 0.012969955915376478 -0.011800867303299592 0.029274608431939287 -0.015922267309449113 0.041023576325731365 0.012135306926288666 -0.013858462609365928 -0.012095772241538403 -0.024366336528180647 0.059169502547635845 -0.0087826692193706639 0.065318358808556173 0.042014277694513026 -0.051135198340710022
leaf_weight=38.762569099664688 166.89668828248978 102.71259744465351 75.067647755146027 36.06283712387085 757.46688386797905 33.712729960680008 83.079138934612274 31.400541722774506 50.033364623785019 80.344606503844261 172.36132198572159 262.02999855577946 64.573088228702545 1790.3350147008896 96.247274249792099 51.405733451247215 23.734682023525238 74.797227248549461 25.992840319871902 258.78631375730038 75.520559951663017 352.43108619749546 147.03135427832603 186.12387616932392 70.465209200978279 131.97532756626606 42.46943973004818 22.268920183181763 42.928399488329887 32.1741693764925
leaf_count=159 676 422 311 145 3329 137 337 130 204 331 729 1114 265 7221 399 213 99 300 106 1047 312 1415 591 761 294 553 171 94 178 133
internal_value=0.000153688 -0.0155176 0.0091491 0.0116752 -0.0277258 -0.0123589 0.0183334 0.0297359 0.0048584 0.00296108 -0.0200897 -0.0340826 0.0162953 0.0151351 -0.00626166 -0.00763146 0.0429668 0.016983 -0.0126624 0.000509247 0.0208716 -0.00248302 0.00447203 -0.00108088 -0.0046615 0.0521723 -0.0321845 0.0296214 0.0224115 -0.0221809
internal_weight=5379.19 1961.44 3417.75 2970.85 1441.68 422.18 519.766 298.175 103.703 221.591 345.539 1019.5 2101.02 2025.95 160.82 446.896 194.473 1865.13 141.246 869.832 111.583 758.249 499.462 353.021 173.178 155.71 93.8752 72.3023 76.6411 115.253
internal_count=22176 8349 13827 12006 6203 1760 2146 1239 428 907 1445 4443 8496 8185 664 1821 811 7521 576 3510 457 3053 2006 1437 716 652 384 298 315 470
is_linear=0
shrinkage=0.05


Tree=13
num_leaves=31
num_cat=0
split_feature=2 9 0 9 7 9 6 5 7 8 0 2 3 11 6 6 5 11 11 14 8 11 6 2 6 2 9 6 8 8
split_gain=261.325 277.716 65.6526 59.2975 52.9405 57.1696 52.2496 38.4767 49.9954 36.02 50.2025 31.6478 31.3349 33.5341 24.7655 20.6324 27.4185 21.8742 19.9657 24.7197 19.7014 19.582 17.1101 15.4335 13.7682 13.5997 13.028 11.6812 11.4889 15.5338
threshold=-0.37199180836286644 1.4041629761787491 -0.7610991497748899 -0.59125997786882867 0.95116840272875935 0.94590968039894563 -0.42363677040507858 -0.68012189493956643 0.14815423686089554 -0.58872572014218061 -0.67490649727497354 -1.332027154177394 0.34397309062043119 1.7628522570110927 -1.1269878821279071 -0.25800658175124586 0.098971763420062753 -0.51635913646716769 -0.086132112060914354 1.0000000180025095e-35 -0.78666007007200289 0.3035406838713427 -0.063853457530987853 0.22701856691256095 0.16815714863714157 -0.90241183261152269 -0.074144864045068828 0.60350620433414248 -0.88039403899117408 -1.0714201973011865
decision_type=2 2 2 2 2 2 2 2 2 2 2 2 2 2 2 2 2 2 2 2 2 2 2 2 2 2 2 2 2 2
left_child=1 2 28 25 5 18 9 -5 -9 10 11 -3 13 23 -11 -7 22 -18 24 26 -12 -16 -17 -6 -2 -4 -20 -21 29 -1
right_child=4 6 3 7 12 15 -8 8 -10 14 20 -13 -14 -15 21 16 17 -19 19 27 -22 -23 -24 -25 -26 -27 -28 -29 -30 -31
leaf_value=-0.0073178251980346139 -0.0097647800348306286 0.043161485079538958 -0.0014775882063677024 -0.0041589833804995067 -0.0034019480087370021 0.060619922095873947 -0.0052184948212913966 -0.030426687728846033 -0.011462006796342976 -0.040870102484439293 -0.027024387373324604 0.0098973084884651299 -0.011634980424210359 -0.012631569848651861 0.06542074299146998 0.045310733482712001 0.06382632303613428 0.027658064294949311 0.026908816686542231 -0.0038994734102596727 0.015707861006916325 0.02705229816903755 -0.0038658274251754041 0.020445702756942213 0.010195548187137223 0.028872190897852579 0.005178062088171129 0.019074062979947515 -0.019875610166002144 0.042867196131332143
leaf_weight=20.585851714015007 126.92137952148914 156.46935531497002 113.48617339134216 248.83221544325352 83.522172763943672 69.188077807426453 199.92045283317566 1263.5707708448172 480.91249138116837 7.7128649950027457 72.249737173318863 132.60570797324181 265.98819971084595 134.85650341212749 85.712927311658859 23.303308874368668 68.077103391289711 111.01254037022591 453.18746057152748 154.99783211946487 42.768514335155487 55.579203024506569 71.809736490249634 352.97471797466278 269.11570610105991 54.397788822650909 82.109273031353951 85.732053369283676 13.386907935142515 59.202242881059647
leaf_count=84 516 658 457 1043 336 285 814 5456 1992 32 295 549 1069 542 358 95 278 450 1839 623 178 234 290 1422 1084 220 333 344 55 245
internal_value=0.0001451 -0.00961872 -0.018401 -0.0201741 0.0126274 0.0182028 0.0166659 -0.0225783 -0.0252024 0.0245848 0.0168097 0.0279284 0.00253001 0.00913403 0.0456114 0.0361504 0.029938 0.0414625 0.0129376 0.0176008 -0.0110915 0.0503932 0.00816517 0.0158714 0.00378522 0.00833792 0.0235865 0.00426594 0.0226501 0.0298636
internal_weight=5360.19 3007.39 2254.37 2161.2 2352.8 1515.45 753.019 1993.32 1744.48 553.098 404.093 289.075 837.342 571.353 149.005 343.391 274.203 179.09 1172.06 776.027 115.018 141.292 95.113 436.497 396.037 167.884 535.297 240.73 93.175 79.7881
internal_count=22176 12670 9552 9168 9506 6137 3118 8491 7448 2304 1680 1207 3369 2300 624 1398 1113 728 4739 3139 473 592 385 1758 1600 677 2172 967 384 329
is_linear=0
shrinkage=0.05


Tree=14
num_leaves=31
num_cat=0
split_feature=1 0 12 0 2 13 9 6 1 1 9 12 7 9 7 9 4 0 12 11 12 0 9 2 0 8 8 12 2 11
split_gain=256.941 272.855 62.2783 50.7073 46.632 51.1128 65.1587 80.9105 58.5754 40.4498 35.778 31.5056 29.8301 29.6627 28.4464 27.6293 24.359 22.4596 21.2636 20.1802 19.8363 23.4947 19.682 30.125 19.1429 17.6598 17.637 17.5866 18.589 15.7188
threshold=-0.75272801485111873 -0.65181441554123787 0.93020556368242058 -0.44990949526122448 -1.0084683248021185 1.0000000180025095e-35 1.6287026005101251 -0.25800658175124586 -0.13741730748918315 -1.1023720317796999 0.75852141200969048 4.1466110616244238 -1.1232378804236847 -0.046474225894106179 -0.32358314967040691 -0.59125997786882867 -0.09579404481027505 -0.28146604518900303 1.0656749981567504 3.3905456430381506 0.59805170157721788 0.62127993911675861 1.5371160364808876 -1.332027154177394 -0.005114246570663835 1.6656679102945373 -1.0408852505577804 1.6167433933925996 -1.5186015469478962 0.87952218943093929
decision_type=2 2 2 2 2 2 2 2 2 2 2 2 2 2 2 2 2 2 2 2 2 2 2 2 2 2 2 2 2 2
left_child=1 2 12 9 17 6 8 -8 10 13 -6 -9 29 26 -5 -10 -15 -2 -11 27 -7 25 -14 -24 -19 -22 -3 28 -4 -1
right_child=4 3 19 14 5 20 7 11 15 18 -12 -13 22 16 -16 -17 -18 24 -20 -21 21 -23 23 -25 -26 -27 -28 -29 -30 -31
leaf_value=0.042741696449838246 0.011472437939854214 -0.035646724752471194 -0.012348725133391731 -0.039137859830958889 -0.015391689906105772 -0.014829700189483803 0.06648999484911515 0.024462075514907835 0.024269992645048435 -0.0018195937636093674 0.024507904727326286 -0.021024686061164376 -0.031161753302233631 -0.040645524610345402 -0.022072864461554324 0.0098277266247809164 -0.011221680904473244 -0.020369352097025083 0.0448488423562887 -0.019300999476510528 0.007445984528329533 -0.019003555278754431 0.032011811876966299 -0.018580957895955662 0.0083248456805913151 0.052507715889607287 0.046776885473643309 0.055250452003434848 0.034652538823059374 -0.024912757436502911
leaf_weight=47.308366030454636 123.05026771128178 8.6955990046262723 24.737372681498528 571.63916681706905 300.5168854445219 212.15956000983715 119.14662905037403 274.65567457675934 474.80505527555943 62.861980810761452 68.929911732673645 43.993613213300705 71.862946897745132 133.93473336100578 430.58927242457867 1102.5210163444281 149.53510521352291 246.63611999154091 39.594068735837936 16.61213493347168 258.53661373257637 82.755555033683777 49.175266370177269 72.889581754803658 75.692434877157211 23.711611226201057 24.266517788171768 88.523938223719597 133.62595553696156 10.315182030200956
leaf_count=194 498 37 103 2578 1232 853 502 1118 1930 256 282 177 295 577 1865 4445 623 1019 166 68 1039 333 201 299 304 95 101 381 562 43
internal_value=0.000138459 -0.0144048 0.0167654 -0.0257057 0.00840466 0.0106736 0.0139054 0.0313379 0.00998112 -0.0110747 -0.00792923 0.0181617 -0.00101122 -0.0199216 -0.0318141 0.0141796 -0.025151 -0.00667161 0.0161928 0.0337489 -0.00266984 0.00438655 -0.0104177 0.00176953 -0.0136151 0.0112666 0.0248398 0.037345 0.0272759 0.0305221
internal_weight=5343.28 1936.17 515.051 1421.12 3407.11 2961.73 2384.57 437.796 1946.77 418.888 369.447 318.649 251.551 316.432 1002.23 1577.33 283.47 445.379 102.456 263.499 577.163 365.004 193.928 122.065 322.329 282.248 32.9621 246.887 158.363 57.6235
internal_count=22176 8349 2146 6203 13827 12006 9686 1797 7889 1760 1514 1295 1032 1338 4443 6375 1200 1821 422 1114 2320 1467 795 500 1323 1134 138 1046 665 237
is_linear=0
shrinkage=0.05


Tree=15
num_leaves=31
num_cat=0
split_feature=2 0 12 0 8 5 7 10 2 12 12 14 11 7 5 12 2 8 11 12 8 2 10 2 5 6 0 4 4 5
split_gain=218.747 178.24 75.9609 51.2117 48.3302 48.3428 46.6721 33.0992 32.8253 28.1839 26.796 29.707 25.6364 28.4791 24.3927 23.8584 23.196 20.8438 19.0153 20.6088 20.0754 18.572 18.4374 17.4454 17.3941 16.6816 14.8907 12.7403 12.391 9.75867
threshold=-0.37199180836286644 -0.59980977510020261 0.97618602800148147 -0.028023836001431882 -0.66495713481710184 -0.36833333673948593 1.3652272949233486 -0.57178518250131616 -0.72700162962535986 0.27365674055145878 6.8816180113349938 1.0000000180025095e-35 -0.05031041545139732 -0.85373543608237301 0.0099382269580406343 0.17577578503848879 -1.3492679563102494 -1.0800068256935142 3.3905456430381506 1.3115974453049788 -1.0714201973011865 -1.4422654777300872 -1.0569226444731761 1.2643828094438756 -2.1911138088146975 -0.40619945161798349 0.056860658284292966 -0.027792520322236555 -0.32632233326178295 0.058290450682639917
decision_type=2 2 2 2 2 2 2 2 2 2 2 2 2 2 2 2 2 2 2 2 2 2 2 2 2 2 2 2 2 2
left_child=1 2 12 4 5 25 9 8 -6 -2 11 14 13 27 -11 -7 17 -14 19 20 -4 -9 -18 -8 -21 -3 -13 -1 -12 -5
right_child=6 3 18 29 7 15 23 21 -10 10 28 26 16 -15 -16 -17 22 -19 -20 24 -22 -23 -24 -25 -26 -27 -28 -29 -30 -31
leaf_value=0.017685543694191504 -0.0055977668037503897 -0.013314010050074624 -0.038600035883948142 0.0081814207813170007 -0.0093521841771665917 0.031842849242142403 -0.012224352403794497 0.051707749474441761 0.019087202595782997 0.0088939597051475687 0.016237797629190767 -0.0005529201725654676 -0.045242894137753176 -0.0054023786209361369 0.026895250423981998 -0.033164593715602042 -0.045516184063012347 0.019477845105038489 -0.015851513203308149 -0.011557340244912331 0.026123791970413673 -0.02516643068035427 0.0094029491176504578 0.014407645308298451 0.050053404277388205 0.019679796100596902 0.014805827785490562 0.059091776723416325 -0.02141281143125634 -0.011527625440470321
leaf_weight=51.612660065293312 163.86239233613014 243.06794635951519 13.496835082769392 234.59226334095001 453.23733638226986 14.217739686369894 256.6263632774353 7.933588743209838 130.56074653565884 246.29267458617687 32.109894245862961 244.0759502351284 16.010902374982834 120.61071743071079 812.18440042436123 789.32193428277969 70.443575784564018 54.298262625932693 19.326918169856071 12.137486964464186 98.216382756829262 303.5381924957037 19.288329631090164 80.624626532196999 164.4739686101675 45.277949288487434 443.23318813741207 29.517235592007637 67.291046515107155 85.519001662731171
leaf_count=213 661 1040 55 951 1944 62 1034 33 552 1008 130 985 66 495 3310 3469 295 222 79 51 412 1278 80 325 711 189 1785 121 271 345
internal_value=-5.59857e-05 -0.00905564 0.0136533 -0.0156469 -0.0186369 -0.0257004 0.0113594 -0.0100147 -0.00298125 0.0142493 0.0160148 0.0174535 -0.00186617 0.00997112 0.0227126 -0.0320043 -0.0168159 0.00462521 0.0319143 0.0351378 0.0182318 -0.0231763 -0.0336581 -0.00584039 0.0457868 -0.00811075 0.0093451 0.032866 -0.00919603 0.0028985
internal_weight=5323 2976.7 669.433 2307.27 1987.16 1091.89 2346.3 895.27 583.798 2009.05 1845.19 1745.79 361.782 201.741 1058.48 803.54 160.041 70.3092 307.652 288.325 111.713 311.472 89.7319 337.251 176.611 288.346 687.309 81.1299 99.4009 320.111
internal_count=22172 12663 2800 9863 8567 4760 9509 3807 2496 8150 7489 7088 1492 829 4318 3531 663 288 1308 1229 467 1311 375 1359 762 1229 2770 334 401 1296
is_linear=0
shrinkage=0.05


Tree=16
num_leaves=31
num_cat=0
split_feature=1 9 3 12 5 9 6 10 1 10 7 7 12 1 10 9 7 1 5 12 6 1 6 10 11 7 11 7 1 5
split_gain=235.815 185.003 57.539 35.3112 33.9063 33.6903 62.6208 28.7018 28.5551 30.2263 26.7048 26.0401 23.4452 21.2141 41.9883 20.5821 40.1015 36.6522 39.3768 28.2175 19.8658 18.6198 18.1347 17.5959 17.5845 17.2981 29.102 16.9135 16.546 15.6314
threshold=-0.80696773476101735 1.162604547346948 -0.11284609437584985 0.91766653533371412 -0.34917524602467093 1.9530868831045873 -0.11213541099469695 0.78113205723695966 0.078880410995371145 -0.81409795757950931 0.083050065421218816 -0.54337630262433667 2.5118377443095974 1.6919663226347594 0.83820975564911004 0.66621045771679255 1.048248196555621 -0.12237677643323729 0.012530748897437835 0.67803333936412058 -0.30135705141061936 -0.41945045424251753 -0.66010361746010371 -1.0459021142204425 0.22271058336397656 -0.85373543608237301 0.53206041399272841 -1.3791463767009275 -1.2956732994097369 1.5198579802482712
decision_type=2 2 2 2 2 2 2 2 2 2 2 2 2 2 2 2 2 2 2 2 2 2 2 2 2 2 2 2 2 2
left_child=1 4 7 25 12 8 -7 15 9 22 27 28 23 14 -8 17 20 18 -2 -19 -17 -11 -4 -1 -12 26 -3 -6 -5 -9
right_child=2 3 5 11 10 6 13 29 -10 21 24 -13 -14 -15 -16 16 -18 19 -20 -21 -22 -23 -24 -25 -26 -27 -28 -29 -30 -31
leaf_value=-0.0096177291083526517 0.0043859120331907319 0.027124759018618605 0.031537370198454352 0.020807976348469474 0.018984548431890607 0.046873328168159555 -0.006927956162225986 0.025655614532656384 0.0018535927719174592 -0.041206959848117883 -0.020836044849342861 0.0055292549134749102 0.025400518659660577 -0.02904150467968869 0.033961846076930459 0.041752864466716673 -0.030048845979899659 -0.0013555179490907755 -0.03269008033716217 0.019616507322193735 0.01365495395955986 -0.013959595671899392 -0.0080296191293306781 -0.032633183046874785 0.019714271094397114 -0.012436387263743178 -0.035687887552403187 -0.036167842575394502 0.054489678600966963 -0.0047181222544036231
leaf_weight=261.66423074901104 221.21084015071392 82.290269702672958 43.221429169178009 79.837969541549683 14.013257622718809 101.50858317315578 181.70480737090111 505.67925670742989 760.7034462839365 101.06710633635521 131.21824249625206 127.25937859714031 35.505060002207756 47.232517242431641 95.706152468919754 130.95478557050228 33.282470211386681 240.56794852018356 105.66087017953396 478.49697884917259 122.57948432862759 167.63158050179482 86.96897004544735 122.33812092244625 33.364122033119202 178.46492040157318 23.609885305166245 679.41312277317047 68.437010169029236 45.900888562202454
leaf_count=1116 913 340 180 347 61 427 734 2063 3059 431 572 540 151 191 388 550 134 971 437 1942 500 677 359 534 144 742 100 3088 295 186
internal_value=-5.38375e-05 -0.0145379 0.00761429 0.00941977 -0.0250418 0.00059238 0.0126154 0.0135205 -0.0038225 -0.0146574 -0.030742 0.0221747 -0.0133666 0.00187721 0.00716807 0.00954305 0.0214138 0.00628132 -0.0075899 0.012594 0.0281985 -0.0242384 0.00508183 -0.0169698 -0.0125783 -0.00292494 0.0130534 -0.0350435 0.0364139 0.0231185
internal_weight=5307.49 1837.42 3470.08 559.899 1277.52 1585.74 426.152 1884.33 1159.59 398.889 858.009 275.534 419.507 324.643 277.411 1332.75 286.817 1045.94 326.872 719.065 253.534 268.699 130.19 384.002 164.582 284.365 105.9 693.426 148.275 551.58
internal_count=22172 8030 14142 2364 5666 6446 1740 7696 4706 1647 3865 1182 1801 1313 1122 5447 1184 4263 1350 2913 1050 1108 539 1650 716 1182 440 3149 642 2249
is_linear=0
shrinkage=0.05


Tree=17
num_leaves=31
num_cat=0
split_feature=0 9 14 6 12 12 11 14 8 0 10 10 12 9 3 12 0 7 8 11 11 11 7 7 0 12 4 9 3 11
split_gain=175.814 204.999 41.0616 38.9464 39.7031 35.564 32.4652 30.9477 30.678 34.4995 29.9697 23.0905 22.5231 29.2019 27.9178 21.8961 20.8076 20.4065 20.0806 19.5347 18.7412 21.9167 16.3946 15.627 14.9167 14.5555 13.8245 12.5313 13.1036 11.984
threshold=-0.02462604792008536 1.2518833133908371 1.0000000180025095e-35 -0.27066639569235945 0.91766653533371412 2.5118377443095974 -0.40494619600034226 1.0000000180025095e-35 -0.32356066535669176 -0.59980977510020261 -0.74344022740602189 -0.2578057657511546 6.2889705882352951 1.4041629761787491 -0.11284609437584985 2.0009404388714738 -0.42788943885937286 -0.83920332531351638 -0.47505324316469505 3.1863664551612825 3.3905456430381506 -0.4153003702298767 1.1097608143223974 1.188690912012075 0.092500118147147162 0.2448818389915208 -0.29204553235499897 -0.38664734517039406 6.0108553751452201 1.5826371550166101
decision_type=2 2 2 2 2 2 2 2 2 2 2 2 2 2 2 2 2 2 2 2 2 2 2 2 2 2 2 2 2 2
left_child=1 5 12 4 10 7 22 8 9 -1 17 -10 13 14 15 -2 19 -3 -12 -7 21 -6 27 25 -16 -15 -14 -4 -29 -18
right_child=2 3 6 -5 20 16 -8 -9 11 -11 18 -13 26 23 24 -17 29 -19 -20 -21 -22 -23 -24 -25 -26 -27 -28 28 -30 -31
leaf_value=-0.005701871240016974 0.015412349270676518 0.01624823856208276 -0.020776787401738432 -0.0091995609973471934 0.0091012944361336251 0.056087270119104561 -0.0021093267779037895 -0.0063335882076738757 0.0039065913556647373 -0.029274800559133365 -0.029401807775414526 -0.023660064206522301 0.0152391069041675 -0.039038451569455554 -0.014077233012692147 0.037367199239368924 0.0078310425060335691 -0.011459469655897834 0.0585567228809111 -0.016534854494248807 -0.021554392127831865 0.039980634152240686 -0.0051624147672818359 0.0081947628790125931 0.010587829233483561 0.047291229653767371 -0.017499144881885628 0.035361320891311353 -0.029186489920654275 -0.02064246577843025
leaf_weight=184.28341978788376 657.06433203816414 109.75035509467125 12.112687423825262 160.78615510463715 75.46294030547142 30.54367071390152 806.3009616881609 402.26434224843979 176.49634671211243 1004.5587175041437 7.7004002332687369 132.90984843671322 55.119893580675125 4.9284504354000083 106.61645095050335 137.88617673516273 81.515647128224373 168.06191621720791 37.392558157444 13.082429632544516 16.500228345394135 247.93539896607399 49.235277026891708 38.798166036605835 143.9211897701025 136.14152206480503 77.20869192481041 139.90891598165035 8.172079995274542 67.233620077371597
leaf_count=766 2685 457 49 657 318 127 3247 1705 746 4484 32 550 223 20 430 565 348 695 157 55 68 1083 198 157 579 568 311 567 33 292
internal_value=-5.22315e-05 -0.00827605 0.0100511 0.0128512 0.0182084 -0.0165926 0.00244143 -0.0186666 -0.021974 -0.0256257 0.00563125 -0.00792272 0.0157399 0.0178568 0.0146446 0.019231 0.00387039 -0.000493579 0.0433938 0.0342073 0.030137 0.0327956 0.0199783 0.0364814 7.02186e-05 0.0442143 -0.00382345 0.0277349 0.0317481 -0.00501041
internal_weight=5289.89 2916.48 2373.41 823.59 662.804 2092.89 1015.73 1900.51 1498.25 1188.84 322.905 309.406 1357.68 1225.36 1045.49 794.951 192.375 277.812 45.093 43.6261 339.899 323.398 209.429 179.868 250.538 141.07 132.329 160.194 148.081 148.749
internal_count=22172 12540 9632 3467 2810 9073 4094 8251 6546 5250 1341 1296 5538 5004 4259 3250 822 1152 189 182 1469 1401 847 745 1009 588 534 649 600 640
is_linear=0
shrinkage=0.05


Tree=18
num_leaves=31
num_cat=0
split_feature=1 0 12 3 0 0 7 2 8 2 1 14 0 1 14 0 11 12 2 0 1 11 5 1 4 12 0 0 1 10
split_gain=202.281 192.705 56.8369 46.801 45.2404 33.9498 49.638 31.5103 30.1202 35.9879 45.224 29.5062 24.929 27.2554 25.7464 23.1728 22.8138 22.1212 21.2786 21.0237 20.5986 19.2057 18.1987 35.4242 16.5385 16.3879 15.8357 18.0626 14.0935 12.7859
threshold=-0.87784556155917948 -0.59980977510020261 1.3115974453049788 -0.11284609437584985 -0.52506381229051668 0.0087705868822805459 0.39717915737798498 -0.95809338570615077 -1.0714201973011865 -1.3492679563102494 -1.2839453894820179 1.0000000180025095e-35 -0.20456871507137478 -0.35195567785674114 1.0000000180025095e-35 -0.7610991497748899 3.3905456430381506 8.5633447880870577 -0.91996180978153907 -0.22434511414080471 -0.41945045424251753 -0.72676389418409548 -0.011505996237782347 0.1050110062918982 0.9592737310004319 4.9674155052920446 -0.43494131681144171 -0.12948458826053724 -1.3789079614888768 -0.63917510171812097
decision_type=2 2 2 2 2 2 2 2 2 2 2 2 2 2 2 2 2 2 2 2 2 2 2 2 2 2 2 2 2 2
left_child=1 2 8 7 -5 19 25 22 -1 15 -11 17 -9 29 -15 -10 24 26 -13 -6 -21 -8 -2 -24 -4 -7 28 -28 -3 -14
right_child=3 11 16 4 5 6 21 12 9 10 -12 18 13 14 -16 -17 -18 -19 -20 20 -22 -23 23 -25 -26 -27 27 -29 -30 -31
leaf_value=-0.043667163466733522 0.0054371131870326987 -0.030723504132261478 0.045959982662471817 0.047187437663326698 0.0066148216632287496 0.038124263374367195 0.025465662067986863 0.038766113012716263 0.036692288224976145 -0.029986974058459615 0.015138089647313509 -0.00076804371091230379 0.016451720701559858 0.019267822821279933 0.003657927558895865 -0.0020358462058570554 -0.019235423686835874 0.026157787015445862 -0.039937629008577759 -0.030348332710718563 -0.0080819761281753812 -0.0019488388632989174 -0.03553082287081577 0.04060167294158451 -0.012680509668037986 -0.038662317209153169 -0.038085594336759086 -0.010975114783416742 -0.0066512401782745922 -0.019679941021242389
leaf_weight=36.905651107430458 233.18486481904984 141.55254086852074 132.5779393017292 50.153271332383156 149.67050190269947 122.60213719308376 69.929690435528755 102.4495020955801 98.439775869250298 121.74409307539463 101.7648833990097 163.00159193575382 33.852573901414871 1025.8789950758219 356.95481953024864 63.120300099253654 17.659472435712814 17.001339867711067 44.038003832101822 148.36784766614437 349.46398282051086 727.41583716869354 76.928919523954391 18.916139632463455 13.037201270461081 7.2230200320482245 586.02162864804268 69.343317180871964 107.7334888279438 86.861681669950485
leaf_count=153 962 624 584 218 617 501 284 435 412 511 422 716 142 4205 1441 257 72 73 194 641 1416 2929 325 76 55 29 2734 316 462 366
internal_value=-5.0023e-05 -0.014163 0.0091125 0.00674366 0.000483994 -0.00100324 0.00512832 0.011997 -0.000570242 0.00355752 -0.00942134 -0.026236 0.0148852 0.0132522 0.0152426 0.0215387 0.0341527 -0.0300698 -0.00913894 -0.00979029 -0.0147328 0.00045212 -0.00208555 -0.0204264 0.0406704 0.0337872 -0.0311348 -0.0352268 -0.0203471 -0.00950072
internal_weight=5273.8 1713.94 585.249 3559.85 1624.83 1574.67 927.171 1935.03 421.975 385.069 223.509 1128.69 1606 1503.55 1382.83 161.56 163.275 921.652 207.04 647.502 497.832 797.346 329.03 95.8451 145.615 129.825 904.651 655.365 249.286 120.714
internal_count=22172 7585 2466 14587 6635 6417 3743 7952 1755 1602 933 5119 6589 6154 5646 669 711 4209 910 2674 2057 3213 1363 401 639 530 4136 3050 1086 508
is_linear=0
shrinkage=0.05


Tree=19
num_leaves=31
num_cat=0
split_feature=1 0 0 2 0 7 2 10 0 1 4 8 1 8 0 1 10 13 0 6 2 7 2 4 2 14 1 4 2 8
split_gain=184.091 172.912 47.6264 62.6193 41.3367 40.0644 35.2796 46.9139 32.3878 32.4276 28.303 27.8167 25.2307 25.0514 23.2776 22.5904 21.3399 20.1521 25.0341 19.9935 16.8948 16.5302 15.704 15.6887 15.5396 15.3593 14.9998 14.1514 14.0735 13.6407
threshold=-0.92811818935794343 -0.71671460718682811 -0.52506381229051668 -0.37199180836286644 -0.43494131681144171 1.3652272949233486 -1.332027154177394 -1.170468061385211 -0.28146604518900303 -0.64972189018542015 -0.13211113148531997 -1.0800068256935142 -1.089773818582618 -0.77155724754876354 -0.12948458826053724 -1.3689930825476915 -1.3791814493160659 1.0000000180025095e-35 0.11247760290245283 -0.51996255350426612 -1.2977782664167148 -0.33324496753195426 -1.210690579133489 -0.22332390700757423 1.2643828094438756 1.0000000180025095e-35 -1.1129134601164454 -0.36880828396556981 -1.4513819964625168 -0.040432721506145963
decision_type=2 2 2 2 2 2 2 2 2 2 2 2 2 2 2 2 2 2 2 2 2 2 2 2 2 2 2 2 2 2
left_child=1 6 13 8 10 17 11 12 29 25 26 -1 22 -2 21 20 28 18 -5 -11 -12 -6 -8 -16 -7 -10 -3 -23 -13 -4
right_child=2 4 3 5 14 24 7 -9 9 19 15 16 -14 -15 23 -17 -18 -19 -20 -21 -22 27 -24 -25 -26 -27 -28 -29 -30 -31
leaf_value=-0.013583372619849713 0.010857381016474694 -0.031580351951371294 0.017337878028983282 0.0096201660265745909 -0.039930330962913652 -0.012132588857935231 -0.016388759286990861 0.035367359941212533 -0.032591511085360188 0.010068542222887347 0.0016782349427658548 0.017854580347492131 0.036205205369778816 0.053691681462636857 0.015096511781988798 0.01522957012699244 0.042403752139672422 0.0018141407747056316 0.022232739397753068 -0.0082099157098804443 -0.029850251815074308 0.060358424043625528 -0.062663603811239268 -0.028435131568207806 0.013032060011165775 0.0010921803402962726 0.0028510541638478676 -0.025407899117307793 -0.059208373795560515 -0.033999768953079088
leaf_weight=33.658124446868896 61.397598713636398 177.31001596152782 189.44338373839855 937.2734253257513 395.90230178833008 255.96245624125004 42.078732565045357 49.191398859024048 164.44085435569286 203.1986877322197 89.583035334944725 20.507212758064274 13.858502954244612 77.919650167226791 44.123276710510254 118.56994843482971 165.76697434484959 358.53393018245697 681.09794525802135 564.96357302367687 80.230266064405441 4.7713216394186011 33.074646666646004 38.714233592152596 80.419701039791107 42.24047814309597 38.157699197530746 269.46241562068462 8.2017351686954481 13.734988674521444
leaf_count=143 254 781 778 3841 1907 1033 175 206 733 834 373 85 60 351 202 495 723 1439 2790 2311 345 22 140 175 325 181 160 1220 34 56
internal_value=-4.90271e-05 -0.0140473 0.00620808 0.00506189 -0.0228592 0.00984091 0.0161687 -0.00373399 -0.00431848 -0.00810672 -0.0117545 0.028244 -0.0254145 0.0348716 -0.0302807 -0.00149082 0.035512 0.012556 0.0149324 -0.0033676 -0.0131971 -0.0333726 -0.0368767 -0.00519754 -0.00609947 -0.025686 -0.0254611 -0.023876 -0.00411675 0.0138278
internal_weight=5253.79 1623.16 3630.63 3491.31 1256.82 2313.29 366.337 138.203 1178.02 974.844 503.851 228.134 89.0119 139.317 752.974 288.383 194.476 1976.91 1618.37 768.162 169.813 670.136 75.1534 82.8375 336.382 206.681 215.468 274.234 28.7089 203.178
internal_count=22172 7246 14926 14321 5680 9428 1566 581 4893 4059 2154 985 375 605 3526 1213 842 8070 6631 3145 718 3149 315 377 1358 914 941 1242 119 834
is_linear=0
shrinkage=0.05


Tree=20
num_leaves=31
num_cat=0
split_feature=1 5 3 8 1 7 11 11 6 7 8 10 5 10 12 1 14 1 8 6 3 12 1 10 7 6 8 1 13 12
split_gain=159.8 43.8961 38.789 22.0742 46.3997 30.8686 25.9105 22.3888 21.4992 22.5187 21.2676 19.0899 17.0752 15.2968 15.1634 14.3445 13.8546 12.1428 12.112 14.9021 11.849 11.7794 10.8148 13.4078 19.2177 17.8357 32.7852 11.5315 10.4649 10.1654
threshold=-0.92811818935794343 -0.20626435241953192 -0.095467968691129876 -0.93446003478336181 -1.3689930825476915 -0.88677319200227822 0.22271058336397656 0.23923710266294049 -0.97725477707072128 0.083050065421218816 -1.0593817575736961 0.78113205723695966 1.8004965471880616 -1.1662453387774954 1.7214722536368265 -1.1761375621261341 1.0000000180025095e-35 3.2917813735970731 -0.56074601445158412 -0.40619945161798349 -0.76177544726750968 1.5868842146364039 3.2917813735970731 0.79902311811197169 0.86837283330633463 -0.4126066058275123 -0.77155724754876354 -0.21051833464007949 1.0000000180025095e-35 0.563157967641844
decision_type=2 2 2 2 2 2 2 2 2 2 2 2 2 2 2 2 2 2 2 2 2 2 2 2 2 2 2 2 2 2
left_child=1 3 11 6 18 7 10 -6 13 16 -1 20 17 15 -15 -3 -10 -13 19 -5 -2 28 23 25 -25 26 -4 -27 -11 -12
right_child=2 8 22 4 5 -7 -8 -9 9 21 29 12 -14 14 -16 -17 -18 -19 -20 -21 -22 -23 -24 24 -26 27 -28 -29 -30 -31
leaf_value=-0.036720271771993045 -0.021209988911548554 -0.0068933176541664948 -0.01099392562938592 -0.023381461502500037 0.049676849178245636 -0.0081700937146837026 0.018940914361439659 -0.0040029951475537406 -0.037340290169777003 -0.022695112639141788 0.02952380656817712 0.021705386410546826 -0.014933293529957346 -0.033755854804675633 0.0097168206612036293 0.031439875940781591 -0.0075775760937849632 -0.037505238805093849 -0.045911478948497432 0.029692342981499892 0.0085685297448495241 0.015838292126369891 -0.029923625000478484 0.025077370570102515 0.0018705007019519646 -0.01538322047097768 0.025202364360663282 -0.0020083671740525259 0.034294982725613009 -0.0052728643164789684
leaf_weight=48.276204019784927 34.005571231245995 102.49982991814613 110.55040591955185 202.38990408182144 51.494263991713524 158.90444004535675 169.74742661416531 30.867686495184898 322.69000624120235 100.84365090727806 26.948985666036606 538.76240460574627 35.469613924622536 81.319951131939888 26.350653931498528 31.8964534252882 45.050139114260674 8.6518139690160734 57.153685659170151 13.985426038503645 1452.8575604259968 33.003332570195198 28.73931285738945 122.71173171699047 328.15259511768818 224.38236020505428 143.49322719871998 575.47806559503078 8.5997429043054563 93.178778678178787
leaf_count=209 141 459 459 896 223 693 749 134 1546 449 115 2221 144 373 123 140 205 35 259 61 6011 145 116 498 1321 944 622 2328 37 406
internal_value=0.00058433 -0.0125357 0.00643071 -0.0047623 -0.0112836 0.00468166 0.00515126 0.0295176 -0.0213412 -0.027168 -0.00872172 0.010896 0.0185714 -0.00903374 -0.0230711 0.00218379 -0.0337108 0.0207538 -0.0253806 -0.0199158 0.00788273 -0.0102301 0.000400355 0.00098478 0.00820196 -0.0020985 0.00943327 -0.00576808 -0.0181441 0.00250976
internal_weight=5208.46 1605.2 3603.25 852.947 514.795 241.266 338.151 82.362 752.254 510.187 168.404 2069.75 582.884 242.067 107.671 134.396 367.74 547.414 273.529 216.375 1486.86 142.447 1533.51 1504.77 450.864 1053.9 254.044 799.86 109.443 120.128
internal_count=22062 7222 14840 3745 2266 1050 1479 357 3477 2382 730 8552 2400 1095 496 599 1751 2256 1216 957 6152 631 6288 6172 1819 4353 1081 3272 486 521
is_linear=0
shrinkage=0.05


Tree=21
num_leaves=31
num_cat=0
split_feature=1 0 0 0 13 12 0 9 6 8 3 6 3 9 3 12 6 8 11 1 12 1 7 12 8 4 0 9 12 4
split_gain=144.82 155.299 47.7216 51.8394 43.9531 31.7967 31.7228 31.6675 40.4685 59.8712 26.2022 25.7826 23.9535 23.8519 22.7004 21.6777 18.3652 17.9231 17.8736 17.2328 16.9588 16.9279 18.7886 15.8915 14.9976 14.2261 13.7019 15.2177 13.6019 13.405
threshold=-0.92811818935794343 -0.70649223253913906 -0.52506381229051668 -0.0082998247500503577 1.0000000180025095e-35 1.3115974453049788 -0.44990949526122448 1.5679793691076076 -0.29218067651711888 -0.67704334691089085 -0.17770947449760457 -0.39534627849211607 -0.76177544726750968 2.2483194491552125 -0.075481753465395776 6.8816180113349938 -0.93224625258924132 0.051264670703291507 3.6482339889880175 -0.40286086911480185 1.0000000180025095e-35 -1.3212974748826132 -0.22393248331880988 1.8013110756621178 -0.75687090298533188 -0.11182829061260816 0.55696460749603538 -0.40172451152697003 1.4766542163848182 -0.35318209531688882
decision_type=2 2 2 2 2 2 2 2 2 2 2 2 2 2 2 2 2 2 2 2 2 2 2 2 2 2 2 2 2 2
left_child=1 5 12 7 15 13 10 14 9 -9 23 29 -2 -1 19 20 -16 -17 -7 -4 -5 22 -12 25 -15 -3 27 -6 -13 -8
right_child=2 6 3 4 26 18 11 8 -10 -11 21 28 -14 24 16 17 -18 -19 -20 -21 -22 -23 -24 -25 -26 -27 -28 -29 -30 -31
leaf_value=-0.0048523511068731566 -0.041496157422142993 -0.020896770225584477 -0.010138278329689492 -0.0087855225446981898 -0.012138704590450316 0.044363495127884463 -0.00065197418396733891 -0.031343189741184031 -0.0071819521355795703 0.055802862812020043 -0.046392849655116794 -0.017879630209797426 0.040378613939729829 0.036773175611917869 0.035174169118674437 0.0237488092811864 -0.020049471540529613 -0.016848216210671861 -0.022233654222181588 0.0064888141230741107 0.01588136295098445 -0.0045910441072489101 -0.0061803551903002437 0.033744210545999818 -0.011234385424546845 0.0061097030225364798 -0.016647732340898135 0.0092194205062573684 0.014778580015859697 -0.033622281524579904
leaf_weight=169.35268971323967 9.4521259367465955 77.561830207705498 304.68123127520084 72.640836700797081 129.4250071644783 103.74239122867584 32.950392469763756 25.63653951883316 115.02765606343746 83.506721079349518 92.255633562803268 124.63868120312691 130.13886135816574 74.834803387522697 15.613531604409216 37.080960258841515 334.00086338818073 100.58528749644756 10.992353871464728 318.53132171928883 1546.2536425590515 80.055738881230354 42.870423123240471 32.216047540307045 20.542208209633827 130.56869828701019 143.32244968414307 233.82158190011978 42.58396951854229 561.84596131742001
leaf_count=710 40 339 1306 295 519 477 161 104 468 357 411 565 574 316 66 151 1404 405 45 1287 6346 338 185 135 86 544 578 940 192 2718
internal_value=0.000554787 -0.0119751 0.00611522 0.00495667 0.009408 0.0159436 -0.020681 -0.00345524 0.0134747 0.0352775 -0.0102216 -0.0269248 0.0347731 0.00638691 -0.00736258 0.0131504 -0.0175596 -0.00586765 0.0379257 -0.00163228 0.014771 -0.0228919 -0.0336859 0.00110605 0.02638 -0.00393571 -0.00355913 0.0015945 -0.00952933 -0.0318046
internal_weight=5196.73 1597.01 3599.72 3460.13 2263.13 379.464 1217.55 1197 224.171 109.143 455.528 762.019 139.591 264.73 972.827 1756.56 349.614 137.666 114.735 623.213 1618.89 215.182 135.126 240.347 95.377 208.131 506.569 363.247 167.223 594.796
internal_count=22062 7222 14840 14226 9234 1634 5588 4992 929 461 1952 3636 614 1112 4063 7197 1470 556 522 2593 6641 934 596 1018 402 883 2037 1459 757 2879
is_linear=0
shrinkage=0.05


Tree=22
num_leaves=31
num_cat=0
split_feature=1 0 0 2 3 2 10 0 12 6 10 0 3 3 1 0 2 1 6 10 2 11 10 4 2 1 1 2 0 12
split_gain=131.501 141.365 43.5616 58.9457 43.6681 30.8742 34.9323 29.3822 24.5319 23.9856 23.2438 27.2278 21.8196 19.6781 19.2949 19.7512 19.0685 20.4653 16.8354 19.9109 16.1075 15.4806 14.7143 14.67 14.103 14.0656 13.4282 17.8949 13.7465 12.334
threshold=-0.92811818935794343 -0.70649223253913906 -0.52506381229051668 -1.0084683248021185 0.049864819908504589 -1.3198181427945668 -1.2939741195222199 -0.44990949526122448 1.7433218237141899 -0.39534627849211607 -1.3685338995484784 -0.82389874329924206 -0.76177544726750968 -0.17770947449760457 3.2917813735970731 0.063325997196824482 -1.1041261381602923 -1.2199260665399538 0.39245701803592514 -1.1044083043919379 -1.5422243955070325 3.0974859599560411 -1.1662453387774954 -0.11182829061260816 -1.5245996074568107 -1.3212974748826132 -2.0377921207173837 -1.0499901173059796 -0.15994684191550868 1.4766542163848182
decision_type=2 2 2 2 2 2 2 2 2 2 2 2 2 2 2 2 2 2 2 2 2 2 2 2 2 2 2 2 2 2
left_child=1 5 12 18 14 10 -7 8 13 26 -1 -12 -2 23 15 -5 17 -8 19 -4 -21 -10 -18 -3 -13 -15 27 -9 -28 -11
right_child=2 7 3 4 -6 6 16 9 21 29 11 24 -14 25 -16 -17 22 -19 -20 20 -22 -23 -24 -25 -26 -27 28 -29 -30 -31
leaf_value=-0.0081079614590360647 -0.039225120491958948 -0.021167960144224802 0.0005152558461195562 0.0075767585508829637 -0.0020821833082468448 -0.062874684285256291 0.0013782752593512651 0.0064779673783389785 0.033517161210316053 -0.017092896903120332 0.049230673751388412 -0.025232848586130497 0.038735754192953997 -0.03719521191168558 -0.030613238917720383 0.017447982732818147 -0.067962007843152955 0.053928344100787853 0.033926757218354274 0.030183286982702413 -0.023774100900445395 -0.020646784575951978 0.0022732260192225759 0.0064735679518656223 0.022668723941547321 -0.0085573458279277152 -0.036328196567459517 -0.045457969589239589 -0.0094791336513636582 0.013972602044621002
leaf_weight=41.586221367120743 9.5038036406040174 76.455689996480942 164.16307651996613 1191.5359246730804 868.24336478114128 21.141901820898056 54.007332727313042 49.848648220300674 47.455029219388962 123.88100530207157 112.39722147583961 19.482300221920013 128.91128620505333 114.29877418279648 27.023520782589912 885.68738514184952 12.555562630295755 28.270395055413246 19.407235473394394 14.377609327435492 283.36795504391193 18.057889387011528 17.820481702685356 128.24237345159054 70.263121008872986 69.525873839855194 458.58407752215862 24.651586353778839 53.876834064722061 42.788656175136566
leaf_count=174 40 336 679 4916 3540 91 226 243 199 565 513 82 574 512 109 3642 53 122 79 60 1201 77 76 534 297 294 2254 121 261 192
internal_value=0.000527929 -0.0114661 0.00582226 0.00471779 0.00734731 0.015229 -0.00403594 -0.0198159 -0.00974728 -0.0258731 0.0258224 0.0328281 0.0333223 -0.0145272 0.0112404 0.0117887 0.00700804 0.0195386 -0.0115093 -0.0134361 -0.0211425 0.0185026 -0.0267213 -0.00383155 0.0121979 -0.0264016 -0.0306295 -0.0106781 -0.0335176 -0.00908396
internal_weight=5177.41 1585.19 3592.22 3453.81 2972.49 377.525 133.796 1207.67 454.036 753.631 243.729 202.143 138.415 388.523 2104.25 2077.22 112.654 82.2777 481.316 461.909 297.746 65.5129 30.376 204.698 89.7454 183.825 586.961 74.5002 512.461 166.67
internal_count=22062 7222 14840 14226 12207 1634 568 5588 1952 3636 1066 892 614 1676 8667 8558 477 348 2019 1940 1261 276 129 870 379 806 2879 364 2515 757
is_linear=0
shrinkage=0.05


Tree=23
num_leaves=31
num_cat=0
split_feature=1 0 0 1 13 0 12 0 3 6 3 14 7 0 3 12 11 11 6 1 7 11 10 8 7 8 1 0 8 4
split_gain=119.421 128.723 39.7898 44.0637 40.3873 36.0426 28.6999 27.2019 22.7985 22.3147 21.2218 21.1215 21.9578 19.885 19.8847 19.5314 16.3737 15.6179 14.6852 13.9949 13.9233 22.4944 18.4385 23.153 13.8301 12.7839 12.5187 12.8945 11.9236 11.5304
threshold=-0.92811818935794343 -0.70649223253913906 -0.52506381229051668 -0.46933298342186131 1.0000000180025095e-35 -0.26745163554471979 1.3115974453049788 -0.44990949526122448 -0.12266741916031511 -0.39534627849211607 -0.095467968691129876 1.0000000180025095e-35 -0.0096091649836918518 0.063325997196824482 -0.76177544726750968 1.8013110756621178 3.6482339889880175 3.7724979218507722 -0.25800658175124586 -1.3212974748826132 -1.1232378804236847 0.87952218943093929 -1.1317001885389466 -0.85659010579681982 -0.21358942616375079 -0.66495713481710184 -2.0377921207173837 -0.17204007943458896 -0.59624730541234461 0.56002581119473327
decision_type=2 2 2 2 2 2 2 2 2 2 2 2 2 2 2 2 2 2 2 2 2 2 2 2 2 2 2 2 2 2
left_child=1 6 14 5 10 -4 20 8 15 26 13 12 -7 -5 -2 29 -8 -17 -12 24 21 -1 23 -22 -10 -16 28 -28 -9 -3
right_child=2 7 3 4 -6 11 16 9 19 -11 18 -13 -14 -15 25 17 -18 -19 -20 -21 22 -23 -24 -25 -26 -27 27 -29 -30 -31
leaf_value=0.043400555362741712 -0.037116086471041837 -0.011851997853969093 0.012109504311319276 0.0085513138380198823 -0.0045382167392638085 -0.035284592857495627 0.042078073812933631 0.0017658175621821745 -0.050114039298633006 -0.0086589583323524455 0.019975119333786789 0.0034568940147161817 -0.006054907548786949 0.020328637802797991 0.023364193686058243 0.045649521573959607 -0.021789566853770256 -0.031549432522351109 0.00089058491031585203 -0.0060930068832699908 0.0045665364483728618 -0.025154608727557384 0.034930579911745016 -0.035856743894794575 -0.0094430419106234353 0.055586777456565997 -0.035379034052191997 -0.011284144468038899 -0.043509176841673748 0.01418630639359314
leaf_weight=47.031902983784676 9.5461778938770276 199.53891615569592 143.69582599401474 860.73319062590599 615.82345472276211 171.68493181467056 101.04042878746986 54.515291720628738 63.68366813659668 166.12416365742683 116.99244600534439 90.667033970355988 103.4465134292841 617.21132501959801 73.251389786601067 33.542718797922134 10.971173241734503 7.9808784723281851 729.51373100280762 62.255341112613678 119.58732338249683 15.863461241126059 30.281772792339325 50.129642054438591 31.665687009692192 54.410772725939751 440.69986593723297 64.394228935241699 19.63643342256546 53.780704036355019
leaf_count=201 40 860 599 3533 2480 768 477 266 294 757 485 388 451 2564 312 140 45 34 2958 264 504 68 126 213 138 262 2200 315 98 222
internal_value=0.000501965 -0.0109843 0.00553974 0.00448731 0.00684058 -0.00908224 0.0145739 -0.0189885 -0.00929687 -0.0248628 0.00985742 -0.0174216 -0.0243189 0.0134741 0.0319416 -0.00107114 0.035764 0.0306515 0.00353614 -0.0246432 0.00551622 0.0260177 -0.000915858 -0.00735801 -0.0366836 0.0371696 -0.029499 -0.0323199 -0.0101988 -0.00630082
internal_weight=5159.7 1572.72 3586.98 3449.77 2940.27 509.494 374.906 1197.82 452.448 745.37 2324.45 365.798 275.131 1477.94 137.208 294.843 112.012 41.5236 846.506 157.605 262.894 62.8954 199.999 169.717 95.3494 127.662 579.246 505.094 74.1517 253.32
internal_count=22062 7222 14840 14226 12020 2206 1634 5588 1952 3636 9540 1607 1219 6097 614 1256 522 174 3443 696 1112 269 843 717 432 574 2879 2515 364 1082
is_linear=0
shrinkage=0.05


Tree=24
num_leaves=31
num_cat=0
split_feature=1 0 2 0 3 12 5 0 12 7 0 12 5 4 0 7 12 7 11 7 2 11 8 0 11 2 0 8 6 2
split_gain=108.497 131.412 33.2668 41.0422 37.0096 28.0992 25.5834 21.856 19.2042 18.4485 18.303 18.147 17.9123 17.5222 16.6731 25.5957 15.9675 15.8451 14.9266 14.1252 12.9107 18.4424 12.8508 12.6223 12.5634 12.5166 11.9242 11.6726 11.1388 10.9739
threshold=-0.80696773476101735 -0.65181441554123787 -1.0426376379235183 -0.37610944390564421 -0.14917488745157342 0.91766653533371412 -0.65341196434694326 -0.096753975891073138 0.20912507997525917 -1.1232378804236847 -0.4646109125336344 2.6827368589231511 0.027803758558596785 1.3606099432983509 -0.058899109253519231 0.9280546957304715 1.7433218237141899 0.43702453751353909 0.87952218943093929 0.93825643672217118 -1.3198181427945668 1.0000000180025095e-35 -1.0800068256935142 1.0000000180025095e-35 3.7724979218507722 -0.79787228706988766 -0.20072287934457742 -0.65873248234459769 -0.39534627849211607 -1.5422243955070325
decision_type=2 2 2 2 2 2 2 2 2 2 2 2 2 2 2 2 2 2 2 2 2 2 2 2 2 2 2 2 2 2
left_child=1 5 11 19 8 9 25 10 -5 18 16 12 29 -10 26 -16 -8 -12 -1 27 22 -22 -11 -14 -7 28 -6 -4 -3 -2
right_child=2 6 3 4 14 24 7 -9 13 20 17 -13 23 -15 15 -17 -18 -19 -20 -21 21 -23 -24 -25 -26 -27 -28 -29 -30 -31
leaf_value=0.03768991999310653 0.03195477014374544 -0.0019931074913431346 -0.011982586730801048 -0.0069613504037357461 0.0087854800956504199 0.027087435019430429 -0.016903292846794076 0.0086069928617594441 0.016161262708532249 -0.041822994152006493 -0.029863475137147627 0.027121137724213498 -0.045017398713813606 -0.0073522455062848355 0.011154881529743733 -0.0029849715316864092 0.017689152221906933 -0.0066853393669831567 -0.03072891607124786 -0.028183947558303876 -0.00015052472330383271 -0.045688316070567336 0.01264662692368995 0.0077691701012449765 -0.030986535112543914 -0.039626228501321477 -0.01570212801918517 0.053259083357481675 0.038967959469798405 -0.0077170061180724947
leaf_weight=45.948999419808388 18.31931859254837 165.6854712665081 7.3944132775068274 113.51380832493305 64.846864193677902 228.53429636359215 227.5086138099432 57.262282580137253 1128.0547580569983 12.287389293313025 643.64118261635303 35.118329375982285 53.050313547253609 84.85611592233181 606.45129606127739 676.67807193100452 38.868235006928444 83.996261805295944 9.4807318449020368 6.5867251604795447 49.957993194460869 40.288131207227707 84.804890796542168 14.161676928400992 9.5483455806970579 19.825656056404114 209.18009415268898 72.965658023953438 18.32866270840168 313.86458194255829
leaf_count=195 75 731 31 461 269 1035 1008 263 4682 52 3189 145 229 347 2481 2735 165 381 41 27 208 175 352 57 39 90 873 341 79 1306
internal_value=0.00047748 -0.00969406 0.00566476 0.00755575 0.00653234 0.0125235 -0.0182102 -0.0213538 0.0126699 0.000531398 -0.0230855 -0.00725013 -0.0102909 0.0145116 0.00130055 0.00369446 -0.0118322 -0.027196 0.0258632 0.0413932 -0.00694691 -0.0205631 0.00566591 -0.0338259 0.0247253 -0.00197058 -0.00988795 0.0471862 0.0020786 -0.00550518
internal_weight=5141.01 1735.97 3405.04 2970.53 2883.58 480.851 1255.12 1051.28 1326.42 242.768 994.014 434.514 399.396 1212.91 1557.16 1283.13 266.377 727.637 55.4297 86.9468 187.338 90.2461 97.0923 67.212 238.083 203.84 274.027 80.3601 184.014 332.184
internal_count=22062 8003 14059 12247 11848 2097 5906 5006 5490 1023 4743 1812 1667 5029 6358 5216 1173 3570 236 399 787 383 404 286 1074 900 1142 372 810 1381
is_linear=0
shrinkage=0.05


Tree=25
num_leaves=31
num_cat=0
split_feature=1 9 5 7 3 7 14 9 8 10 7 10 2 6 1 2 1 6 6 1 4 10 10 9 14 7 1 1 10 0
split_gain=106.835 135.597 41.7426 33.0658 28.1198 27.6208 23.2393 35.0082 31.694 29.6246 28.7367 23.2367 22.0815 21.3845 18.7168 36.3751 17.3378 15.9326 15.9276 28.2804 15.4892 14.5808 14.5486 14.328 14.0636 13.9801 13.3815 12.9332 11.1472 11.7336
threshold=-0.50417272005469893 1.4041629761787491 -0.19660982441120753 -0.73497257109209968 -0.19530003293458995 0.083050065421218816 1.0000000180025095e-35 1.2771502005321305 -1.0672748972082109 -0.92132576811464884 0.68748800369402585 1.0559685688107969 -0.91234357607420324 1.9295591083102257 -1.3448279606685942 -1.3256492903325274 -2.1327684172303738 -0.30135705141061936 -0.38563796581156234 0.2486403378718644 -0.16422762981394526 -0.93557357955581733 1.5071010716227453 2.205579390567197 1.0000000180025095e-35 -1.4189886471759869 3.2917813735970731 -1.1023720317796999 -1.2679354242685918 -0.058899109253519231
decision_type=2 2 2 2 2 2 2 2 2 2 2 2 2 2 2 2 2 2 2 2 2 2 2 2 2 2 2 2 2 2
left_child=1 2 4 16 25 20 7 8 9 -2 12 -12 -9 -13 15 -6 -3 -14 -10 -20 24 -16 -11 -5 -4 -1 -8 -27 -7 -30
right_child=6 3 5 23 14 28 26 10 18 22 11 13 17 -15 21 -17 -18 -19 19 -21 -22 -23 -24 -25 -26 27 -28 -29 29 -31
leaf_value=0.062549049682318072 0.00091604345533366016 -0.035080823702691555 -0.027943551532774027 -0.0096050058170771366 -0.0054510532951515464 0.026593837025828199 0.001316171310600538 -0.012699585725012372 0.01986561574970299 0.030546586560226654 -0.0094352818661040203 0.044948456539828333 0.064377669235827592 -0.044896072932668361 0.0056121133724997638 -0.0461724242182317 0.030603807738510205 0.031299929677712168 -0.011531980460352725 0.0064737822152472731 -0.045000765953657887 -0.022168851184860852 -0.0096242001409275121 0.011593551806425262 -0.0026534526763626214 -0.0035778857181159203 -0.03529287945670178 0.021265137332408344 -0.016628894866510039 0.019332691196598657
leaf_weight=10.041059285402296 175.11937241256237 10.395485579967497 475.84043291211128 139.89822381734848 111.71007007360458 20.972178533673286 1215.9994898438454 18.71665133535862 103.36396689713001 260.28498511016369 81.074089050292969 47.769914478063583 61.42773275077343 7.5498527735471717 129.72353985905647 108.2766198515892 211.77086648344994 92.667564049363136 367.34253488481045 536.19389219582081 119.43345293402672 74.003649607300758 24.428605005145073 184.7115071117878 62.675008997321129 205.51383098959923 25.379984870553017 70.122768074274063 164.71603487432003 26.095360040664673
leaf_count=43 722 45 2332 608 504 93 4928 76 420 1087 331 200 274 31 576 521 961 395 1497 2201 576 332 103 802 289 929 103 302 747 112
internal_value=-0.000233983 -0.00881984 -0.0162515 0.0126332 -0.00723864 -0.0235954 0.00581375 0.00948245 0.00625374 0.0171293 0.0247748 0.0075632 0.0383182 0.0325377 -0.0154141 -0.0255285 0.0274934 0.0445515 0.00128092 -0.000841589 -0.0286531 -0.00446068 0.0270802 0.00244199 -0.0250105 0.00487074 0.00056089 0.00272954 -0.00785286 -0.011677
internal_weight=5143.22 2125.9 1579.12 546.776 709.392 869.732 3017.32 1775.94 1466.73 459.833 309.206 136.394 172.812 55.3198 423.714 219.987 222.166 154.095 1006.9 903.536 657.949 203.727 284.714 324.61 538.515 285.678 1241.38 275.637 211.784 190.811
internal_count=22140 9772 7356 2416 3207 4149 12368 7337 6030 1912 1307 562 745 231 1933 1025 1006 669 4118 3698 3197 908 1190 1410 2621 1274 5031 1231 952 859
is_linear=0
shrinkage=0.05


Tree=26
num_leaves=31
num_cat=0
split_feature=1 0 12 9 13 9 6 8 5 1 13 8 12 3 5 1 0 1 2 1 5 6 9 12 5 7 2 0 7 1
split_gain=96.8758 126.201 48.7105 38.5772 27.096 25.6761 38.5695 27.361 24.4637 34.882 24.3859 23.8933 22.5421 18.6829 17.8947 21.7916 19.2101 16.8998 16.2903 16.2631 16.0742 22.3031 17.3951 15.9977 14.4068 14.041 12.3467 13.6561 13.3787 12.2123
threshold=-0.50417272005469893 -0.5176120639341425 1.3115974453049788 1.4041629761787491 1.0000000180025095e-35 1.7593827197539433 -0.25800658175124586 -1.0672748972082109 0.075072210100306222 0.68183020857498067 1.0000000180025095e-35 -0.78121110518341441 1.0000000180025095e-35 -0.16137597606142409 -0.03825401222587043 -1.2199260665399538 -0.077287635791986428 -2.0377921207173837 0.85536788569521816 -1.1440367554494588 0.15160662103279832 -0.63635702262073413 0.2360378975028162 0.56893215800952712 -0.0039518720648711965 -0.88677319200227822 1.3395639182087917 0.54172353373077875 -1.3462579673056314 -2.088255148131275
decision_type=2 2 2 2 2 2 2 2 2 2 2 2 2 2 2 2 2 2 2 2 2 2 2 2 2 2 2 2 2 2
left_child=1 2 3 13 5 7 11 18 -8 -10 12 -7 -3 19 15 -14 -16 -4 24 -1 21 -9 -22 -6 -2 29 27 28 -25 -5
right_child=4 10 17 25 23 6 8 20 9 -11 -12 -13 14 -15 16 -17 -18 -19 -20 -21 22 -23 -24 26 -26 -27 -28 -29 -30 -31
leaf_value=-0.012555794394595397 0.0075308436998247673 0.071594861672018506 -0.0052219242041312364 -0.046538963210860769 -0.014659383758719745 -0.036386865109290012 -0.010920554716007906 0.030006880527592206 0.039808098428697335 -0.0016606295545518693 0.0075875153724098742 0.05836260428311324 -0.024312870451062743 -0.030744281649666902 -0.033940073115759375 -0.0081204189082329844 -0.0018503626954759122 0.032656398972755712 0.0064787733813359161 0.023311577299143047 0.00045421678218780185 -0.0028870893623109684 0.020288252219704896 -0.021165264682089419 0.032187676391853395 0.0036370125983683031 0.023843260646383289 -0.0192405840435287 0.0087547224701488759 0.029851512535716163
leaf_weight=131.19064977765083 88.975423753261566 6.5847708433866492 34.518561795353889 5.3706316798925391 217.01693464815617 7.1595673412084571 85.987455621361732 54.272913932800293 110.64204585552216 93.122040286660194 86.480873048305511 75.802182108163834 416.93622677028179 104.24224992096424 326.23270605504513 416.85923343896866 54.816410914063454 191.04173894226551 257.25296700000763 41.47305066883564 225.41161784529686 982.14615358412266 217.84755699336529 44.312788009643555 181.24268244206905 194.03248883783817 56.246336162090302 82.039873957633972 233.56444083154202 104.56789001822472
leaf_count=559 363 30 153 22 875 29 351 221 473 381 384 341 2086 463 1591 1894 245 884 1074 171 928 4003 896 178 756 828 226 332 941 462
internal_value=-0.000223686 -0.00842875 0.00712296 -0.000527203 0.00553249 0.00797881 0.0200347 0.00573675 0.0113972 0.0208405 -0.0180213 0.0500916 -0.0198391 -0.0140331 -0.0203446 -0.0162253 -0.0293386 0.0268378 0.0155148 -0.00390316 0.00224691 -0.00115702 0.0102157 -0.00365412 0.0240931 0.0117603 0.00207494 -0.00131872 0.00395953 0.0260354
internal_weight=5127.39 2114.35 806.437 580.877 3013.04 2379.86 372.713 2007.15 289.752 203.764 1307.91 82.9617 1221.43 276.906 1214.84 833.795 381.049 225.56 527.471 172.664 1479.68 1036.42 443.259 633.18 270.218 303.971 416.163 359.917 277.877 109.939
internal_count=22140 9772 3542 2505 12368 9816 1575 8241 1205 854 6230 370 5846 1193 5816 3980 1836 1037 2193 730 6048 4224 1824 2552 1119 1312 1677 1451 1119 484
is_linear=0
shrinkage=0.05


Tree=27
num_leaves=31
num_cat=0
split_feature=1 9 5 7 7 3 13 12 9 6 5 1 2 6 1 2 1 11 12 11 6 12 9 10 7 7 2 1 9 12
split_gain=87.8675 113.413 36.6862 28.2604 25.7574 24.7541 24.5172 24.6055 29.4812 32.0401 25.8009 25.6378 25.0444 24.8509 16.644 33.8006 15.8152 15.1622 14.9758 23.0163 14.8045 14.4521 13.4296 13.303 12.7346 12.6593 11.145 11.0679 10.7918 10.4266
threshold=-0.50417272005469893 1.4041629761787491 -0.19660982441120753 -0.71760926409747461 0.083050065421218816 -0.19530003293458995 1.0000000180025095e-35 7.6626016260162606 1.688242166972407 -0.25800658175124586 0.075072210100306222 -0.12237677643323729 -0.95809338570615077 -0.44874047900865394 -1.3448279606685942 -1.3256492903325274 -2.1327684172303738 -1.2104108258249144 0.92351500225099981 0.53206041399272841 -0.60645313751886987 0.56893215800952712 2.205579390567197 -0.93557357955581733 -1.3791463767009275 -1.4189886471759869 1.3395639182087917 -1.1023720317796999 1.0494594343525605 1.099588263121736
decision_type=2 2 2 2 2 2 2 2 2 2 2 2 2 2 2 2 2 2 2 2 2 2 2 2 2 2 2 2 2 2
left_child=1 2 5 16 24 25 7 8 11 12 -11 13 -10 -2 15 -7 -3 -13 19 -18 -9 -8 29 -16 -4 -1 -23 -27 -26 -5
right_child=6 3 4 22 -6 14 21 20 9 10 -12 17 -14 -15 23 -17 18 -19 -20 -21 -22 26 -24 -25 28 27 -28 -29 -30 -31
leaf_value=0.059721772850442091 0.017661881645207326 -0.03378220181843615 0.025471899126884634 -0.020714460872225022 -0.0066230211193262258 -0.0045030485042423588 -0.013939737767907738 0.029203467355327278 -0.014809425174654559 -0.0098818114139715418 0.023711208620316879 0.051284742858405424 0.061561403720217935 -0.013725745784566973 0.0057523809264791864 -0.044103281472785347 0.02600156413166604 0.0085899200330063884 0.041707652874529093 -0.032886433219673779 -0.017416570416849037 -0.0012538680306084661 0.010931661682106349 -0.020867251082594074 -0.029777156261217293 -0.002994477247017934 0.022651782626476383 0.020003547553360899 -0.0063879244632330627 0.0075831064511658027
leaf_weight=10.069918498396872 83.440687030553818 10.688364908099173 11.260855302214621 84.321627750992775 209.73976056277752 110.87704738974571 216.81976348161697 19.293305024504662 12.558620244264601 80.281320512294769 196.46715752780437 21.043398171663284 68.720136448740959 256.19914700090885 129.44332215189934 105.35622552037239 90.259128406643867 1501.0860681533813 104.40440207719803 20.169491916894913 136.46721559762955 359.79140722751617 180.93689596652985 73.370120614767075 579.21133367717266 204.35355931520462 56.249735951423645 70.108729377388954 54.582452237606049 52.589960128068924
leaf_count=43 341 46 51 359 952 504 875 80 51 328 830 87 318 1044 576 521 389 6185 509 88 552 1451 788 332 2901 929 226 302 245 237
internal_value=-0.000213339 -0.00805822 -0.0149178 0.0116049 -0.0218798 -0.0064505 0.00526568 0.00759602 0.00894534 0.0220892 0.0139482 0.00641398 0.049696 -0.00599697 -0.0141803 -0.0238322 0.0251398 0.00918679 0.0281089 0.0151806 -0.0115949 -0.00347358 0.00198095 -0.00385848 -0.026831 0.00491707 0.00197088 0.00286708 -0.0277721 -0.00981081
internal_weight=5110.16 2101.74 1558.37 543.37 854.794 703.579 3008.42 2375.56 2219.8 358.027 276.748 1861.77 81.2788 339.64 419.047 216.233 225.521 1522.13 214.833 110.429 155.761 632.861 317.848 202.813 645.055 284.532 416.041 274.462 633.794 136.912
internal_count=22140 9772 7356 2416 4149 3207 12368 9816 9184 1527 1158 7657 369 1385 1933 1025 1032 6272 986 477 632 2552 1384 908 3197 1274 1677 1231 3146 596
is_linear=0
shrinkage=0.05


Tree=28
num_leaves=31
num_cat=0
split_feature=1 0 1 2 0 7 10 10 9 7 1 2 14 14 9 11 6 10 2 9 5 8 4 4 8 5 10 0 10 8
split_gain=79.6939 109.194 41.5071 75.1896 28.7484 23.1926 22.8153 19.756 25.3549 19.7055 19.6092 19.0504 16.8782 16.5952 28.5996 29.2591 28.7572 39.1026 28.2076 17.8101 16.5712 18.5257 14.6148 14.6021 14.2705 14.1253 11.5273 10.8387 13.051 16.2543
threshold=-0.50417272005469893 -0.42133462794414267 -1.1023720317796999 -1.210690579133489 -0.77389952835893372 -0.78817243240716073 -1.3209214243317866 -1.1835442690529836 1.4308220819452451 0.01257241875353211 3.2917813735970731 -1.5422243955070325 1.0000000180025095e-35 1.0000000180025095e-35 0.68031596360654101 -0.23263601595540412 -0.27066639569235945 0.51946255333409252 -0.68527846081017441 -0.022209743627124821 -0.06956732237536456 -0.30385988897088084 -0.30438326041248281 -0.3438447875068476 -0.70346615170891325 -0.24756354574822723 -0.98286748313483485 -0.058899109253519231 -1.1490885425963249 -0.77155724754876354
decision_type=2 2 2 2 2 2 2 2 2 2 2 2 2 2 2 2 2 2 2 2 2 2 2 2 2 2 2 2 2 2
left_child=1 2 3 4 6 24 -1 -5 -9 12 13 -6 20 14 15 25 18 -18 -16 -17 21 -3 -22 -14 -4 -2 -25 28 29 -11
right_child=10 9 5 7 11 -7 -8 8 -10 27 -12 -13 23 -15 16 19 17 -19 -20 -21 22 -23 -24 26 -26 -27 -28 -29 -30 -31
