tree
version=v4
num_class=1
num_tree_per_iteration=1
label_index=0
max_feature_idx=93
objective=binary sigmoid:1
feature_names=atr14 atr5 parkinson20 vol_z20 rsi5 stochk14 stochd14 willr14 ema5 sma5 roc5 macd_hist vwap20 obv cmf20 cci20 v_score_5 v_score_10 v_score_15 v_score_20 v_score_40 v_score_60 v_score_90 v2_score_5 v2_score_10 v2_score_15 v2_score_20 v2_score_40 v2_score_60 v2_score_90 dcmf_3 dcmf_5 dcmf_10 d2cmf_3 d2cmf_5 d2cmf_10 dobv_3 dobv_5 dobv_10 d2obv_3 d2obv_5 d2obv_10 signflip_cmf_3 signflip_cmf_5 signflip_cmf_10 signflip_obv_3 signflip_obv_5 signflip_obv_10 v_score_ens_short v_score_ens v_score_ens_long v2_score_ens_short v2_score_ens v2_score_ens_long cmf_slope_5 cmf_slope_10 cmf_slope_20 cmf_slope_40 cmf_slope_60 obv_slope_5 obv_slope_10 obv_slope_20 obv_slope_40 obv_slope_60 vwap_slope_5 vwap_slope_10 vwap_slope_20 vwap_slope_40 vwap_slope_60 v_score_partial_5 v_score_partial_10 v_score_partial_15 v2_score_partial_5 v2_score_partial_10 v2_score_partial_15 atr_rsi_corr_5 atr_rsi_corr_10 atr_rsi_corr_20 macd_bb_corr_5 macd_bb_corr_10 macd_bb_corr_20 vol_momentum_corr_5 vol_momentum_corr_10 vol_price_corr_5 vol_price_corr_10 vol_price_corr_20 rsi_stoch_corr_5 rsi_stoch_corr_10 vwap_cmf_corr_5 vwap_cmf_corr_10 vwap_cmf_corr_20 atr_rsi_ratio macd_vol_ratio cmf_obv_ratio
feature_infos=[0:13857.142857142857] [0:17000] [0:0.016536714547545552] [-1.9883383744194663:4.2478869456885082] [0:99.999999999987011] [0:99.999999999995353] [0:99.999999999907729] [-99.999999999998352:0] [694.83731317723414:337352.31569689268] [0:338500] [-0.66253869969040247:1.2565055762081783] [-6710.4084196064632:5082.7536931695922] [0:320656.50744589802] [-18355292:438039259] [-0.73757837892533373:0.62844192732211801] [-566.50634014401351:568.86978320950641] none [0:0.64279321880777618] [0:0.63783626892021206] [0:0.63614298647603562] [0:0.63351510248074505] [0:0.64505936958185461] [0:0.6420769107723423] none [0:1] [0:1] [0:1] [0:1] [0:1] [0:1] [-0.74652181040416232:0.91671550016239567] [-0.73757837892533373:0.9459375995196464] [-1.008014429357236:0.9319632982351671] [-0.92398389275983517:0.87774642472608799] [-0.87542972915783257:0.91351618328490725] [-0.89156592231264942:1.0041792150768856] [-438023872:135429074] [-437973512:160454592] [-437872641:179872758] [-442698082:438123218] [-431581089:437951609] [-452294933:438107824] [0:1] [0:1] [0:1] [0:1] [0:1] [0:1] [0:0.32040521942637523] [0:0.6371378978986123] [0:0.64155753263782778] [0:0.5] [0:1] [0:1] [-0.22127331430500058:0.27701517535028658] [-0.11153203270040908:0.13960013178857958] [-0.054942308380569342:0.057976740863525736] [-0.026834148702613778:0.027366205192039778] [-0.014419634845964471:0.015423899756334507] [-129472939.09999999:40825276.899999999] [-65167081.75151515:21946394.927272726] [-28213549.209774435:10643897.082706766] [-11696828.24793621:8833295.6165103186] [-7079056.5321478192:7127619.0126701863] [-96168.320737752641:67458.287854881608] [-48263.108516087887:34317.35010406877] [-23488.402977266425:17331.698166982456] [-10924.375094076315:8788.6715087342] [-6630.76376823397:5709.4027401586491] [0:0.67203699243242532] [0:0.64279321880777618] [0:0.63783626892021206] [0:1] [0:1] [0:1] [-1.7878670148151046:0.99999999999998812] [-0.9784495062130486:0.99451271809900721] [-0.94108378199094889:0.9709842838265268] [-0.99991857677738982:0.99993525642823322] [-0.99795906997071648:0.99782526457508336] [-0.99197275876994362:0.98120994944009843] [-1.0000000017065886:1.0000000000261198] [-0.9908580685428906:0.99920780624621086] [-0.99994644627075657:0.99997065511775185] [-0.99952192311941068:0.9998908420019964] [-0.99785130911340447:0.99915878394216329] [-0.98367452333757877:1.0000000000123792] [-0.83275841627242109:0.99999999999968214] [-1.0000000015892374:1.0000000000059128] [-1.0000000027318912:1.0000000001152964] [-1.0000000020439606:1.0000000000436327] [0:1210714285714.2856] [-187948033629.33722:178572189802.45908] [-0.00422809994511128:0.0016563274164792174]
tree_sizes=3392 3407 3410 3427 3423 3417 3442 3413 3419 3429 3429 3421 3420 3419 3418 3409 3423 3437 3422 3433 3423 3427 3422 3408 3419 3439 3437 3418 3427 3443 3437 3444 3433 3431 3426 3448 3414 3433 3421 3454 3430 3417 3433 3427 3433 3439 3442 3435 3434 3429 3432 3430 3432 3433 3424 3436 3431 3442 3459 3434 3449 3444 3447 3453 3443 3448 3441 3445 3446 3432 3442 3448 3450 3428 3435 3436 3441 3437 3452 3432 3466 3450 3465 3443 3445 3449 3450 3463 3460 3470 3437 3444 3428 3429 3454 3454 3455 3454 3458 3433 3469 3457 3438 3447 3453 3453 3444 3447 3442 3433 3444 3450 3453 3454 3456 3443 3448 3442 3440 3428 3434 3456 3457 3463 3440 3463 3437 3460 3438

Tree=0
num_leaves=31
num_cat=0
split_feature=2 9 2 3 10 36 13 38 2 62 2 61 31 63 9 10 28 15 84 8 41 20 57 77 26 77 39 21 25 65
split_gain=821.95 110.749 142.225 85.4926 58.1184 57.1742 39.7117 35.2515 34.262 29.8089 25.7026 24.5428 23.0113 22.677 22.3972 20.2124 21.1587 20.067 23.087 19.724 23.2488 18.7282 18.1951 17.878 21.3469 17.8046 17.0363 23.049 16.5346 16.441
threshold=0.0010879058004406173 3088.5000000000005 0.00049049157284688409 -0.29559890409986567 -0.1005402724152724 336752.00000000006 7103371.5000000009 3378393.0000000005 0.0024379819910846884 -2919.2378986866788 0.0028423735503806395 251617.8898496241 0.028905779739302803 -47845.467032509026 23660.000000000004 -0.061725035293317236 0.00034493933158055717 -82.080680013818153 0.30148006450543458 8152.368753545742 100173.00000000001 0.019509338726147313 0.00020395084424092153 -0.17293556687323489 1.1671064143612219e-14 -0.0967766807313344 38663.000000000007 0.0091801073272211164 7.5118515246475023e-20 206.85529191067752
decision_type=2 2 2 2 2 2 2 2 2 2 2 2 2 2 2 2 2 2 2 2 2 2 2 2 2 2 2 2 2 2
left_child=1 7 5 6 -4 11 8 13 19 -7 17 15 21 22 -8 16 -3 -5 23 20 -2 -6 -1 -19 -25 -15 -17 -28 -27 -23
right_child=3 2 4 10 12 9 14 -9 -10 -11 -12 -13 -14 25 -16 26 -18 18 -20 -21 -22 29 -24 24 -26 28 27 -29 -30 -31
leaf_value=-0.72597480317587548 -0.58049656915953174 -0.68785555582999136 -0.54969767808962189 -0.53343053489234782 -0.60730105869458628 -0.6977314842786948 -0.56065095618732808 -0.55259957758776101 -0.57184812782989047 -0.60062389280853101 -0.52345132894138646 -0.5901608354224136 -0.61931707282670279 -0.66438396223146312 -0.64963427467139401 -0.71886663128220019 -0.57817415556814733 -0.69773148427869469 -0.55445948816788571 -0.66388976990163162 -0.69060589850889198 -0.66092350365827801 -0.64467660617035327 -0.65662684366253732 -0.55751607072233933 -0.62742109576011651 -0.63396546269053811 -0.70835183136578428 -0.57457212355602516 -0.72241339771203017
leaf_weight=8.5210669636726362 20.528288125991825 21.661037325859073 17.160498440265656 45.462141513824463 13.503673732280729 12.295227646827696 77.312911689281464 15.845383286476133 28.889351487159729 22.121257126331329 80.296692728996277 4.6402372121810904 48.764901220798492 14.700938642024992 7.7835075855255118 168.27266258001328 5.5169806480407706 4.9180910587310818 49.086451232433319 33.186704874038696 6.2545400261878958 66.352075934410095 35.784934461116791 8.4570655226707476 15.193159162998198 31.946772336959839 15.096642732620237 33.571227788925171 27.574236333370209 13.000786304473875
leaf_count=37 60 86 45 112 43 50 211 42 82 69 190 14 161 55 28 719 16 20 131 124 25 246 127 31 41 108 52 140 79 56
internal_value=-0.624831 -0.662392 -0.674478 -0.567467 -0.636599 -0.695717 -0.593202 -0.622642 -0.616581 -0.635315 -0.545459 -0.704074 -0.647129 -0.632006 -0.56879 -0.706239 -0.665591 -0.559813 -0.575258 -0.63813 -0.60621 -0.661735 -0.660312 -0.610994 -0.592957 -0.615108 -0.711331 -0.685277 -0.602938 -0.670998
internal_weight=953.699 576.331 441.957 377.369 158.782 283.175 173.955 134.373 88.8589 34.4165 203.414 248.759 141.621 118.528 85.0964 244.119 27.178 123.117 77.6548 59.9695 26.7828 92.8565 44.306 28.5683 23.6502 74.2219 216.941 48.6679 59.521 79.3529
internal_count=3200 2145 1697 1055 551 1146 530 448 291 119 525 1027 506 406 239 1013 102 335 223 209 85 345 164 92 72 242 911 192 187 302
is_linear=0
shrinkage=1


Tree=1
num_leaves=31
num_cat=0
split_feature=2 9 2 3 36 10 2 13 37 62 66 4 65 75 31 85 10 82 8 7 62 18 39 50 8 35 49 85 4 8
split_gain=712.827 99.1888 129.355 71.0386 52.4712 50.0893 35.3023 30.0979 29.7597 26.4796 23.0486 22.344 23.5376 21.9402 21.6653 21.4213 20.6669 20.6456 20.5061 21.0936 20.4759 19.8829 19.8575 24.8316 18.9399 19.0166 18.6445 17.7268 16.671 18.4678
threshold=0.0010879058004406173 3088.5000000000005 0.00049049157284688409 -0.29559890409986567 336752.00000000006 -0.093594331964151331 0.0031154689086446137 7889465.5000000009 3985905.5000000005 -2919.2378986866788 3.6227649959474397 79.487179486617705 -590.50350820255767 -0.58096661701124863 0.028905779739302803 0.11707094326656152 -0.061725035293317236 -0.68446353528084336 16149.328673612199 -72.147917871567998 -15425.250515947466 0.39350933958789086 38663.000000000007 0.014594643309504383 8152.368753545742 0.037414656001424594 0.27973573834331084 -0.1408689014967642 20.985630439141485 16255.813267265268
decision_type=2 2 2 2 2 2 2 2 2 2 2 2 2 2 2 2 2 2 2 2 2 2 2 2 2 2 2 2 2 2
left_child=1 8 4 6 16 -4 7 24 11 -6 -5 13 -13 -1 17 -12 -3 -7 19 -9 -19 -15 -18 -24 26 -26 -2 -22 -16 -30
right_child=3 2 5 10 9 14 -8 18 -10 -11 15 12 -14 21 28 -17 22 20 -20 -21 27 -23 23 -25 25 -27 -28 -29 29 -31
leaf_value=-0.019302410397745422 0.086020065538185961 -0.0010626760831790292 0.097719780080588764 0.11937508337835714 -0.034713593024662127 -0.066570257122548313 0.096837091170632814 0.1171717828867111 0.11771934868787137 0.056858371716400673 0.020191709871993604 0.050821333581419062 -0.055274089144965059 0.06458076956757404 -0.054271896758715847 0.095649339888046303 -0.05448433215816717 -0.044153459218158296 -0.0049313894106419558 0.049887598776214237 0.071195593123428699 0.013782741763430684 0.052729846453858066 -0.035994171578534941 0.019087896332361676 -0.075833263518747918 0.0015577935514661336 0.0063303235057209015 0.077846042541354354 0.013585826958609075
leaf_weight=13.691275626420973 19.102048501372341 28.718406200408936 19.943430915474892 131.75625783205032 12.150794565677641 10.743492811918257 55.197095721960068 26.935898125171661 10.433580011129377 22.537369877099991 10.922374233603476 8.3587442785501498 13.955837801098822 61.463860675692558 4.3113320767879477 67.72191347181797 166.68932111561298 15.588914930820463 6.7721623182296744 20.523806065320969 13.272720709443091 28.055895060300827 9.8203157633542997 40.039060980081558 32.794057786464691 6.2882711589336386 9.9305123984813672 51.024008050560951 24.601416409015656 20.495429366827011
leaf_count=53 53 107 52 311 50 47 145 65 25 69 37 26 59 186 18 177 724 65 25 63 40 99 31 165 115 28 36 186 71 72
internal_value=0.0345453 -0.000746381 -0.012282 0.0869351 -0.0327773 0.0235835 0.0636433 0.0486678 0.0365804 0.024782 0.10659 0.0298362 -0.0155322 0.0396449 0.0130254 0.0851695 -0.0409179 -0.00149559 0.0764608 0.0880749 0.00725604 0.0486604 -0.0462035 -0.0185191 0.0265396 0.00381527 0.05713 0.0197204 0.0396612 0.0486413
internal_weight=963.84 575.895 439.936 387.944 279.955 159.981 177.544 122.347 135.959 34.6882 210.401 125.526 22.3146 103.211 140.037 78.6443 245.267 90.6291 54.2319 47.4597 79.8856 89.5198 216.549 49.8594 68.1149 39.0823 29.0326 64.2967 49.4082 45.0968
internal_count=3200 2145 1697 1055 1146 551 530 385 448 119 525 423 85 338 499 214 1027 338 153 128 291 285 920 196 232 143 89 226 161 143
is_linear=0
shrinkage=0.05


Tree=2
num_leaves=31
num_cat=0
split_feature=2 9 2 10 2 59 3 3 13 63 63 85 10 8 87 40 57 82 3 80 9 58 28 17 80 49 3 12 22 90
split_gain=624.687 93.0613 82.5766 68.5438 64.2818 50.3788 42.0649 25.4547 24.3967 24.762 23.891 23.0898 19.152 18.991 18.4321 18.0598 17.5384 17.1358 16.6204 20.2031 18.2422 19.5223 15.7191 15.6135 15.4838 17.4801 13.8728 13.8448 17.9646 17.6866
threshold=0.00081237782471527966 3088.5000000000005 0.0024060977243756062 -0.074623714810630667 0.00049049157284688409 108168.15000000001 0.3966875787232132 -0.40509806129757436 7889465.5000000009 -125412.08846901917 -47845.467032509026 -0.33578357172259859 -0.061725035293317236 31153.154157364548 0.91088825457729816 136129.50000000003 0.0015243854132622895 0.1898182254025931 -0.15227713571423604 -0.55962763931016535 38133.000000000007 0.0057566460376741605 0.00034493933158055717 0.49378367779355747 0.67765031545400434 0.26410129940085575 0.45538149398390732 8270.0182651388259 0.1875991851138544 -0.23952731526306567
decision_type=2 2 2 2 2 2 2 2 2 2 2 2 2 2 2 2 2 2 2 2 2 2 2 2 2 2 2 2 2 2
left_child=1 10 3 -2 5 12 8 14 9 -5 -1 26 22 16 -4 -10 -7 -8 -14 -20 21 -21 -3 -13 25 -12 -6 28 -11 -30
right_child=2 4 7 6 11 13 17 -9 15 27 24 23 18 -15 -16 -17 -18 -19 19 20 -22 -23 -24 -25 -26 -27 -28 -29 29 -31
leaf_value=-0.00092194105842280123 0.10038445583069294 -0.020252679014585568 0.083245287268216006 0.081353377742478944 0.0098161160600542946 0.06695212828436102 0.041437485403103366 0.1135329848275408 0.081800632151990793 0.057558145096753166 0.067515716634280395 0.010362031356762127 -0.062002178790507317 -0.04912944213084524 -0.0057869919170098916 0.016357996562252227 -0.018645574845150045 0.10108710931454555 -0.063441869273163351 -0.019466232384512228 -0.067471752161874676 0.057233140942677729 0.071302786966735504 -0.075047450779789304 -0.011054900576783882 0.0052966914454393782 0.10027402982437178 -0.001412658215017833 0.042650411760678651 -0.077202120634882243
leaf_weight=38.638128072023392 70.374080181121826 23.056373327970508 52.973832011222839 14.591665983200071 6.7454882860183742 20.336314007639889 17.7161815315485 118.90783329308033 34.222802072763443 27.959881633520126 56.710095718502998 72.762336149811745 85.621140345931053 7.178360477089881 6.5298192352056494 15.23547028005123 8.4793260693550092 37.579352453351021 38.858387261629105 61.131121501326561 16.478953257203102 9.5990600287914258 5.8846938461065283 5.775635987520217 10.096914231777189 14.09409563243389 11.404232531785963 69.913750007748604 6.4120557904243469 5.9201509654521924
leaf_count=142 173 91 140 40 24 61 55 270 91 84 164 259 385 30 23 51 33 93 175 248 75 31 17 26 37 50 29 257 20 26
internal_value=0.032533 -0.00697265 0.0732373 0.0572146 -0.0192673 -0.0315338 0.0439799 0.100173 0.0319228 0.0201452 0.0314226 0.0158271 -0.0397863 0.023637 0.0734751 0.0616412 0.041764 0.0819759 -0.045002 -0.033456 -0.0200951 -0.00905707 -0.00163637 0.00408107 0.0468702 0.0551306 0.0666546 0.012041 0.0353853 -0.0148855
internal_weight=971.188 492.851 478.337 299.925 373.311 276.624 229.551 178.411 174.256 124.798 119.539 96.6877 240.63 35.994 59.5037 49.4583 28.8156 55.2955 211.689 126.068 87.2091 70.7302 28.9411 78.538 80.9011 70.8042 18.1497 110.206 40.2921 12.3322
internal_count=3200 1877 1323 890 1484 1146 717 433 569 427 393 338 1022 124 163 142 94 148 914 529 354 279 108 285 251 214 53 387 130 46
is_linear=0
shrinkage=0.05


Tree=3
num_leaves=31
num_cat=0
split_feature=2 9 39 10 2 10 39 2 0 14 0 2 82 61 77 26 61 52 20 80 76 63 90 69 40 64 36 66 57 41
split_gain=552.719 82.6702 63.7399 70.1416 43.2929 42.9879 42.7758 26.8093 44.4605 24.5042 22.6245 22.3617 22.2372 21.238 20.7039 19.9988 24.5662 22.5683 17.9463 16.8512 16.1841 15.7072 15.5117 14.9168 14.7721 16.4757 14.6544 14.3301 13.9299 13.7324
threshold=0.0010879058004406173 36996.100000000006 222342.00000000003 -0.05605192346023518 0.0031154689086446137 -0.076579482367659699 -1624530.9999999998 0.00048699587869138479 45.892857142857146 -0.40605544906944119 1566.4285714285718 0.0004193160579780407 0.1343471918173002 -9665.3139097744333 0.025346035292081442 1.2915082136108898e-12 -25909.344360902254 0.091368236584510973 0.15648045390850188 -0.9263358281398193 0.1086614753025984 -125412.08846901917 -0.58540501664438871 0.43880129198136852 98840.000000000015 -102.90359576866958 265236.50000000006 3.6227649959474397 0.0077343583418201757 1925202.0000000002
decision_type=2 2 2 2 2 2 2 2 2 2 2 2 2 2 2 2 2 2 2 2 2 2 2 2 2 2 2 2 2 2
left_child=1 2 3 14 5 27 -5 8 13 -7 19 -3 -12 23 24 22 -17 -18 -13 -11 -19 -4 -9 28 25 -1 -10 -2 -8 -23
right_child=4 11 21 6 -6 9 7 15 26 10 12 18 -14 -15 -16 16 17 20 -20 -21 -22 29 -24 -25 -26 -27 -28 -29 -30 -31
leaf_value=0.055571190129139074 0.10942636822857664 -0.062990670697023993 -0.019634640675022779 0.072015436884422954 0.09909474545692927 -0.046125249156453878 -0.046546855775284668 -0.067797550479223409 -0.044958281498942348 0.010690812423529119 -0.064301941820056704 -0.047629989366997645 0.04428453226450095 0.051965099874361091 0.067103161797871708 -0.03627182005528444 0.058811919299647575 0.035067917818628273 0.065540613207921913 0.066112842928968768 -0.064338821221125705 0.043706561844673787 -0.0038105193659550493 0.069647750677466952 0.083523865285416388 -0.031361012110215684 0.0025733884882497633 0.055827389712615499 0.04937731089663111 0.10517214991074618
leaf_weight=7.9607083201408448 55.526348665356636 60.695801287889481 8.5454246997833234 14.74271711707115 132.08933688700199 6.1398789286613455 20.156105160713203 12.701486334204672 136.40266188979149 15.027916640043257 7.2984478324651745 7.2497153133153898 13.319119051098822 21.721820116043091 40.032503128051758 14.446949899196623 37.097432836890221 8.7284917980432528 6.7783359587192535 157.03014390170574 7.7122218012809745 70.316078037023544 37.244198471307755 4.5829299986362448 5.9678006023168555 17.283476442098618 18.403895393013954 16.082036033272743 4.6596342027187339 10.435657769441603
leaf_count=24 123 278 33 41 306 25 85 56 598 51 31 31 41 67 116 58 112 29 20 433 33 222 137 13 16 69 67 45 15 25
internal_value=0.0307133 -0.000793026 0.00654969 -0.00179044 0.0756321 0.0641717 -0.0112785 -0.0150703 -0.0259569 0.0522077 0.0553412 -0.0498411 0.00584582 0.0144726 0.0433033 0.00393959 0.0215878 0.0372009 0.0070539 0.0612722 -0.0115631 0.0448282 -0.0200828 -0.0132296 0.0127775 -0.0039471 -0.0393076 0.0973889 -0.0285352 0.0516498
internal_weight=976.379 573.866 499.142 409.845 402.513 270.424 338.601 323.858 205.927 198.816 192.676 74.7239 20.6176 51.1205 71.2445 117.931 67.9851 53.5381 14.0281 172.058 16.4407 89.2972 49.9457 29.3987 31.212 25.2442 154.807 71.6084 24.8157 80.7517
internal_count=3200 2145 1816 1536 1055 749 1311 1270 845 581 556 329 72 180 225 425 232 174 51 484 62 280 193 113 109 93 665 168 100 247
is_linear=0
shrinkage=0.05


Tree=4
num_leaves=31
num_cat=0
split_feature=2 9 3 2 38 2 66 36 9 79 13 13 77 85 2 3 8 8 58 58 20 22 68 25 55 78 48 57 37 39
split_gain=492.885 78.1425 63.9847 53.4467 45.059 34.9742 32.856 30.5463 25.7559 20.7935 20.6233 19.7184 19.2735 18.9896 18.8106 17.6861 16.8441 23.8171 17.767 15.3429 15.0078 18.1686 17.608 14.74 14.6817 14.0048 13.5695 16.1022 16.1641 13.3148
threshold=0.00081237782471527966 3088.5000000000005 -0.29559890409986567 0.00049049157284688409 1040776.0000000001 0.0031154689086446137 144.37989049595475 -180593.49999999997 10341.000000000002 -0.084494656268857896 14811045.000000002 23247035.000000004 -1.0000000180025095e-35 -0.33578357172259859 0.002378096946782223 -1.0000000180025095e-35 37124.835493092367 23545.145131350237 0.0057566460376741605 -0.00085708857854753843 0.17458000504990176 0.03596500466867425 -28.012363314684972 7.5118515246475023e-20 -0.014126442444203533 -0.1622820658263652 0.21338699072305981 0.0066512874779638175 269165.00000000006 -23971.499999999996
decision_type=2 2 2 2 2 2 2 2 2 2 2 2 2 2 2 2 2 2 2 2 2 2 2 2 2 2 2 2 2 2
left_child=1 10 5 4 9 7 14 -2 -6 -3 12 20 26 24 -4 -11 17 18 19 -17 21 22 -9 -14 -5 -10 27 28 -1 -8
right_child=2 3 6 13 8 -7 29 11 25 15 -12 -13 23 -15 -16 16 -18 -19 -20 -21 -22 -23 -24 -25 -26 -27 -28 -29 -30 -31
leaf_value=-0.047169701465972352 0.065172724243937177 -0.050896436110771728 0.075369946864540752 -0.0031714076682505207 0.081837502161117681 0.077819962161518 0.06849470377940664 -0.027399790612322096 -0.047442823731003947 -0.044897165515657103 0.12150628374707273 0.067560000598933342 0.018744848162224277 0.0030531599507891186 0.10400659437886708 0.01659538357797399 -0.062668237080883163 0.10097389034315774 0.065624904251828195 -0.0441973656135543 -0.015967334896982772 0.073825158515550687 0.035431302415348025 0.062927402685526532 0.090766408186704381 0.03829827075139193 -0.062936670022176497 0.077156138593922577 0.035261575279235326 0.0049474136676463491
leaf_weight=12.941989779472356 50.471470594406128 125.40388548374176 135.73457403481007 6.2674144655466106 12.636510103940966 58.527540594339371 15.320940613746641 18.996113315224648 10.887591168284418 46.641453102231026 5.6651567518711081 17.313145503401756 42.501806512475014 78.910315245389938 99.296573057770729 18.418372273445126 10.537586271762846 5.9316344112157813 7.5489634573459616 23.777063131332401 35.963940620422363 14.407971680164335 26.999054953455925 33.960777640342712 12.366889476776121 8.4656268507242185 7.9922628402709952 6.9503052532672873 11.003477081656454 17.84235306084156
leaf_count=53 138 569 348 22 34 145 41 73 47 208 12 46 141 285 213 69 49 15 23 104 135 39 85 97 31 28 35 20 35 60
internal_value=0.0290553 -0.00648449 0.0644457 -0.0179518 -0.029403 0.0446346 0.0808946 0.0328025 0.0263154 -0.036884 0.0283673 0.0184308 0.023793 0.0137737 0.0874684 -0.0213134 -0.00470078 0.0062705 -0.00502215 -0.0176612 0.00960437 0.0248297 0.00948191 0.0383685 0.0591716 -0.00993732 -0.0048657 0.0101564 -0.00929069 0.0343053
internal_weight=979.683 488.809 490.874 367.793 270.249 222.679 268.194 164.152 31.9897 238.259 121.016 113.68 115.351 97.5446 235.031 112.855 66.2136 55.676 49.7444 42.1954 96.3671 60.4031 45.9952 76.4626 18.6343 19.3532 38.888 30.8958 23.9455 33.1633
internal_count=3200 1877 1323 1484 1146 661 662 516 109 1037 393 378 381 338 561 468 260 211 196 173 332 197 158 238 53 75 143 108 88 101
is_linear=0
shrinkage=0.05


Tree=5
num_leaves=31
num_cat=0
split_feature=2 3 12 2 2 38 10 10 62 9 22 57 66 59 31 40 80 93 18 72 40 87 3 37 85 19 80 52 2 92
split_gain=424.853 77.658 75.4651 78.1547 47.7758 47.0393 32.7649 30.9597 29.3984 29.1203 24.1802 29.2223 23.3257 21.2506 19.2507 19.2354 18.3578 18.229 17.4719 17.416 16.5082 17.9039 16.1478 21.7223 15.0794 21.6655 14.4756 13.6823 13.224 15.2963
threshold=0.00077535759248411468 -0.22633651644136299 3048.7197430562292 0.00039691877416301436 0.0031154689086446137 4267276.5000000009 -0.04029551851050011 -0.093594331964151331 -21868.263086303934 38133.000000000007 0.06150801182488682 0.00032945298031963427 3.6227649959474397 53631.250000000007 -0.047978484618046859 -5650.4999999999991 0.66425873015533465 -7.1659989382909523e-08 0.4683962906876592 0.15513269116531198 86263.000000000015 0.58863826548527054 0.34811576602209698 237660.00000000003 0.26538118295270657 0.20450286739275556 -0.26655019358407051 0.064586213415521801 0.00064941981773388748 -0.0067556300312321205
decision_type=2 2 2 2 2 2 2 2 2 2 2 2 2 2 2 2 2 2 2 2 2 2 2 2 2 2 2 2 2 2
left_child=2 4 5 -4 6 8 15 -5 20 10 -10 -12 -3 26 19 -2 18 -9 -17 -8 -1 -22 28 -24 25 -16 27 -14 29 -19
right_child=1 12 3 7 -6 -7 14 17 9 -11 11 -13 13 -15 24 16 -18 22 -20 -21 21 -23 23 -25 -26 -27 -28 -29 -30 -31
leaf_value=-0.029819606657005372 0.084253765867634944 0.090631252946362012 -0.05149479415150076 0.065549731953941703 0.076981664232376762 0.089132273862350272 0.03907559843625847 -0.039882542760063713 0.046691464249507805 -0.070728525703555992 0.051237682280150701 -0.065302121555550097 0.073842030228589206 0.078462624069975243 0.030082432048474075 0.03124414184215292 0.0948189060668779 0.032077148313774111 -0.065438120334394209 -0.047491445082593522 0.048339116866943997 -0.029417689839439615 0.071847662204234178 -0.017298269570567189 0.043151266271527537 -0.04009198040667869 -0.015902100837478263 -0.002410361144852428 -0.045271449768709233 -0.0252573247084464
leaf_weight=54.54392109811306 30.314537063241005 156.57477900385857 131.20743775367737 16.926205784082413 63.473110750317574 19.991075247526169 7.9728863388299969 30.810471937060356 75.912804469466209 7.21377970278263 9.7430699616670626 12.009242519736288 19.354787737131122 59.527843371033669 27.919631600379944 22.730081260204319 8.5623525381088239 24.505025640130043 5.8821642696857444 21.418248429894447 17.861025497317318 12.643518552184103 16.955193445086483 11.447025611996649 44.915384992957115 18.14863982796669 11.562971383333204 8.4519056081771833 18.321650937199593 22.146397814154625
leaf_count=226 75 355 610 46 153 48 24 130 231 35 30 55 49 146 88 69 20 85 24 86 57 51 50 44 134 73 41 29 75 92
internal_value=0.0272446 0.0592107 -0.00635021 -0.0237162 0.0394781 0.016178 0.0268069 0.00211272 0.00849908 0.0262135 0.0333739 -0.0131028 0.0786239 0.0596138 0.0111717 0.054694 0.0305891 -0.00653358 0.011368 -0.0240085 -0.0133457 0.0161105 0.00447037 0.0359189 0.0225363 0.00243715 0.031114 0.0506649 -0.009277 0.00485929
internal_weight=989.047 506.809 482.238 272.319 251.337 209.918 187.864 141.112 189.927 104.879 97.6651 21.7523 255.472 98.8975 120.375 67.4891 37.1746 124.186 28.6122 29.3911 85.0485 30.5045 93.3753 28.4022 90.9837 46.0683 39.3697 27.8067 64.9731 46.6514
internal_count=3231 1366 1865 1132 746 733 593 522 685 351 316 85 620 265 405 188 113 476 93 110 334 108 346 94 295 161 119 78 252 177
is_linear=0
shrinkage=0.05


Tree=6
num_leaves=31
num_cat=0
split_feature=2 3 12 2 2 38 10 62 9 59 63 84 65 50 51 58 2 65 84 82 93 30 59 80 90 76 93 82 2 93
split_gain=380.146 69.2698 68.6743 72.75 42.9536 41.7763 28.6504 26.436 26.5478 24.0368 19.8081 19.0907 18.9932 18.4221 30.7456 17.7702 17.3491 17.5778 16.7644 19.415 16.537 16.2676 16.2652 15.382 15.0769 15.0484 14.4796 15.4978 14.0222 16.7051
threshold=0.00077535759248411468 -0.22633651644136299 3048.7197430562292 0.00040002363871272686 0.002316384923848946 4267276.5000000009 -0.093594331964151331 -21868.263086303934 38133.000000000007 -3746.9499999999994 39565.481633787167 -0.73912127171014386 325.56531051684163 0.0097220356485086482 0.19999999999934162 -0.0021961509242396904 0.0025935416157440642 91.272490588074717 0.32891891546828805 -0.024553780880793234 1.3757370771244167e-08 0.13366223057565535 53631.250000000007 -0.90388354529553439 0.69327360825865081 0.62085161234824671 -5.7135694176139128e-09 0.62351713870185821 0.00064941981773388748 -7.1659989382909523e-08
decision_type=2 2 2 2 2 2 2 2 2 2 2 2 2 2 2 2 2 2 2 2 2 2 2 2 2 2 2 2 2 2
left_child=2 4 5 -4 9 7 -5 18 11 12 21 -9 23 -13 -15 -8 17 -3 -1 -20 26 -11 25 -2 -22 -19 27 28 29 -17
right_child=1 16 3 6 -6 -7 15 8 -10 10 -12 13 -14 14 -16 20 -18 22 19 -21 24 -23 -24 -25 -26 -27 -28 -29 -30 -31
leaf_value=-0.031241024192824166 -0.013577976336184717 0.074022781968083026 -0.049614364012890509 0.063410353279650847 0.063658392709302972 0.083635129664081709 -0.047130166088455862 0.080073733077621889 -0.069319331369830303 -0.032261796943947645 0.029503258282503636 0.062053727308530787 -0.046575148844521963 -0.025309081616554732 0.046062339981622312 -0.039057912371303148 0.091894504212610445 -0.042093923159717321 0.050917800051205192 -0.024064821566667376 0.044636894680007283 0.067220798927491165 0.062887896909942773 0.055929545591618862 -0.018231592475209217 0.051704442640100948 -0.066626304409246273 0.066594678687649525 -0.075111222195687888 0.03592206163690987
leaf_weight=50.065495043992996 9.0802669972181302 125.33711539208889 130.44870714843273 16.89293184876442 96.012419328093529 20.233012706041336 21.667383402585983 16.761807143688202 6.9978810846805564 38.013696178793907 34.383346140384674 20.836764767765999 5.8071341663599005 32.756288915872574 27.977599069476128 14.149488911032675 90.077409416437149 9.6412105262279528 17.553651332855225 16.987178936600685 31.117281556129456 4.6073871850967398 24.347925931215286 64.489851027727127 13.750470474362372 7.6839787513017646 11.066926807165144 6.8274860233068457 7.7710828334093085 15.638853549957277
leaf_count=210 34 306 619 45 243 48 94 44 35 149 106 58 23 126 88 61 193 37 56 68 100 13 63 178 55 21 49 21 35 53
internal_value=0.0258677 0.055941 -0.00608596 -0.0228013 0.0373339 0.0153346 0.00238365 0.00805887 0.024777 0.0211717 0.00126931 0.0314734 0.0404792 0.0214867 0.00756879 -0.00606728 0.0742084 0.0646694 -0.0127543 0.0140413 0.00280146 -0.0215076 0.0365379 0.0473507 0.0253698 -0.000492955 -0.0154586 -0.00270104 -0.0152975 0.000306508
internal_weight=988.982 509.482 479.5 269.331 252.394 210.17 138.882 189.937 105.33 156.382 77.0044 98.3325 79.3773 81.5707 60.7339 121.989 257.088 167.01 84.6063 34.5408 100.322 42.6211 41.6731 73.5701 44.8678 17.3252 55.4538 44.3869 37.5594 29.7883
internal_count=3231 1366 1865 1132 746 733 513 685 351 503 268 316 235 272 214 468 620 427 334 124 374 162 121 212 155 58 219 170 149 114
is_linear=0
shrinkage=0.05


Tree=7
num_leaves=31
num_cat=0
split_feature=2 12 2 3 2 39 10 62 8 10 22 66 59 80 55 58 41 66 17 3 88 87 6 58 79 20 52 41 78 90
split_gain=341.166 62.5438 67.7658 62.4042 39.4287 32.4796 27.0787 26.0009 24.8427 24.7242 23.216 20.0946 18.6517 25.1536 18.0398 17.2657 15.6183 14.854 17.2069 16.4686 15.9384 15.2921 14.3549 14.9336 14.1364 13.5551 13.4852 13.4811 12.4898 12.3977
threshold=0.00077535759248411468 3048.7197430562292 0.00039691877416301436 -0.22633651644136299 0.0031154689086446137 743179.00000000012 -0.04029551851050011 -89331.579643527191 37124.835493092367 -0.093594331964151331 0.010411720408383807 3.6227649959474397 451403.60000000003 -0.22964104028752155 -0.0063000746520471898 -0.0021961509242396904 -361457.99999999994 908.4831972798504 0.45389952404955841 0.47535110322333446 0.880699103274725 0.92032461304049396 2.1116993431231887 -0.00068689637078892874 -0.8473853824959483 0.018247211945222157 0.064586213415521801 26376.000000000004 0.41664215180772951 -0.6294308858540909
decision_type=2 2 2 2 2 2 2 2 2 2 2 2 2 2 2 2 2 2 2 2 2 2 2 2 2 2 2 2 2 2
left_child=1 5 -3 4 6 7 24 28 10 -4 16 -5 13 26 -8 -11 -9 18 20 21 -17 -20 -12 -24 -2 -18 -13 -27 -1 -26
right_child=3 2 9 11 -6 -7 14 8 -10 15 22 12 -14 -15 -16 17 25 -19 19 -21 -22 -23 23 -25 29 27 -28 -29 -30 -31
leaf_value=-0.047616878567653981 0.0010219621574801459 -0.048632159856511592 0.057934535908490542 0.08140565318350132 0.069237739074941462 0.065246230508818198 -0.02042293894885365 0.078354839416403199 -0.05337804889121274 -0.046206507758269753 0.039338227612081916 0.071803539678553518 0.082417566916732549 -0.010817017419545254 0.022052986825415885 0.041643436371736904 0.084440027559690323 -0.045220257825343113 -0.052225783429319377 0.042906868499387643 -0.032112568524399927 0.047994737183557984 0.016008025425601577 -0.046523894026980664 0.019849189027549778 -0.021529341261124019 0.0072183533394217297 0.037137725023228992 0.0062127850795910891 0.073702551276684777
leaf_weight=26.971120253205299 12.528667673468588 125.58126908540726 17.268752291798592 157.7842161655426 64.089220479130745 27.462681964039803 35.329411327838898 21.435745000839233 11.28979732096195 21.89944039285183 15.823153555393217 35.593280747532845 34.650562927126884 19.33503083884716 85.470135152339935 42.577539011836052 8.6725948899984342 13.925860866904257 22.647917836904529 8.9176438301801664 8.846621245145796 4.5751303285360327 17.944012641906738 20.404789492487907 14.407836988568304 15.378883048892019 10.456664532423018 26.955341637134552 17.945774778723717 41.382538184523582
leaf_count=120 42 610 46 355 153 73 131 55 54 97 47 87 78 66 274 139 22 61 100 29 36 14 65 88 44 59 34 83 67 102
internal_value=0.0245967 -0.00583681 -0.0219353 0.0529755 0.0353446 0.0145455 0.0238587 0.00692944 0.0176908 0.00189979 0.0240278 0.070291 0.05276 0.037043 0.00963035 -0.00594241 0.0425423 0.00274568 0.0103739 -0.0160649 0.028955 -0.0353826 -0.000731139 -0.0172642 0.0490169 0.027492 0.057138 0.0158256 -0.0261102 0.0597949
internal_weight=987.552 476.524 266.24 511.028 253.208 210.284 189.119 182.821 137.904 140.659 126.615 257.82 100.036 65.385 120.8 123.39 72.4426 101.491 87.5649 36.1407 51.4242 27.223 54.172 38.3488 68.319 51.0068 46.0499 42.3342 44.9169 55.7904
internal_count=3231 1865 1132 1366 746 733 593 660 473 522 419 620 265 187 405 476 219 379 318 143 175 114 200 153 188 164 121 142 187 146
is_linear=0
shrinkage=0.05


Tree=8
num_leaves=31
num_cat=0
split_feature=2 12 2 3 2 38 66 10 59 62 9 67 22 66 41 59 80 7 59 78 66 35 3 80 14 58 75 2 34 78
split_gain=306.976 56.9908 63.0775 56.6837 35.6176 35.2675 24.5178 22.1859 21.7435 21.6313 23.487 19.1315 19.0249 18.378 17.4161 16.8976 22.5587 16.3856 15.9226 14.4711 18.3281 17.7258 17.2389 14.2303 17.477 13.9457 13.8963 13.8733 14.2079 12.997
threshold=0.00077535759248411468 3048.7197430562292 0.00039691877416301436 -0.22633651644136299 0.0031154689086446137 4267276.5000000009 241.88553689299607 -0.093594331964151331 -3746.9499999999994 -89331.579643527191 38133.000000000007 -1207.2060503803527 0.0031057174629382863 3.6227649959474397 24982.000000000004 451403.60000000003 -0.22964104028752155 -7.592226613964514 17642.400000000005 -0.88074901509878878 130.8584942057561 -0.0072170057014925943 1.1521293630098286 -0.61298973002020918 0.088071304219121946 0.00019189551004478126 0.013844032501388024 0.0020741456636073309 -0.030019260730105007 0.79490911240526041
decision_type=2 2 2 2 2 2 2 2 2 2 2 2 2 2 2 2 2 2 2 2 2 2 2 2 2 2 2 2 2 2
left_child=1 5 -3 4 6 9 8 -4 23 -1 11 -11 -13 -5 -14 16 -15 19 -10 21 22 -9 29 24 -2 -23 -16 28 -20 -21
right_child=3 2 7 13 -6 -7 -8 17 18 10 -12 12 14 15 26 -17 -18 -19 27 20 -22 25 -24 -25 -26 -27 -28 -29 -30 -31
leaf_value=-0.021683761834201169 -0.020099222491701079 -0.04728080223924485 0.054663976370468527 0.077429628856069119 0.065698302444436821 0.076233945121935043 -0.018991280337679967 -0.028499791196313379 -0.025282446854237313 -0.041596393381780915 -0.067365458665878813 0.048602732956290882 -0.013030545015776227 0.054063134146564697 -0.0028674432773126363 0.078276140547591716 -0.010295053996429047 0.05779084824984182 0.05735604150663836 -0.038968448102516061 -0.060132601438159461 -0.0073230729769398432 0.055496333226844809 0.060973116861106583 0.072748205632788054 0.079351761537191007 0.069101860725041583 0.060199430445619852 -0.01127904196606627 0.014499850863751496
leaf_weight=48.591954752802849 13.86485640704632 122.78376396000385 17.383682399988174 157.59485691785812 64.162271827459335 20.427169024944305 29.853711783885956 12.887135922908781 21.378240838646889 10.886616200208662 7.7953651100397101 57.256264016032219 37.614591255784035 46.229552179574966 11.46114604175091 34.658925116062164 19.300461426377296 9.3904858678579313 10.437328502535818 30.673194959759712 22.919164523482323 7.4258640259504345 9.1918584108352643 59.945231482386589 7.9886265993118277 12.373973459005354 16.170459717512131 18.992768555879593 27.163420408964157 18.055897653102875
leaf_count=201 50 610 46 355 153 48 110 54 81 45 41 166 145 121 42 78 66 29 30 132 105 30 27 155 21 35 45 50 96 64
internal_value=0.0234209 -0.00560095 -0.0211099 0.050271 0.0334969 0.0138096 0.022601 0.00179348 0.0303727 0.00709034 0.0169936 0.0219236 0.0275686 0.066785 0.0091102 0.0500413 0.0351078 -0.00568376 0.0114801 -0.0109341 -0.0222854 0.0171394 -0.00730935 0.0483814 0.0138415 0.0468446 0.0392501 0.0253672 0.00777289 -0.0191565
internal_weight=984.859 473.289 263.085 511.57 253.786 210.204 189.624 140.301 159.77 189.776 141.184 133.389 122.502 257.784 65.2462 100.189 65.53 122.918 77.9718 113.527 80.8401 32.687 57.921 81.7987 21.8535 19.7998 27.6316 56.5935 37.6007 48.7291
internal_count=3231 1865 1132 1366 746 733 593 522 483 685 484 443 398 620 232 265 187 476 257 447 328 119 223 226 71 65 87 176 126 196
is_linear=0
shrinkage=0.05


Tree=9
num_leaves=31
num_cat=0
split_feature=2 12 2 3 2 38 10 63 10 66 22 55 64 58 65 33 84 13 8 14 30 19 66 1 93 93 24 54 77 11
split_gain=276.927 51.965 58.7151 51.712 32.2918 31.7317 22.6502 20.6829 19.9471 17.0365 16.4519 16.031 15.5315 15.2813 14.4728 14.4327 14.0736 13.9066 13.424 13.3621 13.3164 12.9154 12.4813 16.2485 12.6323 13.5089 13.5839 13.9749 11.9823 11.8039
threshold=0.00077535759248411468 3048.7197430562292 0.00039691877416301436 -0.22633651644136299 0.0031154689086446137 4267276.5000000009 -0.04029551851050011 -9174.7815643234226 -0.093594331964151331 144.37989049595475 0.0022594349668010748 -0.0063000746520471898 65.966882605324841 -0.0021961509242396904 -543.40312285949869 -0.039225717763584418 0.10282373387757664 1000686.5000000001 10749.694307031556 0.079095485982952587 -0.095429055743124117 0.26187906085646756 908.4831972798504 137.50000000000003 1.4840244010138401e-08 -5.7135694176139128e-09 0.8020779684538536 -0.013693552496866707 0.55837738247730451 74.70345729790742
decision_type=2 2 2 2 2 2 2 2 2 2 2 2 2 2 2 2 2 2 2 2 2 2 2 2 2 2 2 2 2 2
left_child=1 5 -3 4 6 7 12 14 -4 -5 -9 16 -2 -10 18 -12 -8 21 -1 -16 -15 29 23 -22 25 26 27 -25 -11 -17
right_child=3 2 8 9 -6 -7 11 10 13 28 15 -13 -14 20 19 17 -18 -19 -20 -21 22 -23 -24 24 -26 -27 -28 -29 -30 -31
leaf_value=0.063763997366880626 0.052188441916189654 -0.045978769926591612 0.051676991107250651 0.068744189817253873 0.062485253054291451 0.072256199961108866 -0.068207856366132538 0.044825146198982847 -0.043936782023812952 0.013122829564032205 0.070110939816540221 0.020065429243821903 -0.027964063769775133 -0.04166248959271994 -0.032047408908252577 0.022658771968825313 0.00074994166192392773 0.043716427999509241 -0.036043065471400258 0.02425949957456415 -0.042021559063310537 -0.061641754674329634 -0.038094957423462736 0.050895836045495441 0.05214247808832978 -0.044195356631866335 0.07295385160180623 -0.03798234169998823 0.077828204508685328 -0.043579516509524824
leaf_weight=10.574240267276762 61.996561050415039 120.018640011549 17.466747730970383 221.80539965629578 64.089779615402222 20.472654730081558 10.584986969828604 44.074295148253441 21.29417373239994 25.377394422888756 7.4120572209358206 85.993634223937988 6.6967900544404975 14.509824648499487 56.093805402517319 19.491120040416721 24.583320692181587 11.750798463821409 4.9442310929298392 12.973250359296797 9.9238649755716306 12.001549571752546 11.631744936108587 7.6615475863218263 27.83294303715229 9.4043563604354912 9.6787563711404783 10.462530210614206 9.9640717655420286 10.269564837217329
leaf_count=29 164 610 46 518 153 48 46 129 97 79 19 274 24 62 239 69 85 37 21 42 45 52 52 25 83 40 28 44 23 48
internal_value=0.0223288 -0.00537495 -0.0203229 0.047802 0.0317976 0.0131188 0.0214384 0.00673274 0.00169226 0.063607 0.0215555 0.00843463 0.0443745 -0.00544068 -0.0116673 0.00472178 -0.020005 -0.00433523 0.0319652 -0.021471 0.00266711 -0.0178557 0.0100949 0.0175722 0.0266651 0.00760668 0.0251288 -0.000411085 0.0313657 -0.000198175
internal_weight=981.035 469.943 259.885 511.092 253.945 210.058 189.855 189.585 139.866 257.147 104.999 121.162 68.6934 122.4 84.5855 60.9251 35.1683 53.513 15.5185 69.0671 101.106 41.7622 86.5957 74.964 65.0401 37.2072 27.8028 18.1241 35.3415 29.7607
internal_count=3231 1865 1132 1366 746 733 593 685 522 620 354 405 188 476 331 225 131 206 50 281 379 169 317 265 220 137 97 69 102 117
is_linear=0
shrinkage=0.05


Tree=10
num_leaves=31
num_cat=0
split_feature=2 3 36 5 87 22 77 2 88 12 68 34 62 83 10 60 13 2 15 59 32 80 54 2 55 49 50 76 60 75
split_gain=288.566 49.4204 47.3007 35.0849 29.1297 28.8653 28.1669 27.4194 18.9757 18.8476 18.7504 18.1531 17.6981 18.3046 17.372 18.3692 16.6014 16.436 15.4474 15.7032 15.2346 15.054 14.4979 14.165 18.5641 15.1341 13.4984 13.0841 14.2806 12.5804
threshold=0.00080014709804525255 -0.22633651644136299 463706.50000000006 21.621621621616754 0.78362905927997695 0.0088879527679538717 -1.0000000180025095e-35 0.00049049157284688409 0.38427189574750426 3048.7197430562292 447.26497402201875 0.044898093591098774 48216.820966228901 0.26004249761132842 -0.04029551851050011 502807.58181818185 3463328.5000000005 0.0025293381541956618 -86.840012061387611 83132.050000000017 -0.044702410076596234 0.22052716038711892 0.028619167541816874 0.0036525155512394662 0.0083238679197655957 0.27488192061264988 0.23324479514604429 -0.68918191844692589 -795.17272727272723 -0.26644093536676156
decision_type=2 2 2 2 2 2 2 2 2 2 2 2 2 2 2 2 2 2 2 2 2 2 2 2 2 2 2 2 2 2
left_child=2 5 3 6 8 14 22 9 -4 11 26 16 13 -9 -2 20 -5 18 -3 -20 -16 23 27 24 25 -7 -8 28 -1 -26
right_child=1 17 4 7 -6 21 10 12 -10 -11 -12 -13 -14 -15 15 -17 -18 -19 19 -21 -22 -23 -24 -25 29 -27 -28 -29 -30 -31
leaf_value=0.035472952292365766 0.036554357314135533 0.073695946658563133 0.06356780649917905 -0.029228415344390093 -0.028568751448054732 0.049895682240463618 0.039452955473458839 -0.0090884126336264661 -0.01254520598794711 -0.048779986028868239 -0.057369035195217855 0.076200048883404758 -0.039551506906243941 0.050565675624780239 -0.044605934098275034 0.078419023880621219 0.057538384633044892 0.079329629355059245 0.02222322577025174 0.06087175105820284 0.0079833051254842302 0.068529601820819547 0.040033472202722353 0.064914718126649271 0.016529923574154486 -0.021588254250874343 -0.010071556250967093 -0.050492426717347938 -0.067732179854060368 -0.082590680910329228
leaf_weight=11.29029329121113 44.437051743268967 60.144450217485428 43.725960552692413 70.912221223115921 15.454739689826964 36.682855784893036 69.087856724858284 29.120611578226089 10.075748533010481 101.06927900016308 6.6789105981588355 4.9608753472566596 18.602429613471031 23.02864146232605 22.870612993836403 6.0845031291246405 5.9775724560022345 97.974714502692223 51.553256914019585 53.615957617759705 34.613803789019585 51.410038903355598 8.1783917099237424 26.071966126561165 6.4574942141771317 9.2766720801591855 17.180254325270653 31.947031021118168 4.7670930773019746 6.3480478525161725
leaf_count=40 124 136 117 310 61 100 220 108 38 522 33 14 77 70 93 14 16 213 150 130 114 126 29 61 20 34 67 145 25 27
internal_value=0.021903 0.0480745 -0.00623589 -0.0127987 0.031934 0.0318757 0.00644718 -0.0241131 0.0493137 -0.0343366 0.0233415 -0.0165019 0.0023186 0.0172543 0.0125704 -0.00419532 -0.022483 0.0631022 0.0534849 0.0419265 -0.0129397 0.0471795 -0.0215023 0.0342416 0.020633 0.0354671 0.0295902 -0.031986 0.00483357 -0.0326068
internal_weight=979.599 507.541 472.058 402.801 69.2564 244.253 149.13 253.672 53.8017 182.92 92.947 81.8507 70.7517 52.1493 108.006 63.5689 76.8898 263.288 165.314 105.169 57.4844 136.247 56.1828 84.837 58.7651 45.9595 86.2681 48.0044 16.0574 12.8055
internal_count=3234 1342 1892 1676 216 713 559 1117 155 862 320 340 255 178 345 221 326 629 416 280 207 368 239 242 181 134 287 210 65 47
is_linear=0
shrinkage=0.05


Tree=11
num_leaves=31
num_cat=0
split_feature=2 9 3 36 2 22 63 49 85 63 58 64 55 2 52 78 14 27 82 6 3 34 72 9 5 61 25 3 86 69
split_gain=261.462 46.8043 45.6388 31.4514 34.7522 26.0354 25.9822 24.0581 23.2973 21.0422 20.2166 16.7295 17.6297 15.7162 15.1211 16.115 14.9931 16.1063 16.0052 14.709 19.7877 15.2689 14.4837 13.7625 17.2209 17.7663 31.419 13.6117 13.5929 13.0297
threshold=0.00080014709804525255 3088.5000000000005 -0.22633651644136299 311342.50000000006 0.00049049157284688409 0.0088879527679538717 6683.7567379827751 0.27312435844273059 -0.094120230995092716 -7807.7986246179489 -0.0095794943495570613 212.2692099021335 -0.037810706977549846 0.0025293381541956618 8.2643846894518523e-21 -0.12285996892609448 0.1224049880168849 0.00070333605241485462 0.34946437843724221 23.146251491644822 0.54192923602916365 -0.039667775208246533 0.98980801746361502 38133.000000000007 14.801773604577349 3626.0018796992485 0.015546325607077218 1.3230180127786486 0.8930773306892873 0.47681970087197273
decision_type=2 2 2 2 2 2 2 2 2 2 2 2 2 2 2 2 2 2 2 2 2 2 2 2 2 2 2 2 2 2
left_child=1 7 5 4 8 16 27 9 23 14 -7 12 -12 19 28 -16 17 18 -2 -4 21 -21 -20 24 -3 -26 -27 29 -1 -6
right_child=2 3 13 -5 6 10 -8 -9 -10 -11 11 -13 -14 -15 15 -17 -18 -19 22 20 -22 -23 -24 -25 25 26 -28 -29 -30 -31
leaf_value=-0.047147841683246039 -0.023583866636722919 0.039455225890938875 0.068701362511414579 0.019344093803432692 0.039822906529703959 -0.023906040922525042 -0.034118873988507784 -0.035438136750565112 -0.046488162640363234 0.051917979298371192 -0.036009269089377009 -0.0063932028501845917 0.060269445957044615 0.076370203062768094 0.064740472650940684 -0.021886192057960299 0.043196129798147159 0.066082547163095959 0.057446913069485732 0.0567095614292124 0.061131614608858853 -0.0034959594734510825 -0.023591176919174863 -0.050260361674570202 -0.0385374565082377 -0.021611254740006039 0.1145042687451481 0.074993649873481741 0.029083683631649204 -0.015790209433307313
leaf_weight=16.499094456434253 47.616104617714882 17.880675941705704 68.449587628245354 55.501859828829765 22.1357212215662 9.915633872151373 26.456517234444618 16.226806044578552 122.29258048534393 53.160839259624481 4.9706154763698569 11.819872826337813 109.47263479232788 96.714285269379616 15.744008138775827 8.1466421186923963 28.319569751620293 8.4519637376070005 14.611990511417391 15.50203065574169 47.99038228392601 32.842076241970062 8.8550458103418332 19.703831642866135 34.877248853445053 13.607190981507303 6.1582018136978141 11.371178075671194 9.0580927580594999 20.092035487294197
leaf_count=69 175 64 158 188 68 37 107 66 622 143 18 40 273 213 44 30 78 21 40 39 116 103 31 108 169 61 18 27 30 78
internal_value=0.0209132 -0.00597881 0.0458573 -0.0151824 -0.0216877 0.0303058 0.00642493 0.0211341 -0.0321789 0.0300805 0.04484 0.0502387 0.0560878 0.0603702 0.00660335 0.035201 0.0119546 0.00083068 -0.00692793 0.0509795 0.0383874 0.0158096 0.026868 -0.0132048 -0.00313723 -0.0170747 0.0207976 0.0264374 -0.0201295 0.0133621
internal_weight=974.444 468.913 505.532 350.077 294.575 244.033 80.0555 118.835 214.52 102.609 136.179 126.263 114.443 261.498 49.4478 23.8907 107.855 79.5351 71.0831 164.784 96.3345 48.3441 23.467 92.2271 72.5233 54.6426 19.7654 53.5989 25.5572 42.2278
internal_count=3234 1892 1342 1510 1322 713 280 382 1042 316 368 331 291 629 173 74 345 267 246 416 258 142 71 420 312 248 79 173 99 146
is_linear=0
shrinkage=0.05


Tree=12
num_leaves=31
num_cat=0
split_feature=2 9 66 38 36 10 10 49 2 63 2 69 85 17 2 67 33 82 9 69 80 87 84 66 63 89 90 86 77 92
split_gain=237.144 42.5036 39.8153 30.2977 28.7232 34.9171 25.4205 21.7346 19.6311 18.8557 18.2827 19.6916 17.451 16.2878 13.7412 13.496 13.9658 15.8211 14.7682 13.2333 12.5119 14.1157 12.377 17.5137 17.6339 18.9028 15.8869 14.8797 12.9201 11.5484
threshold=0.00080014709804525255 3088.5000000000005 1.4889000604918017 7209204.5000000009 311342.50000000006 -0.096970092725610565 -0.076579482367659699 0.27312435844273059 0.0025935416157440642 -7807.7986246179489 0.00049049157284688409 0.47681970087197273 -0.094120230995092716 0.30804227732443629 0.0044842267347680017 -290.77750701438953 0.0058051857841205931 0.23143466109947947 2715.0000000000005 0.49583431620415835 0.67765031545400434 0.65225064639897667 0.31403032058346303 571.95910870708224 202602.82060294531 0.45676446332340076 0.8416189262406597 0.95245153131420768 -0.62585502369217372 -0.56090283815288489
decision_type=2 2 2 2 2 2 2 2 2 2 2 2 2 2 2 2 2 2 2 2 2 2 2 2 2 2 2 2 2 2
left_child=1 7 6 14 5 29 -2 9 15 13 12 -12 19 -1 22 -8 -17 18 -18 -7 21 -11 23 24 25 -4 -27 28 -24 -3
right_child=2 4 3 -5 -6 10 8 -9 -10 20 11 -13 -14 -15 -16 16 17 -19 -20 -21 -22 -23 27 -25 -26 26 -28 -29 -30 -31
leaf_value=-0.028630854407155196 0.076901261410143806 -0.028842052894891099 0.041103254226694842 0.07027492056177119 0.018293917747275901 -0.0076445426106233998 -0.015561515293971168 -0.034044146356242991 0.066095635451542442 0.082866220470245944 0.02329813807814583 -0.031883425095264636 -0.046605738856652597 0.029874838163082132 0.076757435247197789 0.056305844620262613 0.036674316433956744 0.045535184733786233 -0.054815939286834231 -0.059479156708691243 -0.010478220346214316 0.02673867926743434 -0.032841202361021192 -0.060789176578339293 -0.052484937489555072 -0.044575922958727525 0.056482896640979996 -0.023564349054219259 0.040407405824546445 0.051294613456458409
leaf_weight=19.946126028895378 99.973041579127312 5.7427297532558468 40.414430543780327 36.964618548750877 55.747070357203484 70.310258150100708 13.381174445152281 16.051215931773186 66.980933234095573 26.296842023730278 33.570696040987968 31.185701757669449 114.44839264452457 29.475965574383736 10.44844053685665 48.564900934696198 7.4091606438159969 21.3810845464468 10.899343147873877 14.9272603392601 7.5582494288682929 19.514601677656174 6.455670401453971 9.5125703513622266 9.3242547959089261 14.888233050704004 5.2639083117246619 12.016087785363196 89.232815265655518 20.70384156703949
leaf_count=79 221 24 114 84 188 319 47 66 155 60 111 130 599 94 23 125 21 56 42 82 26 57 23 39 37 55 14 41 245 57
internal_value=0.0199839 -0.00573709 0.043781 0.0287282 -0.0145838 -0.0208846 0.0569244 0.0200667 0.0450802 0.0285162 -0.0263629 -0.00327647 -0.0338497 0.00626269 0.0209544 0.0312303 0.0383249 0.0163232 -0.0177913 -0.0167221 0.0491237 0.0589572 0.0178383 0.00286114 0.0115243 0.0213786 -0.0181785 0.02888 0.0354657 0.0338934
internal_weight=968.59 465.479 503.111 234.521 346.636 290.889 268.59 118.843 168.617 102.792 264.442 64.7564 199.686 49.4221 197.556 101.636 88.2545 39.6896 18.3085 85.2375 53.3697 45.8114 187.108 79.4034 69.8908 60.5666 20.1521 107.705 95.6885 26.4466
internal_count=3234 1892 1342 675 1510 1322 667 382 446 316 1241 241 1000 173 591 291 244 119 63 401 143 117 568 259 220 183 69 309 268 81
is_linear=0
shrinkage=0.05


Tree=13
num_leaves=31
num_cat=0
split_feature=2 3 9 2 37 2 40 12 1 66 2 83 3 84 80 61 87 35 41 84 89 80 0 5 26 39 78 58 64 90
split_gain=215.452 41.6182 38.6899 32.9244 28.8095 28.8641 29.8462 25.5388 22.2646 17.2187 16.2732 15.9491 15.6876 15.1289 17.5288 14.3257 12.9343 16.1175 12.5842 14.3869 13.2586 14.989 12.2763 11.9827 17.3379 14.8605 21.7395 14.0074 13.6112 12.4902
threshold=0.00080014709804525255 0.050549765638951187 1375.0000000000002 0.0037819671647769692 2185401.0000000005 0.00048699587869138479 86263.000000000015 8598.9498017720216 461.00000000000006 46.183712995527536 0.0003475175354990348 0.60934745934279733 1.1183781345776942 -0.3663421154735737 0.11758821084142108 15752.5022556391 0.61919416390625404 -0.032725173059445341 100173.00000000001 0.53020117298964498 -0.76988585494238782 0.58849834688190017 633.57142857142878 21.621621621616754 0.0016014512528640956 40803.500000000007 0.48221981476713177 0.00024872624991482435 -1.5507253541366024 0.72579702137940327
decision_type=2 2 2 2 2 2 2 2 2 2 2 2 2 2 2 2 2 2 2 2 2 2 2 2 2 2 2 2 2 2
left_child=2 3 16 7 5 6 23 -2 -9 -3 -8 13 18 14 -10 -11 -1 -18 20 -20 -7 22 -22 24 27 -25 -27 28 -4 -29
right_child=1 9 4 -5 -6 12 10 8 11 15 -12 -13 -14 -15 -16 -17 17 -19 19 -21 21 -23 -24 25 -26 26 -28 29 -30 -31
leaf_value=0.057982705005080674 0.040085364322886834 0.068441915342109375 0.077341044007685544 0.064544751957720345 0.044177195992173873 -0.038079484984778242 0.022822378999069724 -0.046725090206862739 -0.081326573380743727 -0.018241702059180104 -0.038456799607873342 -0.021880631340476697 0.04391420218333051 0.031548042028527797 0.045115339351422014 0.048963929953753565 0.06145140550370215 -0.019226048869347021 -0.056309780701462267 0.032643973622942954 0.046482855795832563 -0.040355604006446132 -0.0052610298521578377 -0.047888729207940496 -0.043893923002663648 -0.03548184153983476 0.064845569609930806 -0.048146579430980517 -0.013712169962394886 0.040695156072363597
leaf_weight=27.69472648203373 115.63127127289772 146.88562472164631 10.394837930798532 58.051897034049034 22.508283689618111 12.863563671708105 44.985047683119774 16.275021746754646 6.7322551757097226 10.538156419992445 14.270914152264593 22.997935488820076 22.584648177027702 86.239246293902397 4.623392254114151 32.032536089420319 9.5903355777263659 17.463183134794235 17.923849776387218 6.0898474156856528 33.143566533923149 9.3365634828805906 17.52308988571167 116.47782765328884 27.650636255741119 18.464730471372608 7.6308752149343482 13.019045636057855 6.7823869585990897 5.6831539869308463
leaf_count=73 313 338 36 135 62 55 163 65 30 36 65 81 63 250 13 81 25 62 77 20 101 37 67 620 141 87 26 63 30 19
internal_value=0.0191122 0.0418584 -0.00550098 0.0305913 -0.0108052 -0.0140211 -0.0232091 0.0227851 0.00816914 0.060327 0.0080642 0.0155776 0.00638758 0.0244045 -0.0298464 0.0323275 0.0339629 0.0093737 -0.00236058 -0.0337512 0.0079844 0.0178596 0.0285872 -0.0322003 -0.0141397 -0.0402481 -0.00614411 0.00879057 0.0413889 -0.0211497
internal_weight=962.088 500.007 462.081 310.551 407.333 384.825 265.359 252.499 136.868 189.456 59.256 120.593 119.465 97.5949 11.3556 42.5707 54.7482 27.0535 96.8805 24.0137 72.8668 60.0032 50.6667 206.103 63.5301 142.573 26.0956 35.8794 17.1772 18.7022
internal_count=3234 1342 1892 887 1732 1670 1250 752 439 455 228 374 420 293 43 117 160 87 357 97 260 205 168 1022 289 733 113 148 66 82
is_linear=0
shrinkage=0.05


Tree=14
num_leaves=31
num_cat=0
split_feature=2 3 39 2 8 36 10 5 50 2 85 63 88 91 47 66 60 33 38 55 61 11 75 86 38 49 85 61 25 4
split_gain=195.928 38.8669 35.2906 30.602 28.9938 26.4037 24.9351 24.3238 25.5396 21.9909 21.8812 18.8276 21.89 16.876 16.5363 16.2282 15.6507 15.4655 14.5813 13.8579 12.9921 12.9146 13.5954 12.8826 20.1237 11.8681 11.6869 16.2872 29.8018 16.5452
threshold=0.00080014709804525255 0.050549765638951187 1060829.5000000002 0.0037819671647769692 38887.711659614673 463706.50000000006 -0.1005402724152724 14.801773604577349 0.010813704166703608 0.00048699587869138479 -0.39554781229737729 -58641.243553764922 0.12760926699932226 14571428571.428572 1.0000000180025095e-35 46.183712995527536 546570.05757575773 -0.02991567193763316 3042257.5000000005 -0.026386826375403651 15752.5022556391 81.840661370000063 0.77196113730253468 0.79574772029974883 -304060.99999999994 0.20877890003448027 -0.17182118929086196 3626.0018796992485 0.015546325607077218 89.769754054437016
decision_type=2 2 2 2 2 2 2 2 2 2 2 2 2 2 2 2 2 2 2 2 2 2 2 2 2 2 2 2 2 2
left_child=2 3 4 6 5 7 -2 10 -9 26 17 -7 -13 -12 16 -3 18 -1 23 -6 -17 22 -11 -8 -25 -19 27 29 -29 -10
right_child=1 15 -4 -5 19 11 14 8 9 21 13 12 -14 -15 -16 20 -18 25 -20 -21 -22 -23 -24 24 -26 -27 -28 28 -30 -31
leaf_value=0.098397957737441033 0.059283443107103352 0.06599437074950644 0.053791846054747627 0.062149458484746768 0.017054761615775019 -0.036563886031834011 0.027066137126641437 0.027954313129281934 -0.053665611845965737 -0.022524047287400886 -0.010574428402889224 0.060645303690110654 -0.032156121061913366 0.081889202601727953 -0.051767793546673595 -0.017364214739369898 0.068312131719913752 0.053451456194991191 -0.054225983797613224 -0.051871603938029233 0.046717204117350239 0.051787023552616822 0.03658401376328526 -0.053632277906141584 0.013598285642667554 -0.02654944254310361 -0.046789038812120952 -0.027040199385557837 0.11066845442442015 0.04421426335762299
leaf_weight=10.057413876056673 37.50737938284874 144.77014257013798 23.962552636861801 57.294030606746674 8.5688634514808637 8.8361701816320402 116.38814306259155 26.969536200165749 25.961618259549144 45.001151770353317 63.576184242963791 34.704459100961685 7.7787174582481375 5.3500647842884055 8.8646225631237012 10.517690390348433 14.365450099110602 11.799346819519998 7.4811920970678321 48.950776010751724 31.897767603397369 10.014529019594191 12.411419361829756 14.051755353808401 53.539980858564377 7.63602690398693 85.067466035485268 10.68855056166649 6.2122312486171714 5.1786217838525763
leaf_count=23 90 338 63 135 36 35 343 92 133 177 254 91 30 15 35 36 33 35 28 273 81 29 40 56 167 28 450 49 18 21
internal_value=0.0182803 0.0400406 -0.00528027 0.029163 -0.00853611 -0.00349422 0.0216691 -0.00874319 -0.0177272 -0.0238708 0.0120243 0.0298415 0.0436533 -0.00339739 0.0150978 0.0580256 0.0179776 0.0480656 0.0142009 -0.0416034 0.030827 -0.000606965 -0.0097461 0.0169834 -0.000378385 0.0220196 -0.0356553 -0.0159405 0.0235775 -0.0373882
internal_weight=955.404 496.678 458.726 309.493 434.763 377.244 252.199 325.924 227.505 200.536 98.419 51.3193 42.4832 68.9262 214.691 187.186 205.827 29.4928 191.461 57.5196 42.4155 67.4271 57.4126 183.98 67.5917 19.4354 133.108 48.041 16.9008 31.1402
internal_count=3234 1342 1892 887 1829 1520 752 1364 1009 917 355 156 121 269 662 455 627 86 594 309 117 246 217 566 223 63 671 221 67 154
is_linear=0
shrinkage=0.05


Tree=15
num_leaves=31
num_cat=0
split_feature=10 13 66 66 75 13 1 59 8 1 8 87 81 89 77 60 80 66 59 60 10 55 28 59 87 68 91 13 91 37
split_gain=83.7634 80.1673 33.0474 30.325 21.6155 20.1055 26.0784 19.5409 17.2268 22.2315 28.3018 18.8299 18.146 14.8605 18.973 14.5418 14.3938 28.7585 18.2723 18.1545 14.8487 15.5842 14.7878 14.2245 13.7817 13.5688 13.5636 12.937 12.3698 17.2845
threshold=-0.10395397644221747 1841853.5000000002 215.33316908330059 139.00815762601135 0.67977435915193751 11646928.500000002 76.500000000000014 567.25000000000011 37124.835493092367 149.10000000000002 2674.23679776975 0.82559070148889646 0.17346606981115484 -0.65738925070918974 0.52956529385011797 502807.58181818185 -0.42663905824547427 88.342059165712598 85157.250000000015 -41472.460606060595 0.0027816465490559943 0.0056241227122345245 1.2728097976169771e-06 -1513.1999999999996 0.33866404463374616 299.65370576377114 75.178101406284512 262918.00000000006 39.766071395591759 1068828.0000000002
decision_type=2 2 2 2 2 2 2 2 2 2 2 2 2 2 2 2 2 2 2 2 2 2 2 2 2 2 2 2 2 2
left_child=25 2 4 5 8 6 -3 23 9 10 11 12 24 -8 28 -5 17 18 -11 22 27 -22 -18 26 -2 -1 -6 -21 29 -15
right_child=1 3 -4 15 7 -7 13 -9 -10 16 -12 -13 -14 14 -16 -17 19 -19 -20 20 21 -23 -24 -25 -26 -27 -28 -29 -30 -31
leaf_value=0.056937682608025945 -0.033887474901906751 -0.067925992710764535 -0.038282056124328438 -0.005472569315672293 0.022260689370991519 0.053281258966921076 0.054178320757826581 0.046077078209739157 -0.042746062240770558 -0.049125001854732321 -0.046467570712673052 -0.077799895600387622 -0.041465566346229332 -0.012706300636346701 0.05481594177914606 0.051022311536384951 -0.046403837153304928 0.058944080071382993 0.041098077449750456 0.02589206815991036 -0.027128016888882403 0.039703006452836573 0.02987588991822503 -0.065376736787180909 0.049720236654445131 -0.013619090486860101 -0.055919391125435813 0.080053194510689846 0.058195803999849444 0.035207828243432916
leaf_weight=124.19365924596786 5.9726209491491309 7.1960123628377906 61.776256278157234 80.544118314981461 39.066167041659355 100.39900477230549 44.297091946005821 44.15955938398838 28.414168775081635 31.100118517875671 50.384736567735672 5.833883360028266 10.000156924128531 57.060264334082603 30.683357670903206 13.266570702195166 15.616624057292938 11.009096667170523 6.8472809046506873 23.021601125597954 16.484750002622604 18.52655665576458 10.711763083934784 7.0049380362033835 28.205143719911575 7.2096055150032035 6.4660692065954199 21.159025564789772 11.571433097124098 28.087002202868462
leaf_count=312 23 31 314 281 132 250 121 133 147 142 264 26 41 208 80 33 67 30 21 83 68 60 34 42 80 25 33 58 31 77
internal_value=0.0160215 0.0100477 -0.00436508 0.0271126 0.001149 0.0353739 0.025324 0.0215607 -0.00581827 -0.00170143 -0.0200189 0.00662707 0.017776 0.0292322 0.0205586 0.00251685 0.0102033 -0.0122039 -0.032845 0.0205992 0.0325574 0.00823624 -0.0153693 0.000953633 0.0351097 0.0530665 0.0111583 0.051831 0.00969064 0.00309884
internal_weight=946.269 814.865 441.761 373.105 379.984 279.294 178.895 96.6967 283.288 254.873 100.397 50.0118 44.1779 171.699 127.402 93.8107 154.477 48.9565 37.9474 105.52 79.1919 35.0113 26.3284 52.5372 34.1778 131.403 45.5322 44.1806 96.7187 85.1473
internal_count=3247 2910 1798 1112 1484 798 548 340 1144 997 434 170 144 517 396 314 563 193 163 370 269 128 101 207 103 337 165 141 316 285
is_linear=0
shrinkage=0.05


Tree=16
num_leaves=31
num_cat=0
split_feature=2 66 59 3 10 1 37 15 2 15 80 10 39 39 68 61 15 12 61 91 88 64 78 69 3 20 72 64 72 50
split_gain=150.415 37.3043 25.7778 24.734 21.8992 23.5399 20.0751 18.8625 24.4901 15.8632 15.2082 14.8336 14.7472 16.3102 16.5024 13.773 13.3545 13.0022 12.7117 12.4562 11.7525 16.8299 10.8229 11.4071 10.811 10.3795 9.94795 9.89862 9.74787 14.711
threshold=0.0010970594884646965 222.93571376295407 451403.60000000003 0.027158128506803259 -0.043885063029413744 140.50000000000003 7751.0000000000009 -59.242634742273403 0.0020149164236299808 -176.32544419839348 -0.4851104997802958 0.11389997732435166 55619.500000000007 -9630.4999999999982 -210.94980681301476 -11315.873684210525 -1.0000000180025095e-35 24143.776226485261 -32520.762030075184 5.2177609322129834 -0.38688345154319531 61.441365913931172 -0.95016192772034502 0.4009504531897109 1.5546355771605527 0.10422637847570183 0.92471776323426125 2.9904540109385156 0.19998027856245773 0.048991962315678775
decision_type=2 2 2 2 2 2 2 2 2 2 2 2 2 2 2 2 2 2 2 2 2 2 2 2 2 2 2 2 2 2
left_child=1 2 4 7 6 22 9 10 15 -1 -2 -3 13 14 19 -9 27 -10 28 -7 21 -17 -6 25 -15 -24 -20 -14 29 -16
right_child=3 11 -4 -5 5 12 -8 8 17 -11 -12 -13 16 24 18 20 -18 -19 26 -21 -22 -23 23 -25 -26 -27 -28 -29 -30 -31
leaf_value=-0.0275660604693201 -0.014405872622921069 -0.038268992418893123 0.048746636754992585 0.056175397920218931 -0.06230980197472509 0.095391621578161945 -0.069382564131767785 -0.047226064432566335 0.043459550536659432 0.031555654337292613 0.05697315831248994 0.050463097585467832 -0.033193786467942916 -0.033806203241737012 -0.056516118983800601 0.060004084384009726 0.033791111909669748 -0.019934588895260189 -0.0020785273473883691 0.0081285445005132659 -0.010529850408191987 -0.020114333340931809 0.063752734987024093 -0.026489397568377093 0.044665047777022272 -0.021379314571016605 0.048338984612059516 0.051278702218472111 -0.069058376897916884 0.052747250795232452
leaf_weight=12.871349334716795 8.3140938580036146 76.255720555782318 29.997744590044022 137.13472552597523 16.745414465665817 8.3615752905607241 6.0026289522647849 13.099639236927031 85.538910165429115 95.730810061097145 72.841935247182846 5.0201327800750724 15.280532807111742 51.189429759979248 6.357082664966585 19.106060281395916 55.915608897805214 8.9330280572175962 37.131360873579979 8.0040049701929075 34.858743950724602 9.9779419898986799 7.3619236499071103 72.105669677257538 4.8008573502302161 6.9703588783740997 13.284156724810599 4.4862241148948661 10.53524276614189 5.9769450128078461
leaf_count=50 27 381 78 338 91 20 26 52 221 303 180 16 68 250 31 49 178 31 146 33 116 35 23 324 19 30 41 14 56 20
internal_value=0.0153154 -0.0015151 0.00390317 0.0390793 0.000839702 -0.00579599 0.0196288 0.0298005 0.0204032 0.0245486 0.0496607 -0.0327883 0.00339902 -0.00590493 0.00731834 -0.000518672 0.0213032 0.0374652 -0.00281904 0.0527134 0.00905004 0.0325176 -0.0255188 -0.0183914 -0.0270777 0.0223496 0.0112062 -0.0140221 -0.0337377 -0.0035682
internal_weight=940.19 550.385 469.109 389.805 439.111 324.506 114.605 252.67 171.514 108.602 81.156 81.2759 221.323 145.641 89.6504 77.0424 75.6824 94.4719 73.2848 16.3656 63.9427 29.084 103.183 86.438 55.9903 14.3323 50.4155 19.7668 22.8693 12.334
internal_count=3247 2198 1801 1049 1723 1344 379 711 504 353 207 397 876 616 347 252 260 252 294 53 200 84 468 377 269 53 187 82 107 51
is_linear=0
shrinkage=0.05


Tree=17
num_leaves=31
num_cat=0
split_feature=2 66 9 59 66 10 1 9 37 22 85 31 9 10 11 9 13 78 90 61 55 21 53 24 67 36 48 72 67 80
split_gain=137.324 34.1832 24.0566 23.3687 23.126 19.7682 21.5019 20.6094 18.2516 16.8393 14.6906 14.6281 14.1333 13.551 13.5379 13.1818 14.118 13.0762 12.9879 11.8322 11.5831 11.8138 11.5168 14.7293 14.3498 11.4286 11.0509 15.3794 10.3943 10.0913
threshold=0.0010970594884646965 222.93571376295407 26325.000000000004 451403.60000000003 1.4889000604918017 -0.043885063029413744 140.50000000000003 35880.000000000007 7751.0000000000009 1.0000000180025095e-35 0.25978924632542855 0.038212429695337349 3061.5000000000005 0.11389997732435166 -25.691982325020543 3833.5000000000005 -190945.49999999997 1.0000000180025095e-35 0.7688096080792034 -216043.45413533834 0.00093711105266252703 0.023468814621023969 1.2931819510519665e-18 0.31030735845095136 -172.27649059524978 523880.50000000006 0.17788501226342507 0.84437911169079471 328.50081968162959 -0.30842716629363914
decision_type=2 2 2 2 2 2 2 2 2 2 2 2 2 2 2 2 2 2 2 2 2 2 2 2 2 2 2 2 2 2
left_child=1 3 4 5 9 8 12 15 11 -2 -6 28 18 -3 -11 -8 -17 22 20 -16 21 -7 24 -24 -18 -19 -4 -28 -1 -25
right_child=2 13 26 -5 10 6 7 -9 -10 14 -12 -13 -14 -15 19 16 17 25 -20 -21 -22 -23 23 29 -26 -27 27 -29 -30 -31
leaf_value=0.036756532738350646 -0.030999358202843604 -0.037005380008211165 -0.027995467457181074 0.046490653873137867 -0.00081613537243064378 -0.068684878327535961 0.03449234409337839 -0.039101009826706008 -0.066958539588657717 0.070335654845223486 0.035680273062128308 -0.017286197604585357 -0.046259930146921986 0.047463545048712578 -0.036067479828978136 -0.058151705123439236 -0.017830548293961079 -0.021977343173077663 0.059020636619328562 0.04699122924059209 0.0055739029581732928 0.0020130047820293147 0.028540260721972934 0.0024789605352851895 0.047489741501341387 0.051208089551618853 0.070156969507117167 -0.019849676463017572 -0.02350036858467236 -0.065045854390183233
leaf_weight=82.596041783690453 5.7131741642951956 74.950300127267838 18.552879989147186 29.883585348725319 35.29166704416275 15.333692222833635 39.618125155568123 25.441510453820229 5.9112614691257468 87.523914590477943 126.06499339640141 18.477771088480949 43.167190566658974 5.0691954195499411 4.5032765865325919 9.1256503164768201 10.687827602028845 47.470913648605347 6.3376131802797309 89.607098683714867 27.589148595929146 9.6139228492975217 20.744555845856667 11.473624750971796 39.415926039218903 6.0096689462661734 9.7310014367103594 9.2645036429166776 7.8358463644981375 10.686250463128088
leaf_count=254 20 381 67 78 110 71 113 145 26 206 340 68 249 16 17 48 49 206 20 231 96 32 71 44 131 16 25 33 31 53
internal_value=0.0146495 -0.00145732 0.0374778 0.00371222 0.0415725 0.000790473 -0.0055489 0.0032274 0.0186079 0.0535223 0.0276978 0.0232522 -0.0245285 -0.0316543 0.0561809 0.00874338 0.00218791 0.00594682 -0.00859475 0.0430168 -0.0167513 -0.0414404 0.0172746 -0.00173872 0.033556 -0.0137534 -0.000548529 0.0262589 0.0315353 -0.0300838
internal_weight=933.692 547.44 386.253 467.42 348.704 437.537 322.716 220.674 114.821 187.347 161.357 108.91 102.042 80.0195 181.634 195.233 155.614 146.489 58.8744 94.1104 52.5368 24.9476 93.0082 42.9044 50.1038 53.4806 37.5484 18.9955 90.4319 22.1599
internal_count=3247 2198 1049 1801 924 1723 1344 876 379 474 450 353 468 397 454 731 618 570 219 248 199 103 348 168 180 222 125 58 285 97
is_linear=0
shrinkage=0.05


Tree=18
num_leaves=31
num_cat=0
split_feature=10 13 65 66 84 9 67 1 8 13 1 80 89 77 15 68 92 8 75 13 37 91 24 21 9 30 88 50 24 28
split_gain=68.4153 62.2057 29.8198 26.2807 21.2672 19.657 20.7297 19.2905 41.8946 18.1675 19.1299 16.6203 15.9778 20.3275 15.492 19.1048 15.4114 14.0279 12.0655 12.0647 15.9353 15.1419 14.0283 16.2984 13.1612 11.7315 12.0554 14.3974 16.0323 11.6086
threshold=-0.10395397644221747 1474297.5000000002 646.60653586144531 139.00815762601135 -0.043634852019375212 36996.100000000006 -1207.2060503803527 149.10000000000002 2653.6422477345714 11646928.500000002 80.800000000000011 -0.42663905824547427 -0.65738925070918974 0.52956529385011797 -1.0000000180025095e-35 106.84395724005425 -0.59427433080119518 4033.3651770916927 0.8346800946256473 9068319.5000000019 1068828.0000000002 39.766071395591759 0.81415903377927523 0.059340110759765356 3026.0000000000005 -0.065482303397058683 -0.76457454905992617 0.053276867958697675 2.3600565990718725e-07 0.004908526261141734
decision_type=2 2 2 2 2 2 2 2 2 2 2 2 2 2 2 2 2 2 2 2 2 2 2 2 2 2 2 2 2 2
left_child=16 2 5 9 -5 6 -2 8 18 10 -3 14 -12 19 -9 -16 -1 -13 -8 20 21 22 24 -24 -14 -6 -27 -28 -29 -7
right_child=1 3 -4 4 25 29 7 11 -10 -11 12 17 13 -15 15 -17 -18 -19 -20 -21 -22 -23 23 -25 -26 26 27 28 -30 -31
leaf_value=-0.015649978848445611 -0.0611111889315663 -0.036046304764407802 -0.060359151906241609 -0.05620317357507381 -0.025858037748134433 -0.048761589823499457 0.0094112904056712667 -0.040836974025401325 -0.042908118596536426 0.047821500377670301 0.050630772896742227 0.066287552712584324 0.033989737132844568 0.05213572684317358 -0.013720392603786985 0.05694450796295724 0.052875855740566226 0.017255548198265573 0.075805186306514116 -0.061477157710920341 0.044179218143409756 0.048496233827082527 0.049167100787674604 -0.028843273264332104 -0.047682311326890769 0.059399770322547521 -0.022885596905247885 -0.032159275397659996 0.051312555175324785 0.0051347782192024682
leaf_weight=8.8172462284564954 12.369691371917723 13.471323251724241 23.096063211560249 14.20123368501663 18.078532978892326 32.447706744074821 42.900414928793907 22.819351747632027 54.961880579590797 97.618468180298805 47.615904837846756 16.372501879930496 6.0018611997365943 31.73187580704689 28.267633959650993 14.456299841403959 118.14483898878098 133.77991451323032 8.1413046866655332 6.145722582936286 26.212599724531174 12.676764816045759 15.344146668910982 11.878748983144758 27.691905006766319 14.778238713741301 21.708656445145607 7.680952504277232 22.911683306097984 14.435662999749182
leaf_count=34 64 57 127 66 68 197 143 103 307 250 133 39 17 84 110 40 303 473 20 24 69 35 43 47 122 40 81 26 62 63
internal_value=0.0140199 0.00860724 -0.00519305 0.0226969 0.000443056 -0.00184848 0.00240637 0.00484869 -0.0126166 0.0301572 0.021482 0.013432 0.0256644 0.0170301 -0.00757529 0.0101902 0.0481169 0.022602 0.0200013 0.00651616 0.010703 -0.00122065 -0.0115667 0.0151272 -0.0331341 0.00988956 0.0195239 0.00825654 0.0303551 -0.0321666
internal_weight=926.759 799.797 404.048 395.749 99.3593 380.952 334.069 321.699 106.004 296.389 198.771 215.696 185.3 137.684 65.5433 42.7239 126.962 150.152 51.0417 105.952 99.806 73.5934 60.9167 27.2229 33.6938 85.1581 67.0795 52.3013 30.5926 46.8834
internal_count=3247 2910 1686 1224 343 1559 1299 1235 470 881 631 765 574 441 253 150 337 512 163 357 333 264 229 90 139 277 209 169 88 260
is_linear=0
shrinkage=0.05


Tree=19
num_leaves=31
num_cat=0
split_feature=2 66 3 59 80 2 3 10 39 77 58 75 5 63 7 4 27 51 50 58 10 80 41 48 1 14 19 93 86 11
split_gain=116.989 28.774 22.6272 20.0272 16.315 17.7743 19.068 16.2712 19.1895 17.0286 19.7274 15.3216 15.2063 13.871 20.2308 14.9422 13.4543 13.3025 13.2247 12.2037 12.1714 11.8497 11.6313 13.1386 12.0937 11.0316 12.3775 14.5061 11.3087 13.9855
threshold=0.0010970594884646965 222.93571376295407 0.027158128506803259 451403.60000000003 0.26549500302437873 0.0038385252597418827 -0.94146126262101493 -0.043885063029413744 38663.000000000007 1.0000000180025095e-35 -0.0058462307545610057 0.76471968932580703 35.538191337977032 501.14733259238682 -32.515060240957823 92.307692306331376 1.452032256387036e-27 0.49463046723390697 0.0071272894903055056 0.0023331369733642407 0.11389997732435166 0.78202686396943155 -361457.99999999994 0.1426064905809645 140.50000000000003 0.20783464696449075 0.16335237810617712 8.8942416622045873e-08 0.70952409791422888 -1.0000000180025095e-35
decision_type=2 2 2 2 2 2 2 2 2 2 2 2 2 2 2 2 2 2 2 2 2 2 2 2 2 2 2 2 2 2
left_child=1 3 4 7 5 6 -2 9 18 10 -1 19 -6 14 17 -16 -13 -10 -9 -8 -3 -14 23 -20 -24 26 -26 28 -28 -30
right_child=2 20 -4 -5 12 -7 11 8 13 -11 -12 16 21 -15 15 -17 -18 -19 22 -21 -22 -23 24 -25 25 -27 27 -29 29 -31
leaf_value=0.05101488528340075 -0.059048741963300823 -0.034953464693099998 0.051512820560597 0.043056176322336125 0.059516840423811834 0.048107352056803561 0.0086422033627088935 0.031457381144866833 -0.05209473690936315 0.03482322814981139 -0.020459411759896969 0.0016989090623945682 -0.0064245467419531219 0.027933488378309029 0.038811810404403874 -0.051332357932834416 -0.099189790529356767 0.043230019781555308 -0.037325808690806331 0.044859654159346916 0.044822755908851777 0.067476986726193108 -0.043251870907947042 0.029945622845077215 -0.049710751963895808 0.055511549175166874 0.023063493683557562 -0.055464039809945513 -0.062650091031867958 0.0098046313920368677
leaf_weight=12.591746017336844 9.7203586399555189 72.490915685892105 131.09910671412945 29.518364354968071 54.137914642691612 35.757568806409836 72.622631266713142 14.440809711813925 23.512560606002811 60.663901597261429 41.3797787129879 9.1176214069128019 19.859135076403621 58.775480061769485 24.45538237690926 5.6612365692853919 5.1831488758325568 4.334533527493476 10.648507982492445 34.218617424368858 5.1187548190355292 7.4625986367464057 53.340389057993889 22.797026365995407 22.992488130927086 5.430170312523841 31.988021984696388 12.982664003968237 11.514810770750044 15.797205209732057
leaf_count=35 39 381 338 78 135 91 224 45 115 187 157 29 64 190 81 23 22 13 50 89 16 18 289 74 121 18 126 72 60 67
internal_value=0.0134202 -0.00151777 0.0347109 0.00320664 0.0258318 0.0168663 0.00832978 0.000491954 -0.00531929 0.0166465 -0.00378421 0.0137362 0.0441702 0.0108178 -0.00653764 0.0218668 -0.034867 -0.037257 -0.0146483 0.0202418 -0.0296918 0.0137608 -0.0181994 0.00852751 -0.0240022 -0.0138063 -0.0177571 -0.00759288 0.00288764 -0.0207425
internal_weight=919.613 540.435 379.179 462.825 248.08 166.62 130.862 433.307 318.671 114.635 53.9715 121.142 81.4596 116.739 57.9637 30.1166 14.3008 27.8471 201.932 106.841 77.6097 27.3217 187.491 33.4455 154.046 100.705 95.2752 72.2827 59.3 27.312
internal_count=3247 2198 1049 1801 711 494 403 1723 1344 379 192 364 217 422 232 104 51 128 922 313 397 82 877 124 753 464 446 325 253 127
is_linear=0
shrinkage=0.05


Tree=20
num_leaves=31
num_cat=0
split_feature=2 9 66 1 2 67 3 37 9 49 93 85 25 87 4 81 77 90 15 30 14 85 40 67 51 54 36 49 81 80
split_gain=129.501 33.9816 27.4044 22.4054 19.0249 18.1801 15.9747 21.9477 15.6467 15.2526 12.8453 12.0433 17.4342 11.9461 11.7762 14.9933 14.6229 11.3057 10.8925 19.2704 10.6981 10.6158 20.9753 14.5914 14.9375 19.873 11.9691 11.3154 12.7153 10.5784
threshold=0.00077535759248411468 3088.5000000000005 1.4889000604918017 149.10000000000002 0.0044842267347680017 -290.77750701438953 -0.63848154096659282 -4741.4999999999991 10221.000000000002 0.27973573834331084 -1.3547236516231548e-09 0.24817215578918941 0.0012993015408481862 0.87933029818631769 4.0414488965928763 -0.44156183229524781 -0.1585376742115433 0.063264770986792646 -37.514470222180236 0.088361091028042141 -0.49450057549510823 -0.41020118810662426 15171.000000000002 -152.8248534038328 0.040522245517256208 0.013555585056964687 -66572.499999999985 0.1331588697542759 0.77542421186387311 0.76048116128100995
decision_type=2 2 2 2 2 2 2 2 2 2 2 2 2 2 2 2 2 2 2 2 2 2 2 2 2 2 2 2 2 2
left_child=1 9 5 18 6 10 7 -4 -5 29 -2 12 -8 -13 15 -10 -16 -9 19 -3 -7 22 26 -23 25 -25 -18 -26 -29 -1
right_child=2 3 4 8 -6 20 11 17 14 -11 -12 13 -14 -15 16 -17 21 -19 -20 -21 -22 23 -24 24 27 -27 -28 28 -30 -31
leaf_value=0.026375938665476769 -0.038685021084594082 -0.043178889244517599 -0.05098877391041863 0.011004017853351193 0.06273687009329211 -0.03092374934376789 0.019609434148867913 -0.017346847777543289 0.076336707995603159 -0.033179765652553671 0.038690894599817983 0.034614333982410282 -0.046918247474627847 -0.0076930085649928124 -0.041501309880484408 -0.023565932840728231 0.030304546633553833 0.062571742622915302 -0.057565276082444432 0.0930570289311346 0.04791795588450639 -0.051528546127331543 0.053094176392835757 0.047414189060811546 -0.068586201101346111 -0.049974617038308973 -0.065463652914361223 -0.033046701261039604 0.038267162506588383 -0.03654715341245577
leaf_weight=99.772338852286339 11.219546541571619 9.1897510141134244 20.319393634796143 69.058840543031693 21.941201031208038 4.3869078755378714 30.310229256749153 8.3336747884750384 7.4222215414047241 14.090083688497542 10.276923209428785 108.24004597961903 14.587042868137358 19.726159825921059 55.873685643076897 7.6024920195341092 5.1735465973615673 9.4359181523323041 40.727960258722305 3.6174031943082801 223.9902618676424 25.199893221259117 16.512858211994171 19.915124922990803 11.3500340282917 7.1077818423509589 8.8327235579490644 18.912879079580311 9.3360429704189283 7.1587101817131034
leaf_count=307 42 54 80 256 54 17 91 31 20 62 29 300 55 63 293 35 19 26 262 14 592 141 54 65 68 34 53 97 36 27
internal_value=0.0129164 -0.00680796 0.0307649 -0.0154402 0.0184255 0.0422657 0.0138167 -0.0154953 -0.0094238 0.01572 -0.00169354 0.0202754 -0.00200529 0.0280926 -0.0167242 0.0257861 -0.0203081 0.0250911 -0.0449181 -0.00469881 0.0464035 -0.010629 0.0149184 -0.0191203 -0.00686185 0.0217982 -0.0300894 -0.0264199 -0.00947804 0.0221634
internal_weight=919.622 436.854 482.767 315.833 232.894 249.874 210.952 38.089 262.298 121.021 21.4965 172.863 44.8973 127.966 193.239 15.0247 178.215 17.7696 53.5351 12.8072 228.377 122.341 30.5191 91.8218 66.6219 27.0229 14.0063 39.599 28.2489 106.931
internal_count=3277 1897 1380 1501 700 680 646 137 1171 396 71 509 146 363 915 55 860 57 330 68 609 567 126 441 300 99 72 201 133 334
is_linear=0
shrinkage=0.05


Tree=21
num_leaves=31
num_cat=0
split_feature=2 9 66 1 10 2 8 3 37 49 2 33 93 79 91 77 67 82 8 33 66 22 49 1 54 40 51 64 64 30
split_gain=118.018 30.9625 25.4195 21.1281 18.3102 17.8267 14.5486 14.4629 19.9538 13.8063 13.7154 15.6784 12.9416 12.0769 14.608 14.2333 11.0655 11.6795 11.1908 10.9152 19.2787 12.0316 15.5518 15.0215 10.1138 9.93805 16.5469 18.6556 9.57284 17.4095
threshold=0.00077535759248411468 3088.5000000000005 1.4889000604918017 149.10000000000002 -0.076579482367659699 0.0044842267347680017 11093.371844079446 -0.63848154096659282 -4741.4999999999991 0.27973573834331084 0.002378096946782223 -0.052019370857840509 -2.4944092488917147e-07 -0.95241373408994356 94071428571.428574 -0.1585376742115433 -290.77750701438953 0.32585470538548178 2163.679465356608 0.029952953497456195 14.274976993561852 0.025196672935646498 0.19116526845023088 371.00000000000006 0.016331594709701025 10121.000000000002 0.04388964612129375 90.845098214599162 -2.9560007897491909 0.088361091028042141
decision_type=2 2 2 2 2 2 2 2 2 2 2 2 2 2 2 2 2 2 2 2 2 2 2 2 2 2 2 2 2 2
left_child=1 9 4 28 -2 7 19 8 -4 -1 11 -6 -9 -8 15 -15 -13 18 -18 21 -21 22 -5 -23 25 26 27 -17 29 -3
right_child=2 3 5 6 10 -7 13 12 -10 -11 -12 16 -14 14 -16 24 17 -19 -20 20 -22 23 -24 -25 -26 -27 -28 -29 -30 -31
leaf_value=0.021016293528052267 0.059413353316209352 -0.043358759708219244 -0.048865040142945987 0.0098889944506550288 0.054205181850473697 0.061015678589584066 -0.061248738232572542 -0.069091162601770062 0.023784490303385315 -0.031914852909259495 0.049278250515751972 -0.044480209199701387 0.021434177249151989 -0.03963080745828975 0.060538517589339952 -0.0075547774713795078 0.039737652113567556 0.038577836901385484 -0.020853107344661191 -0.074133227973603902 0.042183105212155111 -0.043044320879150021 0.071157538399930761 0.034979663755335892 -0.036481723600589898 0.019945184608696029 -0.040797045833285285 0.10581346417431366 -0.056735051017819518 0.082076397669099299
leaf_weight=107.12038251757622 85.124698415398598 9.8143987059593183 20.14678643643856 29.466896742582321 24.3617073148489 21.444785445928574 14.384603470563887 4.0428856164216986 17.803767204284668 13.920493602752684 61.830503329634666 8.8417633473873121 168.38433364033699 46.392414376139641 6.4094336777925482 14.893620803952219 10.67108269035816 29.461456477642059 26.658163234591484 9.5350704789161664 5.6870424747467032 15.227829337120058 15.970826581120489 10.369390055537222 22.21171860396862 39.022275611758232 25.794732302427292 4.7978251427412024 38.383966460824013 3.8518847376108161
leaf_count=334 219 61 80 103 62 54 82 17 57 62 164 35 492 249 20 65 28 79 93 48 21 77 46 34 116 151 145 14 254 15
internal_value=0.0123691 -0.00653837 0.0294789 -0.0148609 0.0406415 0.017588 -0.00904307 0.0131612 -0.0147829 0.0149289 0.0307669 0.0193206 0.0193116 -0.0173702 -0.0134136 -0.0165093 0.00808402 0.0150425 -0.0035324 0.00774569 -0.030677 0.0159793 0.0314242 -0.0114369 -0.00645808 0.00143316 -0.0144482 0.0200674 -0.0439404 -0.00800447
internal_weight=912.027 433.255 478.772 312.214 246.949 231.823 260.164 210.378 37.9506 121.041 161.825 99.9942 172.427 173.907 159.522 153.113 75.6325 66.7907 37.3292 86.2571 15.2221 71.0349 45.4377 25.5972 106.72 84.5085 45.4862 19.6914 52.0502 13.6663
internal_count=3277 1897 1380 1501 680 700 1171 646 137 396 461 297 509 842 760 740 235 200 121 329 69 260 149 111 491 375 224 79 330 76
is_linear=0
shrinkage=0.05


Tree=22
num_leaves=31
num_cat=0
split_feature=2 9 2 10 3 49 38 79 91 67 8 50 63 77 5 22 60 3 87 60 14 91 25 22 86 38 33 59 55 6
split_gain=107.728 28.2109 24.1892 21.7416 14.1979 12.4988 12.0637 11.963 12.9107 11.6701 11.4078 16.2804 14.1624 11.6271 11.6572 11.3618 13.9244 11.2374 12.3469 10.136 10.2822 9.8666 13.6819 11.1989 9.67076 12.8261 12.1931 17.1166 10.4569 11.263
threshold=0.00077535759248411468 3088.5000000000005 0.0025935416157440642 -0.076579482367659699 1.8275402737079094 0.27973573834331084 4597890.0000000009 -0.95382839621657001 94071428571.428574 172.3345659164377 38887.711659614673 0.010813704166703608 -1.0000000180025095e-35 -0.086807659516627 12.214582252201877 0.009674356437856307 -49501.724242424236 -0.38343179454049114 0.8751054999850183 57034.218181818193 0.092735693821879669 36.297443957531037 0.37066864610443478 0.03596500466867425 0.79990323925632234 -228213.99999999997 -0.013513194004353806 -62223.099999999991 -0.011066391404526319 79.742099743600178
decision_type=2 2 2 2 2 2 2 2 2 2 2 2 2 2 2 2 2 2 2 2 2 2 2 2 2 2 2 2 2 2
left_child=1 5 3 9 21 -1 7 -3 10 -2 11 12 -9 -13 -15 16 -16 18 -4 20 -18 24 23 -23 26 -26 -5 -28 -27 -30
right_child=2 6 17 4 -6 -7 -8 8 -10 -11 -12 13 -14 14 15 -17 19 -19 -20 -21 -22 22 -24 -25 25 28 27 -29 29 -31
leaf_value=0.019930540955257713 0.053720600214995466 -0.05043915026339485 0.038931136864196608 0.039711363630959798 0.052431002157480172 -0.030696495815460714 0.055620468095185865 -0.02752063244170664 0.056950800590199205 -0.0025136476405821879 -0.039709433414969582 -0.030564832110383806 0.045834305435521361 0.025444774470253152 -0.05144516795590251 -0.028031523911558495 0.052252328718816902 0.055956401371297163 -0.020323301768301563 -0.035348726780815555 -0.013696310379757713 -0.067261618968345926 0.047101048138831168 0.002360177121753476 -0.043470178181053296 -0.036281358489333969 0.056364375474730194 -0.003900274738892465 0.029275064767245895 -0.035015965805120106
leaf_weight=107.30325292050838 60.278258204460144 22.903863325715065 46.163013681769371 57.193348735570908 21.816833570599556 13.753674700856207 6.0480293780565253 9.4793427884578723 6.470879614353179 10.893250793218611 38.562862984836102 78.649605818092823 21.511800915002823 23.816981211304665 8.5503437966108304 57.539488434791565 20.0248116850853 90.984833687543869 10.859452426433561 6.7562622278928748 8.3853058069944364 12.338587522506719 6.5626186579465857 10.859628587961195 13.877789705991743 10.259698405861853 14.900351032614706 56.306488826870918 42.826077684760094 8.1008809953927976
leaf_count=334 157 136 123 158 55 62 15 42 20 34 248 406 60 86 40 307 69 244 35 29 43 53 18 36 55 38 38 185 123 28
internal_value=0.0118532 -0.0062783 0.0282847 0.0206783 0.0138594 0.0141786 -0.0143005 -0.0156978 -0.0128534 0.0451136 -0.0145063 -0.0103655 0.023397 -0.0155015 -0.00602931 -0.0134325 0.0057826 0.0450496 0.0276466 0.0196969 0.0327874 0.0102513 -0.0166385 -0.03467 0.0141845 -7.23347e-05 0.0225192 0.00871037 0.00977076 0.0190484
internal_weight=903.978 429.757 474.221 326.214 255.042 121.057 308.7 302.652 279.748 71.1715 273.277 234.714 30.9911 203.723 125.073 101.256 43.7167 148.007 57.0225 35.1664 28.4101 233.225 29.7608 23.1982 203.465 75.0644 128.4 71.2068 61.1867 50.927
internal_count=3277 1897 1380 978 787 396 1501 1486 1350 191 1330 1082 102 980 574 488 181 402 158 141 112 732 107 89 625 244 381 223 189 151
is_linear=0
shrinkage=0.05


Tree=23
num_leaves=31
num_cat=0
split_feature=13 10 39 39 60 1 8 56 15 52 66 1 6 59 9 1 1 41 12 10 13 33 88 58 22 41 87 88 82 10
split_gain=53.6192 36.7408 32.9362 20.3801 16.3488 15.1741 12.7464 11.8331 11.5085 14.4329 11.4127 11.1815 11.4258 11.0378 12.134 15.7414 12.372 11.425 13.9689 10.7237 10.7001 10.3922 11.6006 11.3809 10.0189 12.3571 14.9757 15.699 18.7119 9.91223
threshold=11646928.500000002 -0.10770534957390797 38663.000000000007 -10754.499999999998 13618.712121212122 6250.0000000000009 33228.935302024918 -0.023054039451558771 -188.99766954922021 0.00019817381021790758 241.88553689299607 958.80000000000007 91.018373006331487 104989.65000000001 3988.5000000000005 801.00000000000011 137.50000000000003 87997.500000000015 11232.273290362473 0.11099488609948861 -462773.49999999994 -0.090681891856176172 0.40644113935863641 -0.0066531376911798659 0.00011136946263416569 -1849.9999999999998 0.9048488528229659 0.49449162931919194 0.14834978442713198 -0.031936254980079674
decision_type=2 2 2 2 2 2 2 2 2 2 2 2 2 2 2 2 2 2 2 2 2 2 2 2 2 2 2 2 2 2
left_child=1 4 3 6 8 7 11 -4 9 -1 -2 12 21 14 16 17 -9 18 29 -8 -5 22 -3 -23 -22 26 27 -26 -29 -16
right_child=10 2 5 20 -6 -7 19 13 -10 -11 -12 -13 -14 -15 15 -17 -18 -19 -20 -21 24 23 -24 -25 25 -27 -28 28 -30 -31
leaf_value=0.043217102079711321 0.042310490057222316 0.055733541867353513 -0.057729356497761654 0.027128145250822539 -0.033932954610841663 -0.066888660855711532 -0.044506171785277868 0.011019839067809406 0.05183813366306942 -0.068642058254373556 -0.019668347937633602 0.02804949922408145 -0.065239596010455078 0.03760545884265408 0.0689089511221809 0.025742407506182088 0.055253442785432552 -0.039984576989257961 -0.03801861689417621 0.038606047821641815 0.040269215858493024 0.037193295860576563 -0.013680676953908259 -0.0066115928723277043 -0.039278803862457912 -0.040176904229897496 0.066300985357796938 -0.044442940110181524 0.066492975845298549 0.0027369111731828329
leaf_weight=7.2384362965822202 138.92143826186657 17.251324281096462 5.0022195130586615 10.559126056730745 7.4466101080179206 5.3348705768585196 23.008089512586597 35.870015114545822 65.795206680893898 4.7932932674884796 7.8470523059368125 44.260460525751114 6.4438633546233168 64.512188136577606 8.7045931816101092 44.375564634799957 28.263927817344666 24.318082973361015 13.028841957449911 4.6686458587646475 5.6253462880849829 16.477404043078423 9.2443501204252225 148.09243027865887 30.760645844042301 80.371819943189621 5.867490515112876 6.3458392098546019 9.4791063666343671 16.176376536488533
leaf_count=21 378 49 21 37 26 31 128 126 180 24 28 131 32 182 23 148 72 109 61 15 17 50 37 583 158 461 20 33 32 64
internal_value=0.011361 0.00594796 0.00198042 -0.0065503 0.036844 0.016516 0.00165545 0.018368 0.043616 -0.00134621 0.0389968 0.00533491 0.000244725 0.0199861 0.0133287 0.00299 0.0305137 -0.013235 0.00392403 -0.0304864 -0.0213884 0.00245325 0.0315149 -0.00222567 -0.0250886 -0.0278566 -0.00897859 -0.0184601 0.0220074 0.0258872
internal_weight=896.085 749.316 664.043 418.456 85.2735 245.587 269.447 240.252 77.8269 12.0317 146.768 241.77 197.509 235.25 170.737 106.603 64.1339 62.2279 37.9098 27.6767 149.009 191.066 26.4957 164.57 138.45 132.825 52.4531 46.5856 15.8249 24.881
internal_count=3277 2871 2620 1783 251 837 1025 806 225 45 406 882 751 785 603 405 198 257 148 143 758 719 86 633 721 704 243 223 65 87
is_linear=0
shrinkage=0.05


Tree=24
num_leaves=31
num_cat=0
split_feature=2 9 66 1 49 66 2 9 9 92 57 31 75 59 91 49 8 1 5 27 77 82 77 91 3 35 8 21 12 37
split_gain=92.3206 24.0871 22.5483 18.9157 16.4148 21.0443 15.9124 12.1547 12.0464 11.9519 15.7383 12.1433 11.673 11.2768 14.2622 11.1585 10.7722 15.2176 14.1875 16.5492 14.784 10.6918 12.4685 11.5337 15.9037 10.9815 10.4101 11.8598 10.3868 9.62809
threshold=0.00077535759248411468 3088.5000000000005 1.4889000604918017 149.10000000000002 0.099138757726027552 -16.638670284769979 0.0044842267347680017 1442.0000000000002 10221.000000000002 -0.14580054688104171 -0.011233387172508486 0.066414430425945553 0.17394949058721401 -154273.99999999997 94071428571.428574 0.27973573834331084 42443.204788074661 982.00000000000011 7.6356216018239271 1.0000000180025095e-35 0.18026174560184097 -0.70795239486176331 -0.25203363489782221 11.431428569795003 -0.63848154096659282 -0.13997973904641145 9833.6959347209104 0.029042045275799008 15715.218983225399 -121733.49999999999
decision_type=2 2 2 2 2 2 2 2 2 2 2 2 2 2 2 2 2 2 2 2 2 2 2 2 2 2 2 2 2 2
left_child=1 15 4 -3 5 12 7 -4 26 -6 -11 -12 -2 -10 16 -1 17 18 28 20 -20 22 -9 -23 -25 -26 27 -5 -15 -27
right_child=2 3 6 8 9 -7 -8 21 13 10 11 -13 -14 14 -16 -17 -18 -19 19 -21 -22 23 -24 24 25 29 -28 -29 -30 -31
leaf_value=0.018274529288345626 0.0088837416364973814 -0.041973419164485333 -0.045486466717773934 0.02238916351077494 0.054922715464852417 0.073038709260335996 0.057379631101456399 -0.052570947188622721 -0.065362137376528087 -0.032679432471353145 0.022975645494944463 0.055855155906387004 -0.081134179004662924 0.073493210784035118 0.064756401943392231 -0.029812111759931249 -0.039149129623663792 0.020149807806850745 -0.029511433571503501 -0.05720396622681815 0.021425163235397976 0.032356542422826248 0.021197494704001129 -0.033148179148478563 -0.060450159571399632 0.044530915802561848 0.077256925858917566 -0.021655752422650429 -0.024776861033615434 0.0074204176647528755
leaf_weight=107.21454480290413 6.8447282612323779 49.031221322715282 9.1356306970119459 37.08831575512886 90.607260480523109 5.9825532883405677 20.208028793334961 12.411114484071733 10.355654150247572 8.9776920527219755 70.853446260094643 46.519049167633057 7.6001541018486023 6.8333302587270719 5.899423509836196 13.593723326921461 34.743030995130539 35.533079586923122 37.638789936900139 27.164380706846714 22.919917345046997 76.083397403359413 10.637893691658972 20.16833758354187 4.3750077337026587 27.606422707438469 5.2906519919633856 25.996301710605621 4.4335325285792351 47.637202963232994
leaf_count=334 21 330 34 120 247 14 54 47 55 34 210 123 31 21 17 62 235 123 198 152 91 213 32 79 16 73 15 121 23 152
internal_value=0.0108737 -0.00601344 0.0262409 -0.0135417 0.0370301 -0.00581901 0.0150205 0.0109062 -0.00805107 0.0410645 0.0311266 0.036007 -0.0384791 -0.0146629 -0.0116656 0.0128637 -0.0143292 -0.00791896 -0.0179944 -0.0247782 -0.0102332 0.0134961 -0.0185243 0.0176926 0.00651201 0.0165584 0.00988876 0.00423886 0.0348237 0.021036
internal_weight=889.384 423.736 465.648 302.928 237.385 20.4274 228.263 208.055 253.896 216.957 126.35 117.372 14.4449 185.521 175.165 120.808 169.266 134.523 98.99 87.7231 60.5587 198.919 23.049 175.87 99.787 79.6186 68.3753 63.0846 11.2669 75.2436
internal_count=3277 1897 1380 1501 680 66 700 646 1171 614 367 333 52 915 860 396 843 608 485 441 289 612 79 533 320 241 256 241 44 225
is_linear=0
shrinkage=0.05


Tree=25
num_leaves=31
num_cat=0
split_feature=2 3 38 2 3 32 15 61 14 66 75 5 36 69 82 67 80 58 21 68 25 26 21 77 5 52 32 91 75 30
split_gain=69.5712 24.9734 19.0168 18.3966 18.1218 14.7937 22.1676 16.729 15.3745 14.4191 13.8655 13.1794 13.4058 13.1093 12.0201 11.9886 12.017 11.6835 11.3241 12.3808 11.8296 15.1383 11.1027 10.8622 10.8002 13.7362 10.6676 10.5023 10.0721 9.75921
threshold=0.0010970594884646965 -0.29559890409986567 4267276.5000000009 0.00048699587869138479 -0.54539566773356818 0.10157425139371488 -85.763298145838789 -24120.056390977439 0.011864674083710327 77.493296312604869 0.46722504400027437 24.758753790983146 749804.00000000012 0.49777373057110491 0.066829601602992741 255.95292186159324 0.66425873015533465 -0.0035343794190114868 0.0045631960611893785 259.54942907586667 8.7620117636086341e-08 0.01989328802862449 0.37379941008535028 0.038534048330418812 39.848769117015486 5.3615063595110993e-08 -0.078336848357695679 6.5247148844823117 0.039264598338837074 -0.16800246282169712
decision_type=2 2 2 2 2 2 2 2 2 2 2 2 2 2 2 2 2 2 2 2 2 2 2 2 2 2 2 2 2 2
left_child=2 15 3 4 -1 6 23 -8 -7 29 14 18 22 -9 -10 16 17 24 -6 20 -20 -22 -13 28 25 -2 -23 -11 -5 -3
right_child=1 9 -4 5 11 8 7 13 10 27 -12 12 -14 -15 -16 -17 -18 -19 19 -21 21 26 -24 -25 -26 -27 -28 -29 -30 -31
leaf_value=-0.044765441230529952 -0.027885769848839184 -0.024616421674998702 0.045107786501075421 0.019901435008299273 0.053402445121332937 0.073906422735037003 -0.055178484755496221 0.00685714811316875 0.015495941879484882 -0.041495260104284878 0.048247576192101412 -0.024601447175828729 0.019042840933495862 -0.041570957483957227 -0.06652009546395872 -0.034688722737131368 0.049879964594572314 0.020010774805255399 -0.012862031435560698 -0.049117928282188555 0.065537509264453939 0.046085627549123404 0.062209529578578227 0.043106495077596237 -0.058057214575707811 0.052868898043126382 -0.019629629495671971 0.025823200926345165 -0.058905620099244563 0.050272796149905707
leaf_weight=34.716806277632713 12.981134548783308 4.488085374236106 21.761721312999725 13.797292679548265 11.988216295838354 15.347813710570334 18.773921355605125 68.176769718527794 12.124472066760065 6.8310312032699576 16.04972879588604 123.2541417106986 23.57981376349926 17.576774999499321 7.0736778080463401 11.780808061361311 24.368148401379585 100.74525953829288 35.361447863280773 10.585197895765303 15.566599696874617 9.5588528811931557 3.7965875416994086 35.744977653026581 9.9120884090661985 8.8600267022848112 17.447862841188915 38.153271585702896 5.7416174858808509 141.66914144158363
leaf_count=222 48 15 57 44 41 37 81 248 39 24 46 690 76 75 31 45 65 295 136 66 51 30 18 100 39 23 78 107 25 400
internal_value=0.0110906 0.0279808 -0.000640344 -0.00264646 -0.0109057 0.00857439 0.00111451 -0.0124283 0.0321371 0.0403544 0.0139497 -0.00622499 -0.0155813 -0.00306909 -0.0147234 0.0139568 0.0176101 0.0116753 0.00779721 0.00162092 0.00851233 0.0262659 -0.0220073 0.0267205 -0.0147713 0.00487295 0.00362986 0.0156006 -0.00325646 0.0479732
internal_weight=877.813 359.789 518.024 496.263 285.856 210.407 159.811 104.527 50.5957 191.142 35.2479 251.139 150.631 85.7535 19.1981 168.647 156.867 132.499 100.508 88.52 77.9348 42.5733 127.051 55.2839 31.7532 21.8412 27.0067 44.9843 19.5389 146.157
internal_count=3252 1061 2191 2134 1408 726 573 404 153 546 116 1186 784 323 70 515 470 405 402 361 295 159 708 169 110 71 108 131 69 415
is_linear=0
shrinkage=0.05


Tree=26
num_leaves=31
num_cat=0
split_feature=2 15 57 38 10 22 80 90 8 15 57 75 34 30 68 77 2 31 9 93 85 26 48 72 68 11 77 8 5 8
split_gain=63.7292 20.4248 19.591 17.3765 18.0756 16.8104 15.7476 15.1119 15.3913 14.5851 14.2292 14.1592 12.94 14.7957 14.2764 12.7927 12.6665 12.0817 11.3881 11.3634 14.6134 11.2449 11.8588 10.6389 10.8689 12.1478 10.6162 10.009 12.3836 13.1604
threshold=0.0010970594884646965 -128.46239590976083 -0.011233387172508486 4267276.5000000009 -0.043885063029413744 0.00014823511721454361 -0.93990328972389559 -0.94834749208873859 42443.204788074661 -176.32544419839348 0.0011657703366574419 0.31472994107782265 -0.057230425930216426 -0.0052833249770305101 -23.712598704752235 0.10503835452125661 0.0040729443251515353 0.19905056463821355 273150.00000000006 1.189593946273979e-09 0.46118574411160096 6.7954613478814752e-05 0.13209508317196791 3.3697514464852399e-05 325.21307263327395 15.555452412816779 0.17431575865094986 3054.5428907135097 81.614607640476677 14238.76647413106
decision_type=2 2 2 2 2 2 2 2 2 2 2 2 2 2 2 2 2 2 2 2 2 2 2 2 2 2 2 2 2 2
left_child=3 -2 -3 4 9 21 -4 26 10 15 11 17 13 14 -12 -1 -8 -9 -10 -13 -21 22 -6 -11 25 -25 -7 -14 -29 -30
right_child=1 2 6 -5 5 7 16 8 18 23 12 19 27 -15 -16 -17 -18 -19 -20 20 -22 -23 -24 24 -26 -27 -28 28 29 -31
leaf_value=-0.076131692031445042 0.059396867568889948 -0.034149089046870772 -0.029038336553627492 0.043376621804537052 0.043670403096607989 -0.066294201911172301 0.022259101430124495 -0.012880872481919792 -0.050337655314397073 -0.036012655775539935 0.024662644254544674 0.037922368630538356 0.0029641001116539637 0.061583271452757653 -0.069719441459137138 0.028567736786824102 0.048133356532159159 0.060497723008939533 0.045635376200765181 -0.049227561201069178 0.045235277677263326 0.061684129890905298 -0.039806010566402199 0.038487699670583769 -0.020860535254138803 -0.01765378422366401 -0.009785665137354127 -0.042990945440560736 -0.03921576614062685 0.036657310955935052
leaf_weight=7.7320411056280118 42.572617143392563 14.560034975409506 12.787252098321913 21.505319699645042 8.2516898438334518 19.826589450240135 225.9222227036953 69.751580201089382 29.043534509837627 7.6681633442640296 9.8478174582123774 46.156314760446548 28.735091805458069 10.736217260360716 6.7549275904893902 4.6855134814977646 59.825452223420143 6.1001369133591643 3.459081068634986 9.8679618164896983 6.9974322021007529 13.533025324344633 8.7830822244286519 74.686815604567528 11.3307534083724 11.062579058110712 14.31074622273445 61.022125594317913 11.020192794501783 11.872504122555254
leaf_count=40 120 54 46 57 24 124 669 327 202 29 38 157 96 35 39 13 172 24 15 60 21 46 38 228 50 46 67 309 70 36
internal_value=0.0106271 0.0269031 0.0224848 -0.000619133 -0.00253737 -0.00788 0.025247 -0.0110244 -0.00756191 0.014611 -0.00376669 0.00757305 -0.0150161 0.0158417 -0.0137373 -0.0366255 0.0276763 -0.00697963 -0.0401238 0.0250884 -0.010035 0.0276601 0.000630191 0.0206849 0.0251634 0.0312449 -0.0426052 -0.0225049 -0.0312263 0.000133177
internal_weight=870.409 355.668 313.095 514.741 493.236 376.07 298.535 345.502 311.365 117.166 278.862 138.873 139.989 27.339 16.6027 12.4176 285.748 75.8517 32.5026 63.0217 16.8654 30.5678 17.0348 104.748 97.0801 85.7494 34.1373 112.65 83.9148 22.8927
internal_count=3252 1061 941 2191 2134 1728 887 1620 1429 406 1212 589 623 112 77 53 841 351 217 238 81 108 62 353 324 274 191 511 415 106
is_linear=0
shrinkage=0.05


Tree=27
num_leaves=31
num_cat=0
split_feature=2 3 13 64 10 3 39 39 64 83 32 66 68 90 81 87 58 79 87 67 79 17 2 79 87 35 34 4 69 83
split_gain=58.2731 23.3013 16.4185 18.1724 17.0397 16.44 15.4743 17.4386 21.9407 16.1881 14.5257 13.8467 13.1179 13.0382 12.845 10.9933 10.8632 10.6598 10.4142 10.287 10.0566 10.0055 9.90744 11.8596 11.5417 9.41131 9.36395 9.64828 9.27679 9.24933
threshold=0.0010970594884646965 -0.29559890409986567 11646928.500000002 -83.523090427661671 0.086724453560951945 -0.74129030202762569 38663.000000000007 -12030.999999999998 -10.979547441980502 -0.66329221323695686 0.23288800120221234 144.37989049595475 -72.293915493545271 -0.79824890860895625 0.82224640430659013 0.607071371517245 -0.0059671845349711485 0.43911034678829342 0.61919416390625404 220.19716515371491 0.21828088815557281 0.37892596157998965 0.00058462351750556503 0.9167937908287328 0.92265409176094837 -0.022412784691926115 -0.086868304563233092 20.806277055708112 0.47835815566739864 0.61975140305118825
decision_type=2 2 2 2 2 2 2 2 2 2 2 2 2 2 2 2 2 2 2 2 2 2 2 2 2 2 2 2 2 2
left_child=2 13 3 5 6 -1 7 8 -5 -8 12 -3 15 18 22 -11 -10 20 -2 -15 26 29 23 24 -7 -14 -18 -28 -20 -6
right_child=1 11 -4 4 21 14 9 -9 16 10 -12 -13 25 19 -16 -17 17 -19 28 -21 -22 -23 -24 -25 -26 -27 27 -29 -30 -31
leaf_value=-0.046190412107941572 -0.069747301275079152 0.043544136673443271 0.054968819913674173 0.025303545578356425 0.0078963867228763612 0.0336806042297976 -0.051927051197780828 -0.035001249962723767 0.037116120225504659 0.0189637548314389 -0.068504425685582016 0.0040623203205911789 -0.0058333052460819166 0.021739908189401108 -0.020398384838336579 -0.034675330312041695 0.023863165114448769 -0.058917176044152753 0.03096990195522914 -0.02697561453917249 0.044873888750661728 -0.022900473946563544 0.055685795653977313 -0.042681210966144148 -0.045336236418040882 0.040855524898871932 0.009821446367581475 -0.040907921540146157 -0.053292475350280456 0.059586721778914553
leaf_weight=9.7820712625980359 7.8333847820758846 159.35999095439911 12.954141423106192 37.912583716213703 16.784899316728115 49.273062266409397 11.605371356010435 93.958408154547215 7.7571476846933356 19.01690873503685 5.5235821902751914 25.802768677473068 14.214918427169321 132.84473024308681 15.400737769901751 19.192968674004078 9.5899935290217382 18.011375293135643 9.4520165622234327 11.799135476350783 6.2237971797585478 9.7011224254965764 25.022780433297157 7.0443024039268485 5.0996585488319388 44.84433688223362 12.026452071964739 42.478600554168224 4.991286873817443 17.86601860076189
leaf_count=56 34 468 35 137 59 182 52 568 27 65 31 78 57 391 63 87 36 90 27 44 22 37 68 31 23 151 44 219 19 51
